tree
version=v4
num_class=1
num_tree_per_iteration=1
label_index=0
max_feature_idx=93
objective=binary sigmoid:1
feature_names=volatility_20d atr_14 sma_200 sma_50 price_vs_sma200 price_vs_sma50 return_50d xlu_vs_xlk xlv_vs_xlk defensive_rotation mags_vs_spy rsp_vs_spy narrow_leadership adx plus_di minus_di bb_width bb_width_percentile bb_squeeze bb_expansion adx_regime_score is_trending is_range_bound regime_confidence rsi rsi_overbought rsi_extreme macd macd_signal macd_histogram distance_from_20d_high at_new_highs extended_move usdjpy_level usdjpy_momentum_3d usdjpy_momentum_5d usdjpy_momentum_10d usdjpy_acceleration_3d usdjpy_volatility yen_carry_unwind_risk dxy_level dxy_momentum_5d dxy_momentum_10d dxy_rsi eurusd_momentum_5d vix_level vix_percentile_252d vix_momentum_3d vix_momentum_5d vix_momentum_10d vix_regime vix_spike vix_vs_ma20 vix_extreme_high vix_term_structure vix_backwardation vix_term_momentum vvix_level vvix_percentile_252d vvix_momentum_5d realized_vol_20d vix_vs_realized vol_risk_premium vol_regime_transition iv_skew_25d iv_skew_10d iv_skew_50d put_iv_25d call_iv_25d iv_smile_curvature iv_slope_25d iv_slope_10d atm_straddle_price_1w atm_straddle_price_2w atm_straddle_price_1m implied_move_1w implied_move_2w implied_move_1m strangle_skew_1w strangle_skew_2w put_call_volume_ratio put_call_volume_ratio_log put_call_oi_ratio put_call_oi_ratio_log put_call_premium_ratio itm_put_otm_call_ratio otm_put_itm_call_ratio vix_short_term vix_contango vix_change vix_percentile vix3m_percentile vix_volatility vix_mean_reversion
feature_infos=[0.031905026276082132:0.95917436593848149] [0.50490823693456532:14.531177133086031] [57.794236297607419:424.52990295410154] [55.922167892456052:442.09071228027346] [-39.048297490809688:21.548018882602495] [-27.404438406924548:14.349614974472663] [-39.537322742710778:40.022464150934468] [-30.624181287394048:31.179981779886834] [-28.344256835202611:24.254204317797146] [0:1] none [-7.2118721642558166:9.5387729535445924] [0:1] [8.3518241627503595:80.980689680874036] [4.9373817488681215:50.248194068166264] [4.1378923315175768:66.056248577231358] [0.97000943288319508:44.393899654200872] [0.003968253968253968:1] [0:1] [0:1] [0:3] [0:1] [0:1] [0.089807549803604225:1] [16.802763255117299:87.191279457240313] [0:1] none [-21.678346394155454:8.9791790709714405] [-18.143039361284622:7.9646486016189266] [-5.6368429313807855:5.6274291978499917] [0:31.003278498426003] [0:1] [0:1] [75.739997863769531:150.17599487304688] [-16.212009731598819:17.285804788088122] [-17.154886699228712:17.285804788088122] [-17.466124656514857:12.76968593626262] [-17.444804841398987:17.641143193760822] [0.18398789030465568:5.5614456312932976] [0:1] [18.082088470458984:27.343647003173828] [-7.5821480842552464:6.2405416088296972] [-9.2852146108164284:8.6635564516819521] [8.8002416154322987:96.202386608165895] [-10.116561044311979:18.405858040670054] [9.1400003433227539:82.69000244140625] [0.003968253968253968:1] [-37.680097723319783:175.62776809429738] [-42.827257369400193:212.90322769669348] [-50.717273693021525:238.34996009352753] [1:4] none [-32.896762461825148:183.74833429206515] [0:1] [-28.089996337890625:6.470001220703125] [0:1] [-20.469999313354492:16.049995422363281] [59.740001678466797:207.58999633789062] [0.003968253968253968:1] [-32.030340666974922:93.188326213875115] [3.1905026276082133:95.917436593848151] [-46.064949050578718:25.186338423164212] [-46.064949050578718:25.186338423164212] [0:1] none none none none none none none none none none none none none none none none [0.51410976108486595:3.4836283531360324] [-0.6653184933573606:1.2480743808365191] none none [0.055641094032481256:12.660058068905977] [0:201] [0.52706545214500089:52.907337224285605] [0.65928906936992504:1.590032171431597] [0:1] [-0.25905672810706337:1.1559792516603906] [0.003968253968253968:1] [0.003968253968253968:1] none none
tree_sizes=1593 1630 1624 1723 1632 1714 1606 1706 1743 1725 1735 1713 1730 1731 1739 1728 1632 1636 1640 1634 1636 1634 1633 1641 1637 1742 1746 1750 1716 1745 1701 1744 1723 1719 1740 1741 1753 1742 1639 1644 1744 1635 1717 1749 1748 1733 1726 1631 1756 1749 1727 1752 1748 1749 1748 1533 1641 1752 1749 1742 1737 1748 1748 1641 1741 1645 1746 1645 1750 1637 1715 1744 1745 1645 1643 1324 1754 1756 1760 1330 1639 1633 1644 1531 1417 1746 1633 1649 1640 1651 1741 1650 1763 1742 1656 1615 1640 1641 1628 1638 1507 1410 1760 1642 1406 1539 1742 1735 1723 1638 1754 1751 1756 1643 1749 1432 1649 1728 1534 1752 1647 1754 1748 1635 1643 1652 1627 1534 1638 1654 1330 1432 1444 1443 1763 1647 1644 1740 1545 1743 1538 1430 1536 1751 1536 1325 1303 1414

Tree=0
num_leaves=14
num_cat=0
split_feature=0 50 0 1 49 29 33 91 6 87 4 16 33
split_gain=1137.78 97.4998 86.3902 55.4034 43.7425 38.879 30.819 24.0224 23.9368 20.5044 10.3202 8.66522 7.21274
threshold=0.1529062038330801 1.5000000000000002 0.22327930230668283 0.8527173045017673 9.2329770013095978 0.21288766123142314 121.70499801635744 0.59722222222222232 9.5043273619663378 0.93034118857005932 11.022479959057884 15.85661661420569 104.65500259399415
decision_type=2 2 2 2 2 2 2 10 2 8 2 2 2
left_child=1 6 4 10 7 -5 8 -2 -1 -4 -3 -11 -6
right_child=2 3 9 5 12 -7 -8 -9 -10 11 -12 -13 -14
leaf_value=-0.5054614706413213 -0.4892593236501469 -0.5091385725245573 -0.49039231778815612 -0.49299070712148468 -0.48667197353121683 -0.50411677547091449 -0.49072074024673784 -0.47909627610413885 -0.49354507465224501 -0.47885885422279867 -0.50048490551634062 -0.47401890110372175 -0.47881909449733462
leaf_weight=323.40929567813873 214.29669767618179 31.719073534011841 15.171280682086943 221.65397876501083 19.892492294311523 35.885907411575317 15.40648430585861 27.050141930580139 16.901676535606384 228.43079853057861 29.048294484615326 67.709972262382507 85.182734370231628
leaf_count=1285 715 131 51 772 64 141 52 79 59 669 110 185 249
internal_value=-0.4915 -0.500624 -0.482147 -0.496586 -0.485647 -0.494572 -0.504218 -0.488066 -0.504851 -0.478291 -0.50515 -0.477699 -0.480205
internal_weight=1331.76 674.025 657.734 318.307 346.422 257.54 355.717 241.347 340.311 311.312 60.7674 296.141 105.075
internal_count=4562 2550 2012 1154 1107 913 1396 794 1344 905 241 854 313
is_linear=0
shrinkage=1


Tree=1
num_leaves=14
num_cat=0
split_feature=60 50 60 1 29 29 33 33 6 54 89 16 29
split_gain=1111.24 95.8183 83.7653 54.4098 39.5453 38.1347 30.2962 23.7646 23.5537 22.0077 11.969 9.45157 7.4012
threshold=15.290620383308008 1.5000000000000002 22.327930230668283 0.8527173045017673 -0.063747909653083398 0.21288766123142314 121.70499801635744 111.55899810791017 9.5043273619663378 1.8399991989135744 -0.0060534252617446818 15.85661661420569 -0.048342618826181176
decision_type=2 2 2 2 2 2 2 2 2 2 8 2 2
left_child=1 6 4 12 10 -5 8 -6 -1 11 -2 -4 -3
right_child=2 3 9 5 7 -7 -8 -9 -10 -11 -12 -13 -14
leaf_value=-0.0088750998588807192 0.020524543441173076 -0.014342504064852567 0.017409712688552671 0.0034877088790262983 0.0038671706243118514 -0.0075391374759569835 0.005731880290341225 0.011285315431260275 0.0029405809329151561 0.0058664104575086445 0.01284441530172074 0.022401329498218606 -0.006058967878836031
leaf_weight=322.7002177387476 29.132230207324028 17.040402621030807 229.38944514095783 221.84353886544704 95.741951122879982 35.819129347801208 15.428100869059561 84.073631569743156 16.91386416554451 16.06310909986496 138.37168295681477 67.212016269564629 43.600393041968346
leaf_count=1285 81 72 669 772 331 141 52 266 59 54 429 182 169
internal_value=0.00496075 -0.00407074 0.0141788 -6.93893e-05 0.0107341 0.0019238 -0.00763884 0.00738496 -0.00826848 0.017966 0.014267 0.0185935 -0.00856672
internal_weight=1333.33 673.346 659.984 318.303 347.319 257.663 355.042 179.816 339.614 312.665 167.504 296.601 60.6408
internal_count=4562 2550 2012 1154 1107 913 1396 597 1344 905 510 851 241
is_linear=0
shrinkage=0.01


Tree=2
num_leaves=14
num_cat=0
split_feature=0 45 0 1 29 49 45 33 87 17 33 45 33
split_gain=1085.5 117.657 81.2742 43.7259 44.2734 41.8015 26.7842 21.2527 19.3312 18.9771 14.8137 12.4878 6.9244
threshold=0.1529062038330801 13.835000038146974 0.22327930230668283 0.8527173045017673 0.21288766123142314 9.2329770013095978 15.555000305175783 120.58749771118165 0.93034118857005932 0.30222222222222228 110.70849990844728 23.884999275207523 104.65500259399415
decision_type=2 2 2 2 2 2 2 2 8 2 2 2 2
left_child=1 7 5 10 -5 6 -2 9 -4 -1 -3 -10 -7
right_child=2 3 8 4 -6 12 -8 -9 11 -11 -12 -13 -14
leaf_value=-0.0064529080439950171 -0.0037713355115512816 -0.00922443591296415 0.0059671088964021067 0.0027075132056540089 -0.007309774480646538 0.0095762768311786726 0.0091417978641699198 0.0012546403504252799 0.013132252253159133 -0.012158743799556435 0.0024053541039753927 0.019282128884433911 0.017253435501984309
leaf_weight=107.71690890192986 16.45296972990036 64.586057141423225 15.222909510135649 269.46825435757637 52.096212267875671 19.998520851135254 225.91642105579376 17.684602707624435 50.39829209446907 148.9293477833271 12.175831556320189 248.33298754692078 85.820325344800949
leaf_count=420 62 259 51 946 205 64 732 63 154 614 43 700 249
internal_value=0.00490602 -0.0040344 0.0139922 -0.000547647 0.00106027 0.0106013 0.00823866 -0.00906875 0.0177141 -0.0098006 -0.0073114 0.018285 0.0159014
internal_weight=1334.8 672.657 662.142 398.326 321.564 348.188 242.369 274.331 313.954 256.646 76.7619 298.731 105.819
internal_count=4562 2550 2012 1453 1151 1107 794 1097 905 1034 302 854 313
is_linear=0
shrinkage=0.01


Tree=3
num_leaves=15
num_cat=0
split_feature=0 45 0 1 29 49 45 16 89 87 46 46 45 44
split_gain=1060.47 115.721 78.917 42.9268 43.4391 40.6635 26.1828 20.3751 23.6898 18.7395 14.3136 12.3259 12.0625 6.07005
threshold=0.1529062038330801 13.835000038146974 0.22327930230668283 0.8527173045017673 0.21288766123142314 9.2329770013095978 15.555000305175783 3.7927759784239359 -0.10669513964309417 0.93034118857005932 0.59424603174603186 0.019414305806710875 23.884999275207523 -0.3311427505872932
decision_type=2 2 2 2 2 2 2 2 10 8 2 2 2 2
left_child=1 7 5 11 -5 6 -2 8 -1 -4 -9 -3 -11 -7
right_child=2 3 9 4 -6 13 -8 10 -10 12 -12 -13 -14 -15
leaf_value=-0.0033831254940329901 -0.0037379991523507072 0 0.0059012710100090036 0.0026787344112595732 -0.0072506765871783105 0.011344285541231312 0.0090312988097011934 -0.013265886345786397 -0.011765193398429401 0.012964286765185353 -0.0016819822178917321 -0.0094020367353495529 0.019008291220585602 0.017523790422472735
leaf_weight=97.22275085747242 16.438238680362701 17.299115374684334 15.24428817629814 269.64407113194466 52.00017973780632 33.419683516025543 226.3974032998085 109.53896525502205 53.840059325098991 50.546465829014778 13.099637687206267 59.319487899541855 249.39322945475578 72.776040509343147
leaf_count=368 62 63 51 946 205 104 732 458 222 154 49 239 700 209
internal_value=0.00485206 -0.00399846 0.0138096 -0.000542308 0.00104916 0.0104704 0.00814046 -0.00899911 -0.00643251 0.0174692 -0.012081 -0.00725162 0.0180297 0.0156882
internal_weight=1336.18 671.964 664.215 398.263 321.644 349.031 242.836 273.701 151.063 315.184 122.639 76.6186 299.94 106.196
internal_count=4562 2550 2012 1453 1151 1107 794 1097 590 905 507 302 854 313
is_linear=0
shrinkage=0.01


Tree=4
num_leaves=14
num_cat=0
split_feature=0 45 0 1 29 49 45 33 54 29 33 45 44
split_gain=1036.23 113.835 76.6729 42.1465 42.621 39.5947 25.7628 20.8561 20.374 15.5743 14.6105 12.8133 6.00712
threshold=0.1529062038330801 13.835000038146974 0.22327930230668283 0.8527173045017673 0.21288766123142314 9.8080966534934948 15.555000305175783 120.58749771118165 1.8399991989135744 0.17680028707011428 110.70849990844728 23.884999275207523 -0.3311427505872932
decision_type=2 2 2 2 2 2 2 2 2 2 2 2 2
left_child=1 7 5 10 -5 6 -2 9 11 -1 -3 -4 -7
right_child=2 3 8 4 -6 12 -8 -9 -10 -11 -12 -13 -14
leaf_value=-0.0079835659874759133 -0.0037049530893778861 -0.0090995505871243974 0.012794135884367843 0.0026502891225639326 -0.0071921279412341188 0.011233409335345982 0.0089584882491766712 0.0012974488417590517 0.0056057337015754842 -0.013671298088300228 0.0024590320058017678 0.018860100417106548 0.017442971733527272
leaf_weight=182.10644806921482 16.423541471362114 64.315753757953644 52.958498120307922 269.81722709536552 51.903817132115364 32.873835116624832 229.77690750360489 17.666136965155602 16.151418939232826 73.300453633069992 12.15955902636051 247.24379551410675 70.770572289824486
leaf_count=725 62 259 161 946 205 102 741 63 54 309 43 690 202
internal_value=0.00479885 -0.00396322 0.0136315 -0.000537101 0.00103818 0.0103421 0.00808767 -0.00893081 0.0172312 -0.00965898 -0.00719275 0.0178297 0.0155848
internal_weight=1337.47 671.269 666.199 398.196 321.721 349.845 246.2 273.073 316.354 255.407 76.4753 300.202 103.644
internal_count=4562 2550 2012 1453 1151 1107 803 1097 905 1034 302 851 304
is_linear=0
shrinkage=0.01


Tree=5
num_leaves=15
num_cat=0
split_feature=0 45 27 0 11 56 86 29 17 43 46 89 4 4
split_gain=1055.54 99.1857 76.0523 53.8448 47.6692 36.9482 32.5645 31.2681 28.5675 22.6539 15.9939 11.5276 7.9191 6.39712
threshold=0.1529062038330801 13.574999809265138 -1.061316014388346 0.21262869427549394 2.2744843812050335 0.73000001907348644 1.4584491253937519 0.19318633411598737 0.22420634920634921 59.416092639372032 0.6438492063492065 -0.0077742911070520773 3.4355769621273331 -5.6312631501448633
decision_type=2 2 2 2 2 2 10 2 2 2 2 10 2 2
left_child=1 8 11 7 5 -3 -5 -4 9 -1 -10 -2 -6 -13
right_child=2 4 3 6 12 -7 -8 -9 10 -11 -12 13 -14 -15
leaf_value=-0.0068425444587209344 0.019943973204419985 -0.0032777949914850439 0.01079038072084219 0.01641791625328496 0.014305404224125899 0.0059149786958214295 0.0018220679664796766 0.0033724174699445615 -0.012122345221676168 0.005215423228386599 0 0.01686908812935016 0.0041099279214304495 0.0074583099084687687
leaf_weight=70.039036199450493 169.86088170111179 327.6470378190279 169.24527816474438 188.62291707098484 19.543025076389313 49.653006926178932 17.622928485274315 89.782106891274452 159.07394304871559 19.123766347765923 11.210133031010626 21.17203226685524 15.941109433770178 16.751096129417419
leaf_count=276 465 1233 530 543 59 168 61 309 662 66 41 60 55 54
internal_value=0.00480337 -0.00405321 0.0136529 0.0113555 -0.000991205 -0.00204856 0.0152024 0.00824994 -0.0088944 -0.00418591 -0.0113111 0.0187337 0.00998483 0.0129935
internal_weight=1345.29 672.231 673.057 465.273 412.784 377.3 206.246 259.027 259.447 89.1628 170.284 207.784 35.4841 37.9231
internal_count=4582 2560 2022 1443 1515 1401 604 839 1045 342 703 579 114 114
is_linear=0
shrinkage=0.01


Tree=6
num_leaves=14
num_cat=0
split_feature=0 27 11 0 0 29 81 2 29 89 4 4 47
split_gain=1031.6 73.9153 72.5938 52.4115 52.0304 47.1557 39.9375 39.5068 30.4898 11.1269 8.31286 6.20775 1.48856
threshold=0.1529062038330801 -1.061316014388346 2.2744843812050335 0.21262869427549394 0.085639498307382586 0.14867709754692468 0.37408643094324029 244.8703977966309 0.19318633411598737 -0.0077742911070520773 3.4355769621273331 -5.6312631501448633 11.501813851197729
decision_type=2 2 2 2 2 2 10 10 2 10 2 2 2
left_child=2 9 4 8 7 -6 -5 -1 -3 12 -4 -11 -2
right_child=1 3 10 6 5 -7 -8 -9 -10 11 -12 -13 -14
leaf_value=-0.010840193858407217 0.020463249660492823 0.010657988160709307 0.014119757599195181 0.01627693347217745 -0.00067887182114695637 -0.008018109038373326 0 0.0009932685407237061 0.0033363491886493082 0.016649639510119735 0.0037918577165770057 0.0073747480891559946 0.01602957236453045
leaf_weight=173.37453570961952 136.88479250669479 169.63836841285229 19.608219146728516 190.80966585874557 306.53103423118591 123.12348404526711 16.063674986362457 32.675591245293617 89.85024918615818 21.242805778980255 16.188518658280373 16.777023985981941 33.648690894246101
leaf_count=712 369 530 59 547 1123 492 57 118 309 60 56 54 96
internal_value=0.00475179 0.01348 -0.00401687 0.0112163 -0.00480434 -0.00280053 0.0150052 -0.00894157 0.00815333 0.0184793 0.00970345 0.0128356 0.0196671
internal_weight=1346.42 674.915 671.501 466.362 635.705 429.655 206.873 206.05 259.489 208.553 35.7967 38.0198 170.533
internal_count=4582 2022 2560 1443 2445 1615 604 830 839 579 115 114 465
is_linear=0
shrinkage=0.01


Tree=7
num_leaves=15
num_cat=0
split_feature=60 45 27 60 1 29 81 29 17 33 33 46 89 6
split_gain=1008.38 96.5747 71.9039 51.0307 44.1279 40.103 38.918 29.7365 28.2501 29.5746 17.3261 12.9192 10.7535 5.02137
threshold=15.290620383308008 13.574999809265138 -1.061316014388346 21.262869427549393 0.84753326139999996 0.21288766123142314 0.37408643094324029 0.19318633411598737 0.22420634920634921 109.14000320434572 119.74499893188478 0.019414305806710875 -0.0077742911070520773 -6.2826909221614367
decision_type=2 2 2 2 2 2 10 2 2 2 2 2 10 2
left_child=1 8 12 7 11 -6 -5 -4 9 -1 -10 -3 -2 -14
right_child=2 4 3 6 5 -7 -8 -9 10 -11 -12 -13 13 -15
leaf_value=0.0030150644834837392 0.019399769858006729 0 0.010528094704407217 0.016064079781083557 0.0022069331084943592 -0.0067319517492582508 0 0.0033007104419257656 -0.012200143528970031 -0.0086791964380031564 -0.00076564181241186864 -0.010041397672337289 0.01613209875523508 0.0075656088840194268
leaf_weight=34.566266626119614 171.16495345532894 16.621620684862137 170.01825159788132 191.40814633667469 276.37432861328125 60.695865750312805 16.063674986362457 89.917238265275955 153.83068875968456 54.327801078557968 15.601010650396345 58.756845310330391 21.531733930110931 16.580555200576782
leaf_count=123 465 61 530 547 974 240 57 309 645 219 58 240 61 53
internal_value=0.00470104 -0.003981 0.0133112 0.0110797 -0.000961434 0.000574919 0.0148125 0.00805832 -0.00877161 -0.00408455 -0.011182 -0.00785596 0.0182332 0.012681
internal_weight=1347.46 670.774 676.685 467.407 412.449 337.07 207.472 259.935 258.326 88.8941 169.432 75.3785 209.277 38.1123
internal_count=4582 2560 2022 1443 1515 1214 604 839 1045 342 703 301 579 114
is_linear=0
shrinkage=0.01


Tree=8
num_leaves=15
num_cat=0
split_feature=60 45 27 60 11 56 17 33 29 86 33 89 6 48
split_gain=985.855 95.0157 69.9843 49.4464 45.5038 36.0029 27.8771 29.0713 26.198 19.5152 17.0894 10.7824 8.65765 6.12495
threshold=15.290620383308008 13.574999809265138 -1.0264731312207898 23.140111929525975 2.2744843812050335 0.73000001907348644 0.22420634920634921 109.14000320434572 0.19318633411598737 1.4201052326624708 119.74499893188478 -0.0077742911070520773 -5.9401757393704395 -0.51017037962296496
decision_type=2 2 2 2 2 2 2 2 2 10 2 10 2 2
left_child=1 6 11 8 5 -3 7 -1 -4 -5 -8 -2 -13 -6
right_child=2 4 3 9 13 -7 10 -9 -10 -11 -12 12 -14 -15
leaf_value=0.0029829872090295383 0.019007339744743799 -0.003205865114133657 0.01069596480014345 0.01654627423607526 0.013490388538434499 0.0058658833661763589 -0.012119575712308149 -0.0086130752123873538 0.0044411698480156967 0.003909138569696222 -0.00075837090436803897 0.016394301566260337 0.0058407428285622729 0.0043460643094960314
leaf_weight=34.593832448124886 178.35612815618515 326.97770240902901 191.22824822366238 145.63984405994415 20.053371727466583 49.702653437852859 153.31071318686008 54.201889142394066 109.81715099513531 14.890413701534269 15.597884222865103 22.776826336979866 15.662253215909002 15.593661502003668
leaf_count=123 484 1233 592 410 61 168 645 219 371 50 58 64 51 53
internal_value=0.00465084 -0.00394604 0.0131461 0.0108941 -0.000952334 -0.00198941 -0.00870549 -0.00404798 0.00844203 0.0154209 -0.0111053 0.0178816 0.0123528 0.00974401
internal_weight=1348.4 670.032 678.371 461.576 412.327 376.68 257.704 88.7957 301.045 160.53 168.909 216.795 38.4391 35.647
internal_count=4582 2560 2022 1423 1515 1401 1045 342 963 460 703 599 115 114
is_linear=0
shrinkage=0.01


Tree=9
num_leaves=15
num_cat=0
split_feature=0 45 27 0 11 80 56 29 17 33 33 89 48 38
split_gain=963.917 93.5071 68.1749 48.6947 44.5611 37.3259 35.2887 28.3746 27.5114 28.577 16.8575 10.0631 5.95471 2.23461
threshold=0.1529062038330801 13.574999809265138 -1.061316014388346 0.21262869427549394 2.2744843812050335 1.4524588392866427 0.73000001907348644 0.19318633411598737 0.22420634920634921 109.14000320434572 119.74499893188478 -0.0077742911070520773 -0.51017037962296496 0.56937101812423119
decision_type=2 2 2 2 2 10 2 2 2 2 2 10 2 2
left_child=1 8 11 7 6 -5 -3 -4 9 -1 -10 -2 -6 -13
right_child=2 4 3 5 12 -7 -8 -9 10 -11 -12 13 -14 -15
leaf_value=0.0029512879016877643 0.018888772702802932 -0.0031764274560608435 0.010270987887379859 0.015670043111088439 0.013318423109541273 0 0.0057997035348891909 0.0032181796509235432 -0.012040090286112361 -0.0085476025640257147 -0.00075116832297759701 0.009053284265113027 0.0042997909603471433 0.015615801165372091
leaf_weight=34.620982572436333 172.31674154102802 326.71386463940144 170.75237993896008 192.47084099054337 20.115315496921539 16.080197796225548 49.772462472319603 90.071036800742149 152.78553883731365 54.075357705354691 15.594783768057821 20.558751538395882 15.609162867069243 17.726216286420822
leaf_count=123 465 1233 530 547 61 57 168 309 645 219 58 64 53 50
internal_value=0.00460178 -0.0039109 0.0129847 0.010814 -0.000942491 0.0144502 -0.00197038 0.00786537 -0.00864014 -0.00401178 -0.0110295 0.0177619 0.00962966 0.0123828
internal_weight=1349.26 669.287 679.976 469.374 412.211 208.551 376.486 260.823 257.077 88.6963 168.38 210.602 35.7245 38.285
internal_count=4582 2560 2022 1443 1515 604 1401 839 1045 342 703 579 114 114
is_linear=0
shrinkage=0.01


Tree=10
num_leaves=15
num_cat=0
split_feature=0 45 45 11 33 27 40 28 17 45 33 47 16 48
split_gain=945.603 113.536 88.5807 47.2145 40.5783 33.4316 26.2172 24.3934 17.3209 15.156 13.7312 8.74213 7.1886 4.48887
threshold=0.1529062038330801 13.914999961853029 24.464999198913578 2.3558870995565537 121.70499801635744 -0.20650437481808123 21.088943481445316 -0.79540500321898799 0.14718319021597712 15.815000057220461 107.57850265502931 1.1769345676633349 8.5299822268618382 -1.2353525005989405
decision_type=2 2 2 2 2 2 2 2 2 2 2 2 2 2
left_child=1 4 5 6 8 10 -3 12 -1 -7 -2 -9 -4 -5
right_child=2 3 7 13 -6 9 -8 11 -10 -11 -12 -13 -14 -15
leaf_value=-0.0048246088883088373 0.0068046508131245397 0.0014125988538642193 0.011812195228033489 0.014255934677283541 0.0082795123442003724 -0.0032693955104877198 -0.0040087669683428143 0.015780586703892201 -0.011120670821776691 0.0067615267933890779 0.014408152062361622 0.010949501287146508 0.019749526431650656 0.0059679494029577394
leaf_weight=60.866878643631935 36.438627362251282 157.00204689800739 18.916442349553108 17.817650869488716 12.476230919361113 15.595308408141134 202.50046044588089 94.177558168768883 206.38470394909382 162.78843207657337 103.33781290054321 93.050395488739014 153.87007196247578 16.573638871312141
leaf_count=237 117 562 56 53 41 58 771 267 864 528 300 282 407 55
internal_value=0.00436873 -0.00401648 0.0127018 -0.00054074 -0.00888324 0.0087991 -0.00162858 0.01612 -0.0097171 0.00584993 0.0124929 0.0134418 0.018946 0.0105479
internal_weight=1351.8 673.622 678.175 393.894 279.728 318.16 359.503 360.014 267.252 178.384 139.776 187.228 172.787 34.3913
internal_count=4598 2583 2015 1441 1142 1003 1333 1012 1101 586 417 549 463 108
is_linear=0
shrinkage=0.01


Tree=11
num_leaves=15
num_cat=0
split_feature=0 45 45 1 33 11 28 28 33 45 3 17 84 16
split_gain=924.844 111.727 86.3512 50.1122 39.9119 39.1938 29.6679 23.7455 19.0496 18.8186 18.1299 17.1014 8.53645 6.95936
threshold=0.1529062038330801 13.914999961853029 24.464999198913578 0.84077422923565504 121.70499801635744 2.3558870995565537 -0.29021557155103178 -0.79540500321898799 110.96700286865236 16.855000495910648 377.86508666992194 0.14718319021597712 1.4651783880026079 8.5299822268618382
decision_type=2 2 2 2 2 2 2 2 2 2 2 2 10 2
left_child=1 4 6 8 11 -5 9 13 -3 -2 -8 -1 -9 -4
right_child=2 3 7 5 -6 -7 10 12 -10 -11 -12 -13 -14 -15
leaf_value=-0.0047829984561804824 0.0031071633505676695 -0.010209888340243348 0.011674934504125781 0 0.0081836918520268448 0.011605356688363676 0.00484292567083691 0.013979650030903077 0.0033105399704943124 0.013723884354128952 0.016216167813008067 -0.011045239942896313 0.0057605747323696164 0.01949453498381588
leaf_weight=60.787185728549957 21.275062516331673 61.517221346497536 18.953144282102585 288.85316906869411 12.501812741160391 31.80100853741169 162.61912049353123 170.63214841485023 11.64835751056671 119.23828582465649 15.540900483727453 205.72295607626438 17.024284452199936 154.32808414101601
leaf_count=237 72 253 56 1049 41 98 539 494 41 348 44 864 55 407
internal_value=0.00432342 -0.00398083 0.0125491 -0.000534852 -0.00881721 0.00115854 0.00869756 0.015919 -0.00798163 0.0121686 0.00590561 -0.00964727 0.0132779 0.0187041
internal_weight=1352.44 672.832 679.611 393.82 279.012 320.654 318.673 360.938 73.1656 140.513 178.16 266.51 187.656 173.281
internal_count=4598 2583 2015 1441 1142 1147 1003 1012 294 420 583 1101 549 463
is_linear=0
shrinkage=0.01


Tree=12
num_leaves=15
num_cat=0
split_feature=0 50 50 1 91 33 27 6 17 4 4 5 47 49
split_gain=904.696 87.9636 79.6433 56.3222 51.7018 38.2911 31.7411 22.3519 19.089 17.6552 16.2574 15.1552 11.9142 1.91855
threshold=0.1529062038330801 1.5000000000000002 2.5000000000000004 0.85799010663487418 0.53273809523809534 121.70499801635744 -0.20650437481808123 9.5043273619663378 0.76785714285714302 12.16055470843502 2.675877474147129 5.1443483214381773 -2.7491649189790852 13.617390318009827
decision_type=2 2 2 2 8 2 2 2 2 2 2 2 2 2
left_child=1 5 6 9 -5 7 10 -1 12 -3 -2 -8 -4 -10
right_child=2 3 8 4 -6 -7 11 -9 13 -11 -12 -13 -14 -15
leaf_value=-0.0087287198453134349 0.014066932561998034 -0.01141887923692647 0.01661280636469677 -0.0065754576198641815 0.0043197106577351034 0.0071298220198629308 0.0049001397666867709 0.0025770005786645666 0.016538926096517734 0.00078841954976330178 0.0054653543051103306 0.012974640342663421 0.010346105206052881 0.019911819557320656
leaf_weight=318.93619267642498 121.1593331694603 48.68655601143837 59.233262374997139 54.833672285079956 200.86099258065224 16.588897705078125 162.68055997788906 17.578015312552452 108.59363684058189 14.541884660720823 30.454285159707069 28.292165324091911 88.493142768740654 82.065185889601707
leaf_count=1305 350 203 164 214 690 55 538 63 298 53 99 84 268 214
internal_value=0.00427888 -0.00394581 0.0123998 -0.000121529 0.00195545 -0.00738071 0.00894447 -0.00812038 0.0158649 -0.00854871 0.0123957 0.00615323 0.0129401 0.0180652
internal_weight=1353 672.026 680.972 318.923 255.695 353.103 342.586 336.514 338.385 63.2284 151.614 190.973 147.726 190.659
internal_count=4598 2583 2015 1160 904 1423 1071 1368 944 256 449 622 432 512
is_linear=0
shrinkage=0.01


Tree=13
num_leaves=15
num_cat=0
split_feature=60 45 45 1 91 33 27 28 33 4 45 7 47 16
split_gain=885.085 108.652 82.2686 48.3907 50.1091 38.6964 31.2717 22.7858 18.8223 15.0778 14.6894 13.9312 8.36612 6.69757
threshold=15.290620383308008 13.914999961853029 24.464999198913578 0.84077422923565504 0.52083333333333348 121.70499801635744 -0.20650437481808123 -0.79540500321898799 110.96700286865236 2.675877474147129 15.815000057220461 3.348572619163193 1.1769345676633349 8.5299822268618382
decision_type=2 2 2 2 8 2 2 2 2 2 2 2 2 2
left_child=1 5 6 8 -5 11 9 13 -3 -2 -8 -1 -9 -4
right_child=2 3 7 4 -6 -7 10 12 -10 -11 -12 -13 -14 -15
leaf_value=-0.010382820003844344 0.013789458845933642 -0.010078208552460477 0.0113710572197842 -0.0061824404514378914 0.0032755332732702243 0.0080076016858827773 -0.0033238784892970414 0.015228883671777882 0.0033745401122827045 0.0053447541177601048 0.0065424200200034323 -0.0030842345448618448 0.010522165492139581 0.019029723733713963
leaf_weight=232.78590950369835 110.79948382079601 61.201104179024696 19.030712351202965 71.515475153923035 249.21528521180153 12.54820132255554 15.61645086109638 94.855469211935997 11.629489257931708 29.840855568647385 163.3998916298151 32.334301888942719 93.615578904747963 155.10771979391575
leaf_count=975 320 253 56 279 868 41 58 267 41 97 528 126 282 407
internal_value=0.00423505 -0.003911 0.0122536 -0.00051562 0.00114472 -0.00869599 0.00849789 0.0155345 -0.00785355 0.0120584 0.00564702 -0.00951898 0.0129515 0.0182563
internal_weight=1353.5 671.23 682.266 393.561 320.731 277.668 319.657 362.609 72.8306 140.64 179.016 265.12 188.471 174.138
internal_count=4598 2583 2015 1441 1147 1142 1003 1012 294 417 586 1101 549 463
is_linear=0
shrinkage=0.01


Tree=14
num_leaves=15
num_cat=0
split_feature=0 45 45 1 91 27 28 28 4 4 45 16 84 16
split_gain=865.989 106.909 80.302 47.523 49.1416 30.5347 22.2273 18.9638 15.2522 14.6917 14.3824 12.6346 8.32103 6.50024
threshold=0.1529062038330801 13.914999961853029 24.464999198913578 0.84077422923565504 0.52083333333333348 -0.20650437481808123 -0.79540500321898799 0.026901887029291673 12.16055470843502 2.675877474147129 15.815000057220461 3.7927759784239359 1.4651783880026079 8.5299822268618382
decision_type=2 2 2 2 8 2 2 2 2 2 2 2 10 2
left_child=1 7 5 8 -5 9 13 -1 -3 -2 -7 -9 -8 -4
right_child=2 3 6 4 -6 10 12 11 -10 -11 -12 -13 -14 -15
leaf_value=0.00012121834414492587 0.013622679817502717 -0.010050788058090098 0.011242023019732452 -0.0061307223344940253 0.0032403069125572386 -0.0032940408782716787 0.013487005100838839 -0.0072843751621840362 0.0011336605165381771 0.0052872276908593223 0.0064692751871062515 -0.011995365765188748 0.0054157361130459849 0.01879595357317785
leaf_weight=21.675620466470718 111.0393131673336 58.389906719326973 19.062230974435806 71.402371272444725 249.40978947281837 15.604912549257277 171.71870438754559 143.10374906659126 14.27638618648052 29.869173035025597 163.59953573346138 112.16438263654709 17.119427621364594 155.47082413733006
leaf_count=81 320 242 56 279 868 58 494 580 52 97 528 481 55 407
internal_value=0.0041917 -0.00387674 0.0121103 -0.000510606 0.00113276 0.00840137 0.0153479 -0.00863175 -0.00779237 0.0119161 0.00558447 -0.00939333 0.0127979 0.018034
internal_weight=1353.91 670.422 683.484 393.478 320.812 320.113 363.371 276.944 72.6663 140.908 179.204 255.268 188.838 174.533
internal_count=4598 2583 2015 1441 1147 1003 1012 1142 294 417 586 1061 549 463
is_linear=0
shrinkage=0.01


Tree=15
num_leaves=15
num_cat=0
split_feature=0 45 0 1 29 33 33 27 29 33 54 1 33 84
split_gain=810.752 88.225 69.3513 45.9385 42.0074 33.9555 28.5912 23.5681 22.4194 21.8509 19.9661 9.69311 8.13326 7.45514
threshold=0.15222240493834224 14.154999732971193 0.22482124312606741 0.8527173045017673 0.21288766123142314 105.61199951171876 119.74499893188478 0.19087755224149563 0.22167368121320261 110.88499832153322 1.7300000190734866 0.96499659885184086 110.88499832153322 1.3701364636539133
decision_type=2 2 2 2 2 2 2 2 2 2 2 2 2 10
left_child=1 6 5 12 -5 8 9 -7 -2 -1 13 -8 -3 -4
right_child=2 3 10 4 -6 7 11 -9 -10 -11 -12 -13 -14 -15
leaf_value=-0.0060039215813210535 0.0072441990236960562 -0.0089102264144486285 0.016545334818542565 0.0030751205110690176 -0.0070519449148833914 0.013130189479944059 -0.0046739577281619659 0.0067924743097119303 -0.0023023521030520319 -0.011930754788047422 0.0044386240255357137 0.0066899990468199397 0 0.011105485865669862
leaf_weight=143.90488624572754 71.962849915027618 60.881557077169418 264.88403123617172 247.59540647268295 48.377286121249199 166.25413359701633 12.686922520399095 100.2315408885479 35.938691377639771 120.27996039390564 17.864561319351196 16.312619641423225 11.168017163872717 39.547952637076378
leaf_count=579 228 250 719 861 193 483 50 322 130 516 58 55 41 116
internal_value=0.00431045 -0.00361433 0.0118361 -0.000337768 0.00139387 0.00885538 -0.00770266 0.0107823 0.00402246 -0.00873866 0.0152639 0.00155397 -0.00748065 0.0158744
internal_weight=1357.89 661.207 696.684 368.022 295.973 374.387 293.184 266.486 107.902 264.185 322.297 28.9995 72.0496 304.432
internal_count=4601 2545 2056 1345 1054 1163 1200 805 358 1095 893 105 291 835
is_linear=0
shrinkage=0.01


Tree=16
num_leaves=14
num_cat=0
split_feature=0 45 0 11 33 33 42 27 7 41 87 4 23
split_gain=793.359 86.7818 67.7509 44.0212 33.1544 31.4936 24.0742 22.9925 21.5729 20.741 17.0429 8.12717 7.36811
threshold=0.15222240493834224 14.154999732971193 0.22482124312606741 2.3558870995565537 105.61199951171876 121.70499801635744 0.94340191859408906 0.19087755224149563 2.9659601868129832 0.23779034150768211 0.93988453640756808 3.4355769621273331 0.41290276638530593
decision_type=2 2 2 2 2 2 2 2 2 2 8 2 2
left_child=1 5 4 6 9 8 -3 -6 -1 -2 -4 -5 -12
right_child=2 3 10 11 7 -7 -8 -9 -10 -11 12 -13 -14
leaf_value=-0.0094980641321939282 0.007283520754967715 -0.0027438539599722628 0.0045128911537386778 0.01454573646938572 0.012973489041730242 0.0077988710175686702 0.0042338935230219615 0.0067165458332181481 -0.0015558648312246324 -0.0017123515666303934 0.009969506160503112 0.0041678461557552015 0.016168994071896228
leaf_weight=238.56974968314171 68.782096475362778 273.30429458618164 16.321256846189499 19.574906244874001 166.58397187292576 11.949270516633986 59.421763002872467 100.35600043833256 41.974396720528603 39.191673025488853 28.662342637777328 15.649074912071226 277.8988124281168
leaf_count=999 219 1030 53 57 483 39 205 322 162 139 85 53 755
internal_value=0.00426633 -0.0035827 0.0116996 -0.000334551 0.00875492 -0.00764418 -0.00147821 0.0106568 -0.00833244 0.00397932 0.0150845 0.0101979 0.0156228
internal_weight=1358.24 660.443 697.796 367.95 374.914 292.493 332.726 266.94 280.544 107.974 322.882 35.224 306.561
internal_count=4601 2545 2056 1345 1163 1200 1235 805 1161 358 893 110 840
is_linear=0
shrinkage=0.01


Tree=17
num_leaves=14
num_cat=0
split_feature=0 45 0 1 11 45 1 7 16 11 54 4 84
split_gain=776.35 85.3741 66.2167 44.8987 41.2865 28.4653 28.1823 24.0448 21.0535 20.3091 19.1242 14.537 7.29466
threshold=0.15222240493834224 14.154999732971193 0.22482124312606741 0.8527173045017673 2.1554455593579829 15.59500026702881 0.95299396187302943 2.8864727639723924 3.7296017919330327 -0.98073317814431082 1.7300000190734866 12.16055470843502 1.3701364636539133
decision_type=2 2 2 2 2 2 2 2 2 2 2 2 10
left_child=1 7 5 11 -5 -2 -7 9 -9 -1 12 -3 -4
right_child=2 3 10 4 -6 6 -8 8 -10 -11 -12 -13 -14
leaf_value=0.00054334209028062189 -0.0028093389022557937 -0.0099005699087916042 0.016166758824477677 1.026815578849988e-05 0.011696345615191568 -0.0044006842998611899 0.0098728897787909269 0.0039838355620446545 -0.010281970847869405 -0.0096696703330776644 0.0043173169584717723 0.00037152309048617694 0.010803620356716588
leaf_weight=20.233328565955162 19.636107906699181 54.769847333431244 265.84908758103848 262.24258141219616 33.800069198012352 13.649760544300078 342.13894681632519 29.996352627873421 15.070810511708258 226.49909494817257 17.896654427051544 17.07524399459362 39.679101467132568
leaf_count=76 72 228 719 951 103 50 1041 108 64 952 58 63 116
internal_value=0.00422311 -0.00355072 0.0115658 -0.000330603 0.00137883 0.00865598 0.00930585 -0.00758587 -0.000737508 -0.00881252 0.0149093 -0.00740442 0.0155054
internal_weight=1358.54 659.687 698.85 367.888 296.043 375.425 355.789 291.8 45.0672 246.732 323.425 71.8451 305.528
internal_count=4601 2545 2056 1345 1054 1163 1091 1200 172 1028 893 291 835
is_linear=0
shrinkage=0.01


Tree=18
num_leaves=14
num_cat=0
split_feature=0 45 0 1 29 33 33 27 29 7 54 4 84
split_gain=759.743 83.9802 64.7652 44.0931 41.0223 32.2983 30.8946 22.3756 21.8649 20.9481 18.6633 14.3268 7.09908
threshold=0.15222240493834224 14.154999732971193 0.22482124312606741 0.8527173045017673 0.21288766123142314 105.61199951171876 121.70499801635744 0.19087755224149563 0.22167368121320261 2.9659601868129832 1.7300000190734866 12.16055470843502 1.3701364636539133
decision_type=2 2 2 2 2 2 2 2 2 2 2 2 10
left_child=1 6 5 11 -5 8 9 -7 -2 -1 12 -3 -4
right_child=2 3 10 4 -6 7 -8 -9 -10 -11 -12 -13 -14
leaf_value=-0.0093677562022979732 0.0070250355397553071 -0.0098309426166579526 0.015978881263039868 0.0030236907880826654 -0.0069917844195277329 0.012712657286617791 0.0077576354735277454 0.0065492060985159715 -0.0023925395899322029 -0.0015333047283731147 0.00427252690476909 0.00036787658146198387 0.010683860612507952
leaf_weight=237.21069610118866 72.198450580239296 54.610516563057899 266.28877948224545 247.84655267000198 48.275055781006813 167.10545073449612 11.959399670362471 100.62112076580524 36.004027828574181 41.941948667168617 17.908608347177505 17.076991096138954 39.727997332811356
leaf_count=999 228 228 719 861 193 483 39 322 130 162 58 63 116
internal_value=0.00418025 -0.00351924 0.0114339 -0.000326964 0.00136503 0.00855764 -0.00752794 0.0104314 0.00384878 -0.00821338 0.0147381 -0.00734645 0.0153263
internal_weight=1358.78 658.921 699.854 367.809 296.122 375.929 291.112 267.727 108.202 279.153 323.925 71.6875 306.017
internal_count=4601 2545 2056 1345 1054 1163 1200 805 358 1161 893 291 835
is_linear=0
shrinkage=0.01


Tree=19
num_leaves=14
num_cat=0
split_feature=0 45 0 11 45 7 40 23 16 11 54 23 48
split_gain=743.647 82.6021 63.3429 42.0321 27.6804 23.3565 21.3959 21.145 20.6804 19.9898 18.22 7.06716 6.52214
threshold=0.15222240493834224 14.154999732971193 0.22482124312606741 2.3558870995565537 15.59500026702881 2.8864727639723924 21.088943481445316 0.6578193597780102 3.7296017919330327 -0.98073317814431082 1.7300000190734866 0.41290276638530593 -1.2353525005989405
decision_type=2 2 2 2 2 2 2 2 2 2 2 2 2
left_child=1 5 4 6 -2 9 -3 -6 -7 -1 11 -4 -5
right_child=2 3 10 12 7 8 -8 -9 -10 -11 -12 -13 -14
leaf_value=0.0006020500758105149 -0.0028391702067809012 0.0014206532598230416 0.0095623531160221494 0.014234637838672098 0.0077458032021515549 0.0039494257396931222 -0.0036735176331396191 0.013800150575310286 -0.010204136472056478 -0.0095400703536272988 0.0042282663789189809 0.015680614555606102 0.0048611967741574776
leaf_weight=20.193928137421608 19.647035226225853 144.50050023198128 28.14911724627018 18.157878324389458 278.71309915184975 30.02243934571743 187.85898931324482 78.031585097312927 15.015529587864874 225.18137656152248 17.920286074280739 278.31522688269615 17.212933599948883
leaf_count=76 72 517 83 53 871 108 718 220 64 952 58 752 57
internal_value=0.00413818 -0.00348836 0.0113053 -0.000323847 0.00846205 -0.00747073 -0.00144489 0.00910154 -0.000719761 -0.00868553 0.0145708 0.0151514 0.00994386
internal_weight=1358.92 658.144 700.776 367.73 376.392 290.413 332.359 356.745 45.038 245.375 324.385 306.464 35.3708
internal_count=4601 2545 2056 1345 1163 1200 1235 1091 172 1028 893 835 110
is_linear=0
shrinkage=0.01


Tree=20
num_leaves=14
num_cat=0
split_feature=0 45 45 1 91 33 33 17 27 4 4 3 40
split_gain=704.846 84.1304 72.7628 44.4628 45.3255 26.1586 24.9512 24.6616 21.7854 20.9839 17.4466 15.7089 10.3817
threshold=0.1529062038330801 13.835000038146974 24.464999198913578 0.84077422923565504 0.52480158730158744 105.50500106811525 121.30900192260744 0.30993431855500825 0.19087755224149563 8.3562646626102755 12.16055470843502 106.56511779785158 20.946020126342777
decision_type=2 2 2 2 8 2 2 2 2 2 2 2 2
left_child=1 6 5 10 -5 11 7 -1 -7 12 -3 -2 -4
right_child=2 3 9 4 -6 8 -8 -9 -10 -11 -12 -13 -14
leaf_value=-0.0048235671989351435 0.0049334594740304723 -0.01029261239241255 0.010860606422115863 -0.0057925603383581301 0.0031115977672422834 0.011457826366628841 0.0052588011578828652 -0.011179868304701166 0.0051807707795261896 0.0044319304390396802 0.0016091732177045345 -0.0054768995180867119 0.015686986792042844
leaf_weight=117.12571403384209 62.321486711502075 54.059857457876205 69.065095320343971 72.654546856880188 258.29117025434971 159.06393365561962 13.510788962244986 139.61773289740086 92.322780296206474 22.962569788098335 14.854978576302527 17.997814327478409 275.27077870070934
leaf_count=471 203 228 200 284 899 464 46 607 299 74 54 67 744
internal_value=0.00401771 -0.00330375 0.0110411 -0.000375543 0.00113594 0.00759398 -0.00760909 -0.00831459 0.00918726 0.014126 -0.00766197 0.00251941 0.0147506
internal_weight=1369.12 670.115 699.004 399.861 330.946 331.706 270.254 256.743 251.387 367.298 68.9148 80.3193 344.336
internal_count=4640 2589 2051 1465 1183 1033 1124 1078 763 1018 282 270 944
is_linear=0
shrinkage=0.01


Tree=21
num_leaves=14
num_cat=0
split_feature=0 45 45 1 91 33 33 17 27 4 4 3 40
split_gain=690.039 82.7635 71.1686 43.6697 44.4492 25.5783 24.5532 24.3725 21.2863 20.4975 17.1943 15.4066 10.1216
threshold=0.1529062038330801 13.835000038146974 24.464999198913578 0.84077422923565504 0.52480158730158744 105.50500106811525 121.30900192260744 0.30993431855500825 0.19087755224149563 8.3562646626102755 12.16055470843502 129.38046417236333 20.946020126342777
decision_type=2 2 2 2 8 2 2 2 2 2 2 2 2
left_child=1 6 5 10 -5 11 7 -1 -7 12 -3 -2 -4
right_child=2 3 9 4 -6 8 -8 -9 -10 -11 -12 -13 -14
leaf_value=-0.0047827176646421657 0.0047163888902728383 -0.010222643795962062 0.010741837917173876 -0.0057437745216894123 0.0030782897275136302 0.011327888474100403 0.0052016095139337786 -0.011109938521727284 0.0051248677755204924 0.0043857556552402014 0.0015929222504357887 -0.0060333419499678945 0.015509175991269646
leaf_weight=116.94998745620251 64.371935397386551 53.889845713973045 69.135602220892906 72.543739646673203 258.4795526266098 159.28422403335571 13.528156667947767 139.09733110666275 92.401611492037773 22.977473273873329 14.86153122782707 15.980976268649099 275.64626057446003
leaf_count=471 210 228 200 284 899 464 46 607 299 74 54 60 744
internal_value=0.00397758 -0.00327469 0.0109188 -0.000371922 0.00112411 0.00751086 -0.00755226 -0.00825441 0.00908507 0.0139678 -0.00760329 0.0024925 0.0145847
internal_weight=1369.15 669.35 699.798 399.775 331.023 332.039 269.575 256.047 251.686 367.759 68.7514 80.3529 344.782
internal_count=4640 2589 2051 1465 1183 1033 1124 1078 763 1018 282 270 944
is_linear=0
shrinkage=0.01


Tree=22
num_leaves=14
num_cat=0
split_feature=0 45 45 1 29 17 38 4 1 4 4 27 47
split_gain=675.603 81.4201 69.6315 42.8916 34.531 23.2622 21.8283 21.0451 20.6604 20.0289 16.9462 12.0359 8.9143
threshold=0.1529062038330801 13.835000038146974 24.464999198913578 0.84077422923565504 0.31600911146386229 0.37896825396825401 0.95601783881615299 9.1833143848853087 0.96499659885184086 8.3562646626102755 12.16055470843502 0.61603161980573529 -3.3464473772810917
decision_type=2 2 2 2 2 2 2 2 2 2 2 2 2
left_child=1 5 6 10 -5 7 8 -1 -2 12 -3 -7 -4
right_child=2 3 9 4 -6 11 -8 -9 -10 -11 -12 -13 -14
leaf_value=-0.0062041693910811326 -0.0034529606421440017 -0.01015341576228735 0.016655255099575154 0.0022130374491381396 -0.0084083654367773826 -0.005102765976576642 -0.0016725034177410985 0.0046096017349186733 0.0087011975812616212 0.0043401303928344457 0.0015768438938961586 -0.01249059147775919 0.012936226246504088
leaf_weight=121.02667257189751 13.820812642574309 53.718972459435463 134.55225001275539 297.60289786756039 33.494910880923271 33.500122502446175 23.416660353541374 20.207850992679596 295.11858312785625 22.992013916373253 14.868002921342848 94.159840241074562 210.63410216569901
leaf_count=495 50 228 355 1046 137 137 82 73 901 74 54 419 589
internal_value=0.00393803 -0.00324591 0.0107988 -0.000368339 0.00111241 -0.00749596 0.00742899 -0.00461085 0.00813661 0.013813 -0.0075452 -0.0106184 0.0144223
internal_weight=1369.11 668.579 700.534 399.685 331.098 268.894 332.356 141.235 308.939 368.178 68.587 127.66 345.186
internal_count=4640 2589 2051 1465 1183 1124 1033 568 951 1018 282 556 944
is_linear=0
shrinkage=0.01


Tree=23
num_leaves=14
num_cat=0
split_feature=0 45 45 91 2 33 33 17 4 28 41 16 47
split_gain=661.485 80.1013 68.1817 25.2051 27.9749 24.8731 24.0986 23.9603 19.5772 15.5739 15.2415 14.2033 8.70383
threshold=0.1529062038330801 13.835000038146974 24.464999198913578 0.52480158730158744 98.513426666259775 105.50500106811525 121.30900192260744 0.14718319021597712 8.3562646626102755 -0.1786245722687351 -0.14029078538828063 5.8567806834355389 -3.3464473772810917
decision_type=2 2 2 8 10 2 2 2 2 2 2 2 2
left_child=1 6 5 11 -5 10 7 -1 12 -7 -2 -3 -4
right_child=2 3 8 4 -6 9 -8 -9 -10 -11 -12 -13 -14
leaf_value=-0.0025510090005957066 0.0062347663864513883 -0.0033307287185923556 0.016470491205463358 -0.0020379772060485982 0.0037943447982593361 0.011191937903064129 0.005189506951017493 -0.009872094229719703 0.0042950463725048805 0.0060054684836075055 -0.002423366711931683 -0.014607803168703555 0.012794330126011395
leaf_weight=61.244146287441254 45.338114991784096 58.247597545385361 134.70584075152874 166.88870917260647 160.28943055868149 138.8648933172226 13.532251626253126 193.44737845659256 23.006198927760124 113.35538217425346 35.131281182169914 14.166896432638167 210.84491118788719
leaf_count=241 145 222 355 626 555 403 46 837 74 360 125 62 589
internal_value=0.0038987 -0.00321752 0.0106803 -0.000364834 0.000805535 0.00734705 -0.00744019 -0.00813968 0.0136615 0.00889726 0.00240143 -0.00569055 0.0142636
internal_weight=1369.06 667.816 701.247 399.593 327.178 332.69 268.224 254.692 368.557 252.22 80.4694 72.4145 345.551
internal_count=4640 2589 2051 1465 1181 1033 1124 1078 1018 763 270 284 944
is_linear=0
shrinkage=0.01


Tree=24
num_leaves=14
num_cat=0
split_feature=60 45 45 1 91 17 38 4 1 4 4 24 40
split_gain=647.77 78.7986 66.7526 41.9795 42.6983 22.8493 21.1791 20.6867 20.1073 19.1415 16.7162 10.9206 9.91508
threshold=15.290620383308008 13.835000038146974 24.464999198913578 0.84077422923565504 0.52480158730158744 0.37896825396825401 0.95601783881615299 9.1833143848853087 0.96499659885184086 8.3562646626102755 12.16055470843502 65.081333963268023 20.946020126342777
decision_type=2 2 2 2 8 2 2 2 2 2 2 2 2
left_child=1 5 6 10 -5 7 8 -1 -2 12 -3 -7 -4
right_child=2 3 9 4 -6 11 -8 -9 -10 -11 -12 -13 -14
leaf_value=-0.0061087693925053147 -0.0034661281400057689 -0.010073346574344326 0.010320919619940567 -0.0056443013338882539 0.0030118435349094376 -0.0072792294208494316 -0.0016946757859340952 0.0046163917309993124 0.0085195087653574513 0.0042504945264496136 0.0015805842887535737 -0.013537685821219754 0.015019682634422713
leaf_weight=120.56017096340656 13.823901146650313 53.517986804246902 69.354753017425537 72.302492186427116 258.85133604705334 63.30932629108429 23.422638028860092 20.202485531568527 295.73909549415112 23.020036578178406 14.866507336497305 63.468936130404472 276.52125209569931
leaf_count=495 50 228 200 284 899 268 82 73 901 74 54 288 744
internal_value=0.0038601 -0.00318925 0.0105645 -0.000361584 0.00110117 -0.00738481 0.00726755 -0.00452319 0.00796342 0.0135132 -0.00747416 -0.0104926 0.0141082
internal_weight=1368.96 667.079 701.882 399.538 331.154 267.541 332.986 140.763 309.563 368.896 68.3845 126.778 345.876
internal_count=4640 2589 2051 1465 1183 1124 1033 568 951 1018 282 556 944
is_linear=0
shrinkage=0.01


Tree=25
num_leaves=15
num_cat=0
split_feature=0 45 45 1 91 17 33 33 46 40 13 47 27 46
split_gain=628.301 73.2151 49.17 31.9991 28.4422 25.4193 24.8454 23.2081 19.367 18.253 19.6773 16.8193 15.5409 15.3043
threshold=0.1529062038330801 13.835000038146974 24.464999198913578 0.84753326139999996 0.52083333333333348 0.30993431855500825 105.61199951171876 109.14000320434572 0.63194444444444453 20.946020126342777 15.872605393900946 3.5081524609579144 0.28348508727920324 0.016812247581478354
decision_type=2 2 2 2 8 2 2 2 2 2 2 2 2 2
left_child=1 5 6 13 -5 7 -2 -1 -7 11 -11 -4 -8 -3
right_child=2 3 9 4 -6 8 12 -9 -10 10 -12 -13 -14 -15
leaf_value=0.0013562871110877487 0.0025961221981026252 0.0020260019440813382 0.012339006430541196 -0.0046214123586371062 0.0024587921394849371 -0.011332579050077318 0.011065951762852796 -0.0073897373885010199 0.0011352703377154596 0.0042727366302988201 0.014991061184127739 0.0029149149002028669 0.0056278519251121506 -0.0088757541355157111
leaf_weight=50.079176008701324 78.515515476465225 15.559775054454802 49.950374081730843 71.81315715610981 259.22416184842587 126.39919336140156 159.77400042116642 72.85477089881897 12.920958563685415 20.250648379325867 265.61219838261604 33.529470711946487 88.104512825608253 56.085176378488541
leaf_count=189 262 57 140 280 905 561 463 303 50 64 713 107 281 236
internal_value=0.00385361 -0.00309062 0.010495 -0.000397538 0.000903122 -0.0071981 0.00760911 -0.00379533 -0.0101406 0.0130181 0.014258 0.00865327 0.00916842 -0.00644118
internal_weight=1360.67 664.936 695.737 402.682 331.037 262.254 326.394 122.934 139.32 369.343 285.863 83.4798 247.879 71.645
internal_count=4611 2581 2030 1478 1185 1103 1006 492 611 1024 777 247 744 293
is_linear=0
shrinkage=0.01


Tree=26
num_leaves=15
num_cat=0
split_feature=0 45 45 1 11 17 33 33 40 13 33 43 61 4
split_gain=615.345 72.0227 48.1774 31.4202 28.2703 25.1056 24.2992 22.8244 17.8462 19.2424 16.7612 15.7974 14.5975 13.8844
threshold=0.1529062038330801 13.835000038146974 24.464999198913578 0.84753326139999996 2.3558870995565537 0.30993431855500825 105.61199951171876 109.14000320434572 20.946020126342777 15.872605393900946 119.74499893188478 51.589789142675663 -4.2339007031036209 11.022479959057884
decision_type=2 2 2 2 2 2 2 2 2 2 2 2 2 2
left_child=1 5 6 13 -5 7 11 -1 -4 -10 -7 -2 -8 -3
right_child=2 3 8 4 -6 10 12 -9 9 -11 -12 -13 -14 -15
leaf_value=0.0013422961039068983 0.0059885433846188956 -0.010098202829186647 0.0085630680444703997 -3.3190802238442661e-05 0.0099298245660393077 -0.011130836522526444 0.0021217959016892624 -0.00733364987641906 0.0042291735083198655 0.014830117980118768 0.0009430633620947079 -0.0031882011479090191 0.0099544884652030801 -0.00096400831321274863
leaf_weight=50.100256502628326 49.813318356871605 41.66648867726326 83.530280560255051 300.2376547306776 30.854189276695251 127.09483245015144 28.90693461894989 72.682532519102097 20.259754210710526 265.81417393684387 11.723324626684187 28.73540461063385 219.21909825503826 29.829190343618393
leaf_count=189 159 179 247 1090 95 567 94 303 64 713 44 103 650 114
internal_value=0.00381592 -0.00306334 0.0103828 -0.00039367 0.000893749 -0.00714413 0.00752711 -0.00376188 0.0128797 0.0141055 -0.0100756 0.00256924 0.00906818 -0.00638987
internal_weight=1360.47 664.188 696.279 402.588 331.092 261.601 326.675 122.783 369.604 286.074 138.818 78.5487 248.126 71.4957
internal_count=4611 2581 2030 1478 1185 1103 1006 492 1024 777 611 262 744 293
is_linear=0
shrinkage=0.01


Tree=27
num_leaves=15
num_cat=0
split_feature=60 45 45 1 91 17 33 33 46 40 47 43 27 46
split_gain=602.67 70.8501 47.2245 30.8669 27.8258 24.7995 23.7672 22.4473 19.1878 17.4657 16.4609 15.4764 15.2364 14.9879
threshold=15.290620383308008 13.835000038146974 24.464999198913578 0.84753326139999996 0.52083333333333348 0.30993431855500825 105.61199951171876 109.14000320434572 0.63194444444444453 20.946020126342777 3.5081524609579144 51.589789142675663 0.28348508727920324 0.016812247581478354
decision_type=2 2 2 2 8 2 2 2 2 2 2 2 2 2
left_child=1 5 6 13 -5 7 11 -1 -7 10 -4 -2 -8 -3
right_child=2 3 9 4 -6 8 12 -9 -10 -11 -12 -13 -14 -15
leaf_value=0.0013284560656694211 0.0059236883656838902 0.0020323589168497642 0.012115275862524359 -0.00458393316780946 0.0024218203138901381 -0.011205472002775925 0.010845370156037776 -0.0072780336339070039 0.0012240996487824602 0.013956157981555259 0.0027991624345866904 -0.0031585411267544849 0.0054683152696625523 -0.0087611757247498517
leaf_weight=50.121087118983269 49.860343709588051 15.556434556841849 50.01964196562767 71.726689159870148 259.41825915873051 125.42797407507896 160.08238852024078 72.510255381464958 12.881465464830397 286.25346331298351 33.561141476035118 28.719961673021317 88.295796126127243 55.792407795786858
leaf_count=189 159 57 140 280 905 561 463 303 50 777 107 103 281 236
internal_value=0.00377854 -0.00303643 0.0102719 -0.000389987 0.00088466 -0.0070908 0.00744572 -0.00372873 -0.0100116 0.0127436 0.00847283 0.00254206 0.0089688 -0.00634047
internal_weight=1360.23 663.435 696.793 402.494 331.145 260.941 326.958 122.631 138.309 369.834 83.5808 78.5803 248.378 71.3488
internal_count=4611 2581 2030 1478 1185 1103 1006 492 611 1024 247 262 744 293
is_linear=0
shrinkage=0.01


Tree=28
num_leaves=15
num_cat=0
split_feature=0 45 45 1 33 23 13 3 40 13 33 47 43 27
split_gain=590.305 69.6984 46.2879 30.309 23.2544 22.6117 24.1728 21.3984 17.083 18.8653 16.506 16.1063 15.1623 14.9019
threshold=0.1529062038330801 13.835000038146974 24.464999198913578 0.84753326139999996 105.61199951171876 0.23321770911964115 14.755801021065958 79.753900985717792 20.946020126342777 15.872605393900946 120.58749771118165 3.5081524609579144 51.589789142675663 0.28348508727920324
decision_type=2 2 2 2 2 2 2 2 2 2 2 2 2 2
left_child=1 5 4 -3 12 6 -1 -5 11 -10 -7 -4 -2 -6
right_child=2 3 8 7 13 10 -8 -9 9 -11 -12 -13 -14 -15
leaf_value=-0.0078788132003838815 0.0058596948192805873 -0.0062900542095475397 0.011986921336500778 0.0083325382423161294 0.01072692797566358 -0.0090707278039152735 0.0068671310051002512 0 0.0040443760816637466 0.014525994565676239 0.001964586084798194 0.0027709769612382744 -0.0031291571504667593 0.0054097722187171991
leaf_weight=21.480484485626221 49.906047642230988 71.198963508009911 50.054866909980774 33.981275498867035 160.23618650436401 203.31827622652054 21.923038184642792 297.21525694429874 20.296509325504303 266.11899951100349 13.562287345528601 33.568537816405296 28.70453105866909 88.363861113786697
leaf_count=90 159 293 140 109 463 886 78 1076 64 713 49 107 103 281
internal_value=0.00374175 -0.00300966 0.0101631 -0.000386194 0.007366 -0.00703782 -0.000323395 0.000875482 0.0126098 0.013809 -0.00835472 0.0083853 0.00251519 0.00887169
internal_weight=1359.93 662.68 697.25 402.395 327.211 260.284 43.4035 331.197 370.039 286.416 216.881 83.6234 78.6106 248.6
internal_count=4611 2581 2030 1478 1006 1103 168 1185 1024 777 935 247 262 744
is_linear=0
shrinkage=0.01


Tree=29
num_leaves=15
num_cat=0
split_feature=0 45 45 1 11 17 45 33 46 33 46 16 46 23
split_gain=578.239 68.5682 45.3921 29.7673 27.3992 24.3907 23.0995 22.0149 19.0033 15.3524 14.7859 12.6247 11.3612 9.86995
threshold=0.1529062038330801 13.835000038146974 24.464999198913578 0.84753326139999996 2.3558870995565537 0.30993431855500825 15.300000190734865 109.14000320434572 0.63194444444444453 105.61199951171876 0.016812247581478354 6.9874650422471891 0.52281746031746046 0.38584037576646718
decision_type=2 2 2 2 2 2 2 2 2 2 2 2 2 2
left_child=1 5 6 10 -5 7 -2 -1 -7 -8 -3 13 -13 -4
right_child=2 3 11 4 -6 8 9 -9 -10 -11 -12 12 -14 -15
leaf_value=0.0013573655702589992 -0.0038011965000589792 0.0020760577120929086 0.010529305593792608 -4.6418937468717558e-05 0.0097497298874949078 -0.011089569049411741 0.0037172157944398532 -0.0071757669388524438 0.001296366242731487 0.0091516715758211981 -0.0086544903362223546 0.0070898346853295827 0.01390489958780957 0.00080278886118664004
leaf_weight=50.075686037540436 16.920347034931183 15.53730760514736 34.703924760222435 300.3163183927536 30.939235970377922 124.51981866359711 72.16168449819088 72.183715209364891 12.849079981446264 238.3667811602354 55.51841127872467 31.995760679244995 286.89548133313656 16.602203845977783
leaf_count=189 62 57 100 1090 95 561 236 303 50 708 236 96 774 54
internal_value=0.0037056 -0.00298288 0.0100565 -0.000382204 0.000866784 -0.0069851 0.00728745 -0.0036487 -0.00989426 0.00791288 -0.00624012 0.0124792 0.0132489 0.00751653
internal_weight=1359.59 661.94 697.646 402.311 331.256 259.628 327.449 122.259 137.369 310.528 71.0557 370.197 318.891 51.3061
internal_count=4611 2581 2030 1478 1185 1103 1006 492 611 944 293 1024 870 154
is_linear=0
shrinkage=0.01


Tree=30
num_leaves=15
num_cat=0
split_feature=0 45 45 1 91 33 17 33 11 33 33 52 0 33
split_gain=589.633 74.5807 57.4506 31.9085 35.6976 23.9285 19.3546 20.8602 18.4111 15.8581 15.4408 11.6481 10.5374 11.2014
threshold=0.15113972835086245 13.244999885559084 24.464999198913578 0.84077422923565504 0.52083333333333348 105.25000000000001 0.22420634920634921 109.14000320434572 0.49316318665375608 119.74499893188478 111.064998626709 -19.777728485852936 0.24890506549290795 91.56000137329103
decision_type=2 2 2 2 8 2 2 2 2 2 2 2 2 2
left_child=1 6 5 10 -5 8 7 -1 -2 -8 -3 -7 13 -4
right_child=2 3 12 4 -6 11 9 -9 -10 -11 -12 -13 -14 -15
leaf_value=0.0030357603752852115 0.0055539605263114512 -0.0083390994734912679 0.0026504882802252474 -0.0051377320791800209 0.002357157863897954 0 -0.011228511420683339 -0.0077798801277380314 -0.0047577676923874039 0 0.003244239858138734 0.0091989861449803308 0.014564497318979946 0.011755520659048327
leaf_weight=28.258832201361656 54.278695285320282 65.266116634011269 16.869946122169495 81.219991430640221 282.96755331754684 14.779420673847197 121.8765359967947 44.744327485561371 24.409036010503769 14.008735582232474 12.97689914703369 246.53475844860077 210.50712341070175 145.4632887840271
leaf_count=104 174 277 54 322 996 50 552 190 89 54 48 733 559 409
internal_value=0.00396367 -0.00290745 0.0102464 -0.000567551 0.000667208 0.00722191 -0.00782635 -0.00353305 0.00228226 -0.0100748 -0.00634606 0.00868306 0.0129778 0.0108511
internal_weight=1364.16 651.319 712.842 442.431 364.188 340.002 208.888 73.0032 78.6877 135.885 78.243 261.314 372.84 162.333
internal_count=4611 2543 2068 1643 1318 1046 900 294 263 606 325 783 1022 463
is_linear=0
shrinkage=0.01


Tree=31
num_leaves=15
num_cat=0
split_feature=0 50 50 1 91 43 54 0 33 4 33 27 1 47
split_gain=577.6 52.5575 50.7594 37.5382 31.7452 22.4074 23.2741 22.6612 22.2036 15.6816 15.0193 13.9587 10.2982 15.6677
threshold=0.15113972835086245 1.5000000000000002 2.5000000000000004 0.8527173045017673 0.56762846381490462 60.096063111546492 0.98500061035156261 0.085097903642597797 105.61199951171876 12.16055470843502 95.075000762939467 0.23762170111681516 1.4491881717132014 -1.0377040127153789
decision_type=2 2 2 2 8 2 2 2 2 2 2 2 2 2
left_child=1 5 8 9 -5 7 -7 -1 10 -3 -2 -10 13 -4
right_child=2 3 12 4 -6 6 -8 -9 11 -11 -12 -13 -14 -15
leaf_value=-0.010215685336143768 0.0060275630194720408 -0.010176837961781569 0.014830225713664345 -0.0048451866834020238 0.0035869201851895923 0.0056767718911760624 -0.0055529141970366604 -0.0042104874645393425 0.010641458090965521 0.0016601872085033284 -0.0023252196554233535 0.0056867586830314587 0.013861542365774433 0.0051758084369468499
leaf_weight=120.23863543570042 62.527573704719543 43.326736360788345 30.45520906150341 56.584442168474197 199.89500364661217 31.656183123588562 42.517584830522537 142.42017681896687 177.45601060986519 13.941885337233542 31.311494290828705 94.937335669994354 272.54516112804413 43.970166087150574
leaf_count=529 198 188 81 221 683 114 177 580 511 51 111 299 733 135
internal_value=0.00392521 -0.0028819 0.0101393 4.82891e-05 0.00170137 -0.00562211 -0.000687385 -0.0069927 0.0074915 -0.00721917 0.00318992 0.0089465 0.0129049 0.00926578
internal_weight=1363.78 650.581 713.203 313.748 256.479 336.833 74.1738 262.659 366.232 57.2686 93.8391 272.393 346.971 74.4254
internal_count=4611 2543 2068 1143 904 1400 291 1109 1119 239 309 810 949 216
is_linear=0
shrinkage=0.01


Tree=32
num_leaves=15
num_cat=0
split_feature=60 45 45 1 91 33 17 33 11 33 33 27 60 33
split_gain=565.875 72.5387 55.4321 30.8037 34.4415 23.0063 19.2112 20.4486 17.9691 15.7306 15.2513 13.6706 10.2638 10.8608
threshold=15.113972835086242 13.244999885559084 24.464999198913578 0.84077422923565504 0.52083333333333348 105.25000000000001 0.22420634920634921 109.14000320434572 0.49316318665375608 119.74499893188478 111.064998626709 0.22368145816690091 24.890506549290794 91.56000137329103
decision_type=2 2 2 2 8 2 2 2 2 2 2 2 2 2
left_child=1 6 5 10 -5 8 7 -1 -2 -8 -3 -7 13 -4
right_child=2 3 12 4 -6 11 9 -9 -10 -11 -12 -13 -14 -15
leaf_value=0.00305641701803816 0.0054511597799598299 -0.0082333771045840914 0.0025471680872035975 -0.0050527149624282185 0.0023165762458301669 0.010271190591533521 -0.011127547802473371 -0.007665154758330575 -0.0047351189351342565 0 0.0032891269923630757 0.0053322177968911748 0.014283225969388134 0.011509968017781076
leaf_weight=28.241490349173546 54.356628030538559 64.936140894889832 16.884213373064995 80.983983278274536 283.19691717624664 165.968097910285 121.06649014353752 44.503055736422539 24.398949012160301 13.975881695747374 12.959538742899893 95.760787785053253 210.52801141142845 145.6211366802454
leaf_count=104 174 277 54 322 996 480 552 190 89 54 48 303 559 409
internal_value=0.00388724 -0.00285655 0.0100341 -0.000551317 0.000659454 0.00706555 -0.00772394 -0.00344202 0.00222234 -0.00997242 -0.00624384 0.00849681 0.0127172 0.0106201
internal_weight=1363.38 649.863 713.518 442.077 364.181 340.484 207.787 72.7445 78.7556 135.042 77.8957 261.729 373.033 162.505
internal_count=4611 2543 2068 1643 1318 1046 900 294 263 606 325 783 1022 463
is_linear=0
shrinkage=0.01


Tree=33
num_leaves=15
num_cat=0
split_feature=0 45 45 1 91 29 13 7 42 6 59 0 29 46
split_gain=554.421 71.4001 54.399 30.2515 33.7825 23.223 23.5571 19.432 17.247 13.2223 11.6714 10.0863 10.5991 8.15524
threshold=0.15113972835086245 13.244999885559084 24.464999198913578 0.84077422923565504 0.52083333333333348 -0.22183716509269255 26.93278589330043 2.9659601868129832 0.1377125693562187 3.5376470430703693 6.9928527173543147 0.24890506549290795 0.23976662133989171 0.019414305806710875
decision_type=2 2 2 2 8 2 2 2 2 2 2 2 2 2
left_child=1 7 5 13 -5 10 -7 8 -1 -9 -2 12 -4 -3
right_child=2 3 11 4 -6 6 -8 9 -10 -11 -12 -13 -14 -15
leaf_value=-0.011309975021593501 0.014624430288420745 0 0.011701303256453582 -0.0050099021751048361 0.0022922067624117949 0.0037228742353403194 0.010788959522663941 0.006236623753083567 -0.0045927798500163151 -0.0067622853042094803 0.0060471785386411086 0.014142111607670241 0.0045011920598697569 -0.0078279013918222222
leaf_weight=113.0621098279953 52.105401620268822 15.931980088353155 134.58854769170284 80.864160791039467 283.35015910863876 196.89383755624294 63.935258284211159 15.158100903034212 63.855798795819283 15.102176502346991 27.758723586797714 210.50751304626465 27.986476689577103 61.795548468828201
leaf_count=511 142 61 376 322 996 635 184 56 269 64 85 559 87 264
internal_value=0.00384989 -0.00283146 0.00993076 -0.000545972 0.000652612 0.00699097 0.0054914 -0.0076696 -0.00893346 -9.27392e-05 0.0117616 0.012589 0.0105101 -0.00619447
internal_weight=1362.9 649.12 713.776 441.942 364.214 340.693 260.829 207.178 176.918 30.2603 79.8641 373.083 162.575 77.7275
internal_count=4611 2543 2068 1643 1318 1046 819 900 780 120 227 1022 463 325
is_linear=0
shrinkage=0.01


Tree=34
num_leaves=15
num_cat=0
split_feature=0 50 50 1 91 29 33 43 29 0 4 1 47 54
split_gain=543.262 50.2244 47.9378 35.8971 30.1396 24.4311 24.2538 21.8477 28.1181 22.1157 15.4773 9.96682 15.3455 10.201
threshold=0.15113972835086245 1.5000000000000002 2.5000000000000004 0.8527173045017673 0.56762846381490462 -0.27439327680586068 105.61199951171876 60.096063111546492 0.020237103396127807 0.085097903642597797 12.16055470843502 1.4491881717132014 -1.0377040127153789 1.8399991989135744
decision_type=2 2 2 2 8 2 2 2 2 2 2 2 2 2
left_child=1 7 5 10 -5 -2 -7 9 -9 -1 -3 12 -4 -13
right_child=2 3 11 4 -6 6 -8 8 -10 -11 -12 13 -14 -15
leaf_value=-0.010058264036227494 0.012281325921533396 -0.010035192978797403 0.01444287036345634 -0.0047270319207434889 0.0034989242726332572 0.0011430919958542911 0.0076760046849148091 0.0053552699142091556 -0.0068805693074838626 -0.0041049149186494095 0.0017454507610017063 0.013989830739889082 0.0049029926025679158 0.0054915612846257048
leaf_weight=119.13509671390057 78.019272893667221 42.994226336479187 30.484879180788994 56.368080407381058 200.24841472506523 81.030042767524719 207.8702532351017 37.479279905557632 36.489479944109917 141.77898065745831 13.907123088836668 254.59176543354988 44.025136843323708 17.984262853860855
leaf_count=529 219 188 81 221 683 273 627 134 157 580 51 678 135 55
internal_value=0.003813 -0.00280663 0.00982915 5.49658e-05 0.0016669 0.00725864 0.00586609 -0.00549666 -0.000619312 -0.00685642 -0.00707868 0.0125178 0.00894303 0.0134585
internal_weight=1362.41 648.401 714.006 313.518 256.616 366.92 288.9 334.883 73.9688 260.914 56.9013 347.086 74.51 272.576
internal_count=4611 2543 2068 1143 904 1119 900 1400 291 1109 239 949 216 733
is_linear=0
shrinkage=0.01


Tree=35
num_leaves=15
num_cat=0
split_feature=0 0 24 6 33 1 33 48 52 17 38 54 47 11
split_gain=554.807 41.4355 40.4309 53.7148 55.6346 35.935 31.288 29.0328 22.5569 21.2781 19.7817 10.4081 9.91136 3.30694
threshold=0.1529062038330801 0.21262869427549394 56.845951833909744 9.5043273619663378 121.30900192260744 0.7606368330287725 104.65500259399415 0.58682358649144739 3.3383627421999287 0.44291187739463606 0.46708205026900657 1.9000005722045901 -2.7491649189790852 0.26820820663622241
decision_type=2 2 2 2 2 2 2 2 2 2 2 2 2 2
left_child=2 6 5 4 -4 13 9 -7 -8 -2 -5 12 -3 -1
right_child=1 11 3 10 -6 7 8 -9 -10 -11 -12 -13 -14 -15
leaf_value=-0.0052657807030897889 0.0067036367715173455 0.014414575391264828 -0.0072285009920951175 -0.0031242847979929744 0.013418106762177988 0.0059846653913538765 0.0066518638382891187 -0.0011970886056323988 0.013138077407024306 -0.0032390125214187167 0.0096471015326833019 0.0042387854044007509 0.010783402072079036 -0.013166365441132786
leaf_weight=12.959156513214113 43.870526179671288 169.56331998109818 322.64223036170006 18.829264521598816 12.989584401249884 86.916784062981606 157.5683402121067 155.64356656372547 87.957611426711082 40.653115153312683 30.508377760648727 18.493345528841019 193.25063781440258 17.384791553020477
leaf_count=55 136 450 1367 73 40 298 484 574 241 144 101 58 540 79
internal_value=0.00373998 0.00986006 -0.00287251 -0.00495779 -0.00639579 5.44682e-05 0.00720848 0.0013628 0.0090178 0.00187181 0.00469025 0.0121297 0.0125117 -0.0100944
internal_weight=1369.23 711.357 657.874 384.969 335.632 272.904 330.05 242.56 245.526 84.5236 49.3376 381.307 362.814 30.3439
internal_count=4640 2053 2587 1581 1407 1006 1005 872 725 280 174 1048 990 134
is_linear=0
shrinkage=0.01


Tree=36
num_leaves=15
num_cat=0
split_feature=0 45 45 33 1 17 43 29 33 46 45 15 28 47
split_gain=543.686 64.0982 42.8419 38.1727 30.4525 28.4084 32.9133 26.3507 21.7361 14.2737 12.1967 10.9628 10.6766 8.97952
threshold=0.1529062038330801 13.454999923706056 24.464999198913578 105.50500106811525 0.84077422923565504 0.22420634920634921 45.221801613184148 0.31600911146386229 119.74499893188478 0.019414305806710875 19.195000648498539 19.429446167175517 -0.68042490905433017 -5.5018833231208477
decision_type=2 2 2 2 2 2 2 2 2 2 2 2 2 2
left_child=1 5 3 11 9 6 -1 -6 -7 -3 -5 -2 -4 -14
right_child=2 4 12 10 7 8 -8 -9 -10 -11 -12 -13 13 -15
leaf_value=-0.0073393442245649563 0.0073417171137623409 0.0017251631723985304 0.013857286526252644 0.0049401077339403026 0.0017419661159668181 -0.010956209640438919 0.0052877644138475954 -0.0067178804118735672 0.0011980008756841238 -0.0086405769962193141 0.010209646036914488 -0.0013058474733073178 0.014005062473657357 0.0086695627757347789
leaf_weight=51.516276612877846 18.942394018173218 16.037552714347839 192.53738340735435 64.137877181172371 307.51638485491276 134.17786690592766 33.370078012347221 41.190912112593651 15.593750059604643 57.764320775866508 194.83849915862083 57.359492242336273 50.537824377417564 133.14182817935944
leaf_count=220 59 60 511 201 1087 619 122 169 59 251 562 199 135 386
internal_value=0.00370434 -0.00284699 0.0097602 0.0071054 -0.000504547 -0.00703334 -0.00231499 0.000720144 -0.0096577 -0.0063243 0.0089359 0.000809679 0.0121003 0.0101988
internal_weight=1368.66 657.167 711.495 335.278 422.509 234.658 84.8864 348.707 149.772 73.8019 258.976 76.3019 376.217 183.68
internal_count=4640 2587 2053 1021 1567 1020 342 1256 678 311 763 258 1032 521
is_linear=0
shrinkage=0.01


Tree=37
num_leaves=15
num_cat=0
split_feature=0 45 45 33 1 17 43 29 33 46 52 38 15 84
split_gain=532.825 63.0782 42.0899 37.374 29.9101 28.0569 32.319 25.867 21.4757 14.0633 14.0092 11.9709 10.7395 9.23726
threshold=0.1529062038330801 13.454999923706056 24.464999198913578 105.50500106811525 0.84077422923565504 0.22420634920634921 45.221801613184148 0.31600911146386229 119.74499893188478 0.019414305806710875 -19.119580092498648 0.3218186152775922 19.429446167175517 1.4552557479698491
decision_type=2 2 2 2 2 2 2 2 2 2 2 2 2 8
left_child=1 5 3 12 9 6 -1 -6 -7 -3 -5 -4 -2 -13
right_child=2 4 11 10 7 8 -8 -9 -10 -11 -12 13 -14 -15
leaf_value=-0.0072852416545294389 0.0072622853462674473 0.0017075553429564451 0.0031557837839180196 2.9663531028289582e-05 0.001723874809648645 -0.010894427012243803 0.005226934039704618 -0.0066652777324108375 0.0011859653807531219 -0.008581176575011961 0.0094749717536484167 0.01763952450066161 -0.0012931511267666341 0.011752298633448064
leaf_weight=51.384242102503777 18.963444277644157 16.046012088656425 16.625099942088127 17.934741795063019 307.64082527160645 133.59516851603985 33.426384225487709 41.105210289359093 15.599525183439253 57.586887001991272 241.19363096356392 35.517049849033356 57.3483916670084 324.00804342329502
leaf_count=220 59 60 52 60 1087 619 122 169 59 251 703 89 199 891
internal_value=0.00366937 -0.00282206 0.00966199 0.0070314 -0.000499705 -0.00698259 -0.00229348 0.000712638 -0.00959818 -0.00627522 0.00884182 0.0119822 0.00080121 0.0123715
internal_weight=1367.97 656.384 711.59 335.44 422.379 234.005 84.8106 348.746 149.195 73.6329 259.128 376.15 76.3118 359.525
internal_count=4640 2587 2053 1021 1567 1020 342 1256 678 311 763 1032 258 980
is_linear=0
shrinkage=0.01


Tree=38
num_leaves=14
num_cat=0
split_feature=45 1 45 4 91 16 33 33 33 28 36 1 1
split_gain=476.459 88.3565 58.3348 39.0578 31.8339 24.8979 32.6604 23.6446 23.0182 22.0148 11.8703 10.4979 7.79866
threshold=18.185000419616703 0.95299396187302943 13.574999809265138 0.4611113146890507 0.52083333333333348 3.7718900031229654 108.83699798583986 81.272998809814467 89.825000762939467 -0.63476099641398531 -0.48074405037643592 2.4877515651872528 1.4086641014567143
decision_type=2 2 2 2 10 2 2 2 2 2 2 2 2
left_child=2 10 5 9 7 6 -1 -4 -5 -3 -2 -6 -7
right_child=1 3 4 8 11 12 -8 -9 -10 -11 -12 -13 -14
leaf_value=0.0033258290995179535 0.0005245558466896148 0.013368453998065549 0.00674935998497156 0.000408733569148841 0.0018830115037092737 -0.012414415661930626 -0.0071030157930052464 -0.0024841703060836723 0.007904307359290463 0.0088246275622976839 -0.0099874512971293555 0.012949842129303158 -0.0059113901893841627
leaf_weight=41.451346084475517 17.907079517841339 255.23850806057453 30.160828977823257 52.060682192444801 16.831498801708221 73.658281102776527 101.57920417189598 272.57585063576698 221.48033529520035 209.22002801299095 23.335737004876137 20.501808896660805 31.254598766565323
leaf_count=155 64 684 100 179 59 346 442 1036 678 610 92 59 136
internal_value=0.00363478 0.00876214 -0.00315322 0.00956076 -0.000445783 -0.00683815 -0.00404476 -0.00153816 0.00649933 0.0113441 -0.00535188 0.00818341 -0.0105618
internal_weight=1367.26 779.242 588.013 738 340.07 247.943 143.031 302.737 273.541 464.459 41.2428 37.3333 104.913
internal_count=4640 2307 2333 2151 1254 1079 597 1136 857 1294 156 118 482
is_linear=0
shrinkage=0.01


Tree=39
num_leaves=14
num_cat=0
split_feature=0 45 45 45 1 91 17 43 1 46 46 38 84
split_gain=512.749 60.9715 40.7953 27.606 26.4922 26.8689 23.2205 27.6476 21.2142 17.8529 14.8083 13.502 9.46809
threshold=0.1529062038330801 13.775000095367433 24.464999198913578 15.074999809265138 0.8527173045017673 0.52083333333333348 0.22420634920634921 45.221801613184148 0.95299396187302943 0.019414305806710875 0.63194444444444453 0.31745157736852903 1.3608566068162458
decision_type=2 2 2 2 2 8 2 2 2 2 2 2 8
left_child=1 6 3 -2 9 -6 7 -1 -5 -3 -8 -4 -13
right_child=2 4 11 8 5 -7 10 -9 -10 -11 -12 12 -14
leaf_value=-0.0070349789325901734 -0.0058170728912854061 0.0029890049134794318 0.0022389240665529522 -0.0045553951577240025 -0.0046604392365894925 0.0023920996545633271 -0.0096047461668734135 0.0039708211340423573 0.0080643465741231067 -0.0085599225747488347 0.0017151084295815781 0.017565868084482059 0.011548950428138405
leaf_weight=54.146662726998329 15.513421490788458 16.627484872937202 15.813357815146444 13.101921707391737 67.569016575813293 257.18976700305939 154.92877723276615 38.176150485873222 307.09757834672928 54.778565496206284 11.537153065204619 34.422006696462631 325.71366186439991
leaf_count=232 58 61 50 47 268 892 709 141 916 239 45 86 896
internal_value=0.00360026 -0.00277803 0.00947516 0.00688689 -0.000296971 0.000904474 -0.00654896 -0.00243326 0.00752608 -0.00579904 -0.00878747 0.0117609 0.0121615
internal_weight=1366.62 654.954 711.662 335.713 396.165 324.759 258.789 92.3228 320.2 71.4061 166.466 375.949 360.136
internal_count=4640 2587 2053 1021 1460 1160 1127 373 963 300 754 1032 982
is_linear=0
shrinkage=0.01


Tree=40
num_leaves=15
num_cat=0
split_feature=0 45 46 1 45 47 11 29 43 4 40 3 44 4
split_gain=533.338 58.9445 41.8086 32.4919 26.95 25.7386 24.9946 20.21 31.5338 19.3037 18.2592 17.6092 12.8761 10.1537
threshold=0.15113972835086245 15.434999942779543 0.67125496031746035 0.8527173045017673 20.585000038146976 -0.37885377445231455 2.1554455593579829 0.12417487765542203 60.096063111546492 6.5569684021094874 20.705227851867679 167.31281890869141 1.1239992557106173 12.16055470843502
decision_type=2 2 2 2 2 2 2 2 2 2 2 2 2 2
left_child=1 7 5 13 11 9 -5 8 -1 -2 -7 -4 -9 -3
right_child=2 3 4 6 -6 10 -8 12 -10 -11 -12 -13 -14 -15
leaf_value=-0.0060040729893246171 0.010423217756512447 -0.009635638347267118 -0.0028316299256201556 0.00036509384896626576 0.012399648704908974 -0.0036677848746292287 0.0097399008583009747 -0.010663641252135514 0.0030638148398565604 0.0032973354741377028 0.0051116103874360797 0.0090925787469542385 -0.0013135058877894099 0.00013391176071639264
leaf_weight=195.04640576243401 152.14105100929737 37.742098569869995 19.623789727687836 192.69184997677803 346.65501041710377 32.268386706709862 33.150240376591682 104.59355878829956 46.578750148415565 54.482963770627975 81.314686387777328 30.135747998952866 18.759233757853508 13.337353929877279
leaf_count=825 437 167 68 691 942 113 101 476 171 176 250 88 77 50
internal_value=0.00328349 -0.00332996 0.00921252 0.000132106 0.0114034 0.00647109 0.00178174 -0.00596701 -0.00423266 0.00858089 0.00256846 0.00430913 -0.00929311 -0.0070112
internal_weight=1358.52 641.899 716.622 276.922 396.415 320.207 225.842 364.978 241.625 206.624 113.583 49.7595 123.353 51.0795
internal_count=4632 2558 2074 1009 1098 976 792 1549 996 613 363 156 553 217
is_linear=0
shrinkage=0.01


Tree=41
num_leaves=14
num_cat=0
split_feature=45 4 45 1 47 28 47 33 4 40 33 33 2
split_gain=474.142 69.0415 54.0441 35.6365 31.9506 27.6846 24.3571 22.9049 22.4932 22.4885 18.5419 17.0333 6.60781
threshold=18.185000419616703 1.9236773337087187 13.97499990463257 0.90035389171158708 -7.3776344977936779 -0.63476099641398531 -7.3776344977936779 89.825000762939467 6.6043210635357008 20.946020126342777 121.70499801635744 110.88499832153322 98.993383102417013
decision_type=2 2 2 2 2 2 2 2 2 2 2 2 8
left_child=2 5 10 -3 8 12 -7 -5 -4 -6 11 -1 -2
right_child=1 3 4 7 9 6 -8 -9 -10 -11 -12 -13 -14
leaf_value=-0.0047449353908170086 0.014508033156866378 -0.009064966611147281 0.009280013981979713 -0.0012468781205121821 0.0012088004066934093 0.014132391882938879 0.0063316058062341954 0.0066490851001934801 -0.0014294910332657512 -0.0050460580448104236 0.0048278277281723963 -0.01001608352512953 0.010925281317971283
leaf_weight=131.44928641617298 134.09316752851009 18.458152785897255 45.994418680667877 44.17577688395977 94.216056063771248 52.511371955275536 198.58791173994541 188.27658540010452 32.475792124867439 142.10333329439163 12.254534155130385 127.31460192799568 135.72630871832371
leaf_count=559 351 76 143 156 338 141 600 586 120 559 42 584 377
internal_value=0.00325289 0.00840101 -0.00352285 0.00404769 -0.000684328 0.0104824 0.00800767 0.0051276 0.00480346 -0.00253396 -0.00679407 -0.007372 0.0127479
internal_weight=1357.64 771.829 585.808 250.911 314.79 520.919 251.099 232.452 78.4702 236.319 271.018 258.764 269.819
internal_count=4632 2287 2345 818 1160 1469 741 742 263 897 1185 1143 728
is_linear=0
shrinkage=0.01


Tree=42
num_leaves=15
num_cat=0
split_feature=0 50 28 1 11 4 43 6 16 5 38 4 3 3
split_gain=513.271 47.1211 37.6781 35.8788 26.9603 22.7244 20.8288 25.1737 19.1213 14.9817 15.6932 11.901 9.70003 5.69034
threshold=0.15113972835086245 1.5000000000000002 -0.61668311360270944 0.8527173045017673 2.1554455593579829 2.675877474147129 59.832583521285656 9.2265474942269687 4.5376171010916826 4.9168905825264977 1.0335806950837518 12.16055470843502 70.72934310913088 84.070253295898453
decision_type=2 2 2 2 2 2 2 2 2 2 2 2 2 2
left_child=1 6 5 11 -5 13 7 -1 -8 10 -4 -3 -11 -2
right_child=2 3 9 4 -6 -7 8 -9 -10 12 -12 -13 -14 -15
leaf_value=-0.0079187127385760663 0.014968200922653312 -0.010139695886851992 0.0066009787621430765 -4.4040968781508592e-05 0.0095563442543119166 0.001552487750396182 0.0031333177186508706 0.0054960286343729171 -0.0070229765309118486 0.0064419265473211959 -0.0028091192843762375 0 0.01440924149179373 0.011373050638617394
leaf_weight=248.55624774098396 85.168809130787849 42.691218599677086 322.39833351969719 212.59086365997791 33.233865469694138 21.610930353403091 43.172853156924248 14.034626275300978 31.399300530552864 30.446886286139488 17.716710165143013 14.589439272880552 42.624560877680779 196.55617152154446
leaf_count=1094 221 191 975 767 101 70 160 52 138 91 61 55 115 541
internal_value=0.00322251 -0.00327716 0.00903568 -0.000396541 0.00125033 0.0117424 -0.00584757 -0.00717365 -0.00109477 0.0070247 0.00609272 -0.00750043 0.0112238 0.0125022
internal_weight=1356.79 640.268 716.522 303.105 245.825 303.336 337.163 262.591 74.5722 413.186 340.115 57.2807 73.0714 281.725
internal_count=4632 2558 2074 1114 868 832 1444 1146 298 1242 1036 246 206 762
is_linear=0
shrinkage=0.01


Tree=43
num_leaves=15
num_cat=0
split_feature=0 45 46 1 45 47 11 29 42 40 3 45 44 46
split_gain=503.149 56.1647 40.3557 30.9897 25.9825 25.1708 23.598 20.0158 25.2907 19.7239 17.1133 14.7502 12.767 8.09785
threshold=0.15113972835086245 15.434999942779543 0.67125496031746035 0.8527173045017673 20.585000038146976 1.8982000420934899 2.1554455593579829 0.12417487765542203 0.72503355123134672 20.655939102172855 167.31281890869141 16.394999504089359 1.1239992557106173 0.032679738562091505
decision_type=2 2 2 2 2 2 2 2 2 2 2 2 2 2
left_child=1 7 5 13 10 11 -5 8 -1 -7 -4 -2 -9 -3
right_child=2 3 4 6 -6 9 -8 12 -10 -11 -12 -13 -14 -15
leaf_value=-0.005605799456020466 -0.00093878991631153076 -0.00065740531162407541 -0.0028968952614443289 0.00035381672657777924 0.012081097828930298 -0.006320128582082073 0.0094485947478302242 -0.010532177783250272 0.0028392626432408282 0.0045019898447860897 0.008854071197300261 0.0085593672048550982 -0.0012024533228094806 -0.0095882164547850916
leaf_weight=198.32168172299862 16.524240806698799 16.155399218201637 19.633466854691505 192.73647391796112 346.15812094509602 22.976052805781364 33.282185077667236 103.66993314027786 41.982452318072319 57.747566223144531 30.168440327048302 223.27404637634754 18.673435509204865 34.587131574749947
leaf_count=840 58 63 68 691 942 83 101 476 156 178 88 657 77 154
internal_value=0.00319269 -0.0032488 0.00894648 0.000126928 0.0111013 0.00625577 0.00173303 -0.00583544 -0.00410681 0.00134023 0.00413933 0.00788346 -0.00915956 -0.00687656
internal_weight=1355.89 639.409 716.482 276.761 395.96 320.522 226.019 362.648 240.304 80.7236 49.8019 239.798 122.343 50.7425
internal_count=4632 2558 2074 1009 1098 976 792 1549 996 261 156 715 553 217
is_linear=0
shrinkage=0.01


Tree=44
num_leaves=15
num_cat=0
split_feature=60 50 46 1 11 47 43 6 29 4 40 16 4 17
split_gain=493.258 45.5638 39.6665 34.7045 25.8267 24.6855 20.4628 24.8054 24.3612 18.5829 17.4272 12.1227 11.7238 8.61245
threshold=15.113972835086242 1.5000000000000002 0.67125496031746035 0.8527173045017673 2.1554455593579829 -0.37885377445231455 59.832583521285656 9.2265474942269687 0.080741713375631866 6.5569684021094874 20.705227851867679 8.5299822268618382 12.16055470843502 0.47023809523809529
decision_type=2 2 2 2 2 2 2 2 2 2 2 2 2 2
left_child=1 6 5 12 -5 9 7 -1 -8 -2 -7 13 -3 -4
right_child=2 3 11 4 -6 10 8 -9 -10 -11 -12 -13 -14 -15
leaf_value=-0.0078190729501148738 0.010061700389672251 -0.010031869141520558 0.013432516738683946 -4.1931712205124996e-05 0.0093426135716373256 -0.0037200407974436133 0.0040351630164826083 0.0054988937941692021 -0.0073649333153567387 0.0030790749050850813 0.0048559617037869061 0.012367015871746974 1.5134806017085409e-05 0.0070448741214748411
leaf_weight=247.23520958423615 152.32794989645481 42.410169333219528 30.09831714630127 212.57655367255211 33.32857172191143 32.277683705091476 40.930429592728615 14.032677561044691 33.474009186029434 54.596723809838295 81.401518404483795 253.75995495915413 14.568550571799276 111.903259947896
leaf_count=1094 437 191 81 767 101 113 149 52 149 176 250 685 55 332
internal_value=0.00316295 -0.00322086 0.00885863 -0.00038937 0.00122608 0.00619155 -0.00575652 -0.00707553 -0.00104183 0.00825531 0.0023715 0.0109961 -0.00739824 0.00847625
internal_weight=1354.92 638.556 716.365 302.884 245.905 320.604 335.672 261.268 74.4044 206.925 113.679 395.762 56.9787 142.002
internal_count=4632 2558 2074 1114 868 976 1444 1146 298 613 363 1098 246 413
is_linear=0
shrinkage=0.01


Tree=45
num_leaves=15
num_cat=0
split_feature=60 60 29 46 7 47 33 11 90 52 16 17 41 52
split_gain=433.314 45.935 40.5624 36.7555 26.9593 21.0889 21.1408 20.6491 15.6975 15.3065 14.4549 12.8385 12.1888 8.91919
threshold=15.290620383308008 8.5097903642597803 0.14867709754692468 0.62202380952380965 7.327185117989095 -0.14481930570858778 104.65500259399415 -0.87560407792926498 0.42162698412698418 -3.7093967204859264 8.5299822268618382 0.47420634920634924 1.0107782161437708 -15.646602341969642
decision_type=2 2 2 2 2 2 2 2 8 2 2 2 2 2
left_child=1 7 4 5 -3 8 -7 -1 -2 -4 12 -9 -5 -12
right_child=3 2 9 10 -6 6 -8 11 -10 -11 13 -13 -14 -15
leaf_value=0.0015819853742216872 0 -0.00013690442563389326 -0.0077239103402946124 0.0090692121902146705 0.010395814468112569 -0.0050880310155342525 0.0050215466556212153 -0.0064579685323632331 0.0087994984234731725 0.00088093921716172509 0.0040632358659261235 -0.013104978168275792 0.00035347567703818041 0.012574239449110654
leaf_weight=22.400954112410545 22.017198815941811 312.98340781033039 100.05873629450798 139.86788891255856 25.77468928694725 29.037566006183624 66.668622970581055 106.63262550532818 165.69294182956219 24.629736110568047 15.486058816313742 44.688273906707764 19.521357014775276 238.10679130256176
leaf_count=87 74 1174 433 402 81 103 204 455 486 92 47 217 63 640
internal_value=0.00317335 -0.00277913 -0.00111939 0.00862482 0.000663888 0.00579491 0.00189179 -0.00716226 0.00774808 -0.00598752 0.0105455 -0.0084906 0.00803746 0.0120832
internal_weight=1333.57 637.168 463.447 696.398 338.758 283.416 95.7062 173.722 187.71 124.688 412.982 151.321 159.389 253.593
internal_count=4558 2539 1780 2019 1255 867 307 759 560 525 1152 672 465 687
is_linear=0
shrinkage=0.01


Tree=46
num_leaves=15
num_cat=0
split_feature=60 60 27 17 91 7 60 11 90 11 17 89 33 40
split_gain=424.831 45.2201 39.8136 31.9137 24.0976 23.6949 23.351 20.3569 17.5365 13.2972 12.7514 11.9864 7.94015 3.20188
threshold=15.290620383308008 8.5097903642597803 -1.0264731312207898 0.22420634920634921 0.67162698412698429 2.7398001079089189 22.327930230668283 -0.87560407792926498 0.4350730635601881 -0.95849917737929602 0.47420634920634924 -0.028958078141510964 112.45800018310548 22.329799652099613
decision_type=2 2 2 2 10 2 2 2 10 2 2 10 2 2
left_child=1 7 11 5 -5 -3 8 -1 -4 -8 -9 13 -13 -2
right_child=2 3 6 4 -6 -7 9 10 -10 -11 -12 12 -14 -15
leaf_value=0.0015656962710399079 0.012239177184571346 0 0.0039962300636718507 -0.0036663663918835875 0.0083450807235720837 0.008530514419535104 0.0012667937024289735 -0.0064082110642112193 0.011203855261278522 0.010572436741000685 -0.01304710737560061 0.0016078412410599318 0.010244139299120983 0.0162239870463677
leaf_weight=22.412807330489159 122.23701591789722 108.68264569342136 248.57508438825607 291.33373558521271 17.018868118524551 46.190168157219887 18.444491609930992 106.39108230173588 40.17585001885891 165.79976092278957 44.441082626581192 17.283835783600807 36.739400237798691 46.979295432567596
leaf_count=87 330 404 782 1167 56 153 58 455 113 461 217 54 102 119
internal_value=0.00314379 -0.00275452 0.00854107 -0.00110861 -0.00297479 0.0025724 0.00686022 -0.00711075 0.00503399 0.00967387 -0.00843398 0.0120568 0.00761289 0.0134195
internal_weight=1332.71 636.47 696.235 463.225 308.353 154.873 472.995 173.245 288.751 184.244 150.832 223.24 54.0232 169.216
internal_count=4558 2539 2019 1780 1223 557 1414 759 895 519 672 605 156 449
is_linear=0
shrinkage=0.01


Tree=47
num_leaves=14
num_cat=0
split_feature=0 0 29 28 7 11 4 0 90 49 17 13 57
split_gain=416.566 44.5221 39.6104 36.6384 26.1873 20.0692 18.4522 17.4771 21.7917 15.1293 12.6679 8.7437 6.72425
threshold=0.1529062038330801 0.085097903642597797 0.14867709754692468 -0.68042490905433017 7.327185117989095 -0.87560407792926498 2.3719652106965907 0.22198315167496699 0.4350730635601881 2.5690004605883447 0.44291187739463606 16.449274251269333 77.33499908447267
decision_type=2 2 2 2 2 2 2 2 10 2 2 2 2
left_child=1 5 4 6 -3 -1 12 8 -5 -4 -7 -9 -2
right_child=3 2 9 7 -6 10 -8 11 -10 -11 -12 -13 -14
leaf_value=0.0015495847628366108 0.0050374902659954578 -0.00012760932686654356 -0.0070751676846231605 0.0036450452606070095 0.010241136172961423 -0.0062454889694741117 0.0021764715872980948 0.0046059944232248766 0.011565527962094486 0.0043564496292753854 -0.012734926556059154 0.010645113429606419 0.012499074733805711
leaf_weight=22.42452047765255 16.11496302485466 312.89045089483261 112.29224868118763 223.34121252596378 25.83980917930603 102.52999764680862 22.01220990717411 35.735928371548653 41.994578838348389 12.006344854831694 47.813341170549393 116.80830553174019 240.02303864061832
leaf_count=87 48 1174 482 706 81 438 70 108 117 43 234 324 646
internal_value=0.00311489 -0.00272986 -0.00109763 0.00845915 0.000662553 -0.00705968 0.0113009 0.0065444 0.00493682 -0.00591786 -0.00837783 0.00928269 0.0120598
internal_weight=1331.83 635.797 463.029 696.03 338.73 172.768 278.15 417.88 265.336 124.299 150.343 152.544 256.138
internal_count=4558 2539 1780 2019 1255 759 764 1255 823 525 672 432 694
is_linear=0
shrinkage=0.01


Tree=48
num_leaves=15
num_cat=0
split_feature=0 45 27 1 91 45 17 46 1 13 46 89 11 29
split_gain=408.48 56.9505 38.6646 30.8478 33.0351 23.7337 22.0799 20.9413 17.8213 15.9347 13.8711 11.8269 6.07112 3.90204
threshold=0.1529062038330801 13.835000038146974 -1.0264731312207898 0.84077422923565504 0.52480158730158744 15.375000000000002 0.29880952380952386 0.6438492063492065 0.96499659885184086 14.566236996263845 0.019414305806710875 -0.028958078141510964 0.42157076526158083 -0.53408293628003334
decision_type=2 2 2 2 8 2 2 2 2 2 2 10 2 2
left_child=1 6 11 10 -5 -4 9 -8 -7 -1 -3 13 -13 -2
right_child=2 3 5 4 -6 8 7 -9 -10 -11 -12 12 -14 -15
leaf_value=-0.0098428937022545515 0.016390247921282762 0.0016677147918412328 -0.0042129649824397489 -0.0052561223156423042 0.0025892422475675228 -0.0025618422573453017 -0.010365144844066259 0.0032309000568067278 0.0075694373154106308 -0.00089682638732146969 -0.0092003329001570221 0.010286037716785683 0.002998159290906599 0.012033486917091406
leaf_weight=26.121911749243736 42.394990220665932 14.27088390290737 18.193108275532722 67.085671231150627 256.78197412192822 17.093262910842896 124.55285854637623 11.633145093917845 437.6937498152256 85.825422197580338 48.827627688646317 31.760027468204498 22.200864225625992 126.45404620468616
leaf_count=117 107 54 66 269 889 59 595 46 1289 349 220 88 68 342
internal_value=0.00308624 -0.00270566 0.00837827 -0.000292336 0.000943148 0.00672268 -0.00644099 -0.00915961 0.00717527 -0.00306326 -0.00666992 0.0118474 0.00743448 0.0132021
internal_weight=1330.89 635.099 695.79 386.966 323.868 472.98 248.133 136.186 454.787 111.947 63.0985 222.81 53.9609 168.849
internal_count=4558 2539 2019 1432 1158 1414 1107 641 1348 466 274 605 156 449
is_linear=0
shrinkage=0.01


Tree=49
num_leaves=15
num_cat=0
split_feature=60 60 29 27 48 36 60 29 11 11 29 84 11 29
split_gain=400.534 43.4987 38.6147 38.0794 25.9971 23.6331 22.494 20.1581 19.764 13.058 12.4532 11.0577 5.19711 5.06854
threshold=15.290620383308008 8.5097903642597803 0.14867709754692468 -1.0264731312207898 0.58682358649144739 -0.54267390987436925 22.327930230668283 0.19318633411598737 -0.87560407792926498 -0.95849917737929602 0.080741713375631866 1.8287002027652413 0.17956460186873138 -0.53408293628003334
decision_type=2 2 2 2 2 2 2 2 2 2 2 10 2 2
left_child=1 8 4 11 -3 -4 7 -5 -1 -8 -10 13 -13 -2
right_child=3 2 5 6 -6 -7 9 -9 10 -11 -12 12 -14 -15
leaf_value=0.0015684309522106484 0.016229246761672228 0.0036357603868226278 0.0011269349071784435 0.0068279395174203885 -0.0019037164961165877 -0.0085206521160421621 0.0010930474160266877 0.0012395818349469905 -0.0064210828442774681 0.010310487803039843 -0.0132353107251396 0.0096493474706322215 0.0018935772148523052 0.011638636930082829
leaf_weight=22.406015396118164 44.644454136490822 157.88019123673439 33.960485324263573 186.28505051136017 180.68513435125351 89.859323471784592 18.431743681430817 102.71237418055534 110.09672157466412 165.55782443284988 39.41994521021843 23.695748820900917 16.769288152456284 137.46553242206573
leaf_count=87 113 571 132 558 684 393 58 337 477 461 195 66 52 374
internal_value=0.00305775 -0.00268232 -0.00106977 0.00829767 0.000666265 -0.00584047 0.00665515 0.00486463 -0.00697459 0.00941967 -0.0082891 0.011743 0.00661964 0.0128328
internal_weight=1329.87 634.308 462.385 695.562 338.565 123.82 472.987 288.997 171.923 183.99 149.517 222.575 40.465 182.11
internal_count=4558 2539 1780 2019 1255 525 1414 895 759 519 672 605 118 487
is_linear=0
shrinkage=0.01


Tree=50
num_leaves=15
num_cat=0
split_feature=0 45 46 29 1 47 17 16 0 4 29 58 33 41
split_gain=399.88 54.4363 37.2962 26.373 31.8754 22.1022 21.4961 19.1458 18.8514 18.1099 17.1988 17.0649 15.9408 12.9205
threshold=0.1529062038330801 13.244999885559084 0.68700396825396837 0.31600911146386229 0.84753326139999996 -0.5425610788601819 0.20833333333333334 8.5299822268618382 0.088669231966842565 6.5569684021094874 0.26900073773864069 0.56051056786350917 119.74499893188478 1.0107782161437708
decision_type=2 2 2 2 2 2 2 2 2 2 2 2 2 2
left_child=1 6 5 4 -3 9 8 13 -1 -2 -7 -5 -8 -4
right_child=2 3 7 11 -6 10 12 -9 -10 -11 -12 -13 -14 -15
leaf_value=-0.0049719045554191127 0.0095996741778742074 -0.0055428240584627997 0.0087048186195394332 -0.01184385656992344 0.0016696274068091794 0.0044384992022836025 -0.010290131997044901 0.012366498785576756 0.0075735829987875029 0.0028168989660290393 -0.0046230630840581599 0.0016425337862321858 0.00087187898798832936 0
leaf_weight=51.905663594603539 158.75963744521141 75.243462279438972 113.28885932266712 30.884566470980644 318.85006368160248 93.855455935001373 120.68831652402878 236.03775565326214 14.82578621804714 56.060363858938217 25.992791965603828 12.354574605822561 13.30864906311035 19.124429732561111
leaf_count=222 455 324 325 138 1133 289 582 635 53 180 91 47 53 62
internal_value=0.00320118 -0.002524 0.00840182 -0.000530425 0.000274619 0.00593578 -0.00683049 0.0106171 -0.0020747 0.00786348 0.00242063 -0.0079014 -0.00914522 0.00742631
internal_weight=1341.18 638.061 703.119 437.333 394.094 334.668 200.728 368.451 66.7314 214.82 119.848 43.2391 133.997 132.413
internal_count=4589 2552 2037 1642 1457 1015 910 1022 275 635 380 185 635 387
is_linear=0
shrinkage=0.01


Tree=51
num_leaves=15
num_cat=0
split_feature=0 45 27 29 36 24 17 45 0 33 45 89 35 11
split_gain=392.118 53.5794 39.9401 26.0122 25.606 23.8907 21.2409 19.0505 18.4872 15.7584 12.0585 10.1931 8.2156 6.14062
threshold=0.1529062038330801 13.244999885559084 -1.0906498256457906 0.13702846973528099 -0.16992674405383876 40.654750983308823 0.20833333333333334 26.105000495910648 0.088669231966842565 119.74499893188478 15.555000305175783 -0.025906277187269452 -1.9126439096535661 0.20829377672290098
decision_type=2 2 2 2 2 2 2 2 2 2 2 10 2 2
left_child=1 6 11 5 -5 -3 8 10 -1 -8 -4 -2 -9 -13
right_child=2 3 7 4 -6 -7 9 12 -10 -11 -12 13 -14 -15
leaf_value=-0.0049317082015895835 0.013396771578342171 -0.0058541140728342505 -0.0020294909507635535 0.0011041297121252317 -0.0091332591174519938 0.0018558607982328995 -0.010233944566458019 0.0022876127702771373 0.0074824690087312209 0.00086321583902489857 0.0058274794593659368 0.0111795925624229 0.01038958233361576 0.0036889247884704449
leaf_weight=51.809996515512466 155.17271780967712 45.922389194369316 19.594450771808624 39.597636923193932 59.73666575551033 291.92375566065311 120.14290744066238 15.831195488572119 14.862160503864287 13.312787041068075 316.99427899718285 26.41675540804863 144.74839834868908 24.059115543961525
leaf_count=222 411 176 69 151 257 1058 582 49 53 53 961 72 402 73
internal_value=0.00317177 -0.00250186 0.00832181 -0.000525379 -0.00501715 0.000785987 -0.00678251 0.00675317 -0.00205488 -0.00909054 0.00535292 0.0120642 0.00963145 0.00777849
internal_weight=1340.13 637.308 702.817 437.18 99.3343 337.846 200.128 497.168 66.6722 133.456 336.589 205.649 160.58 50.4759
internal_count=4589 2552 2037 1642 408 1234 910 1481 275 635 1030 556 451 145
is_linear=0
shrinkage=0.01


Tree=52
num_leaves=15
num_cat=0
split_feature=0 45 28 29 1 23 13 5 29 33 58 16 35 46
split_gain=384.536 52.7406 36.3234 25.6045 31.3096 18.921 29.3703 18.4082 20.9997 18.2813 16.8758 16.7243 22.0247 6.15954
threshold=0.1529062038330801 13.244999885559084 -0.61668311360270944 0.31600911146386229 0.84753326139999996 0.28506449376563242 14.755801021065958 4.9168905825264977 0.19318633411598737 119.74499893188478 0.56051056786350917 6.5739885117175154 -0.070416368330894472 0.2410714285714286
decision_type=2 2 2 2 2 2 2 2 2 2 2 2 2 2
left_child=1 5 11 4 -3 6 -1 8 -4 -7 -5 12 -2 -9
right_child=2 3 7 10 -6 9 -8 13 -10 -11 -12 -13 -14 -15
leaf_value=-0.010373827159663373 0.012499912019779614 -0.0055013520839579735 0.0070626449758519408 -0.011742049201773722 0.0016522379423100568 -0.0098105176997479032 0.00414602468254671 0.0057755273157784042 0.0017297073352708127 0.0022051043051889685 0.0016868531205531014 0.01190262713142972 -0.0020917941087436882 0.012875233186002453
leaf_weight=22.884017899632454 18.542206823825836 75.09425288438797 218.78027702867985 30.694493308663368 318.96677130460739 130.03115378320217 33.505515038967133 21.688619717955589 116.17251892387867 13.106628432869909 12.335999488830565 254.75483348965645 21.355803683400154 51.197105064988136
leaf_count=105 50 324 647 138 1133 625 129 66 374 51 47 691 71 138
internal_value=0.00314266 -0.00247966 0.00824304 -0.00052028 0.000271098 -0.00673492 -0.00169792 0.00626752 0.00523325 -0.00867163 -0.00780223 0.0109452 0.00463657 0.0108845
internal_weight=1339.11 636.619 702.491 437.092 394.061 199.527 56.3895 407.839 334.953 143.138 43.0305 294.653 39.898 72.8857
internal_count=4589 2552 2037 1642 1457 910 234 1225 1021 676 185 812 121 204
is_linear=0
shrinkage=0.01


Tree=53
num_leaves=15
num_cat=0
split_feature=0 45 46 29 1 84 23 0 16 1 33 4 41 40
split_gain=377.112 51.9113 36.0036 25.2116 28.5615 22.6182 18.6829 22.9521 18.5686 18.3257 18.0532 12.9346 12.6144 4.90635
threshold=0.1529062038330801 13.244999885559084 0.68700396825396837 0.13702846973528099 0.84753326139999996 1.5090897418442968 0.28506449376563242 0.086865893662892393 8.5299822268618382 0.95299396187302943 119.74499893188478 12.16055470843502 1.0107782161437708 20.946020126342777
decision_type=2 2 2 2 2 10 2 2 2 2 2 2 2 2
left_child=1 6 5 4 -3 9 7 -1 12 -2 -8 -5 -4 -10
right_child=2 3 8 11 -6 -7 10 -9 13 -11 -12 -13 -14 -15
leaf_value=-0.0063114889785253724 -0.0039094731967540489 -0.0054979773166353944 0.0084696830618230714 -0.0069417488317898429 0.0021246619138912725 -0.0051063150650341735 -0.009754764216962291 0.0069683584964944766 0.0086181635022976738 0.0069123763996500141 0.002182248541612487 0.0014015847913540053 -5.2618414542395761e-05 0.012876530453827415
leaf_weight=37.167877152562141 15.590733081102369 58.957370862364769 113.1878544986248 75.904526278376579 278.95031635463238 17.340535551309586 129.4722712635994 19.178279668092728 46.601564109325409 301.79358804225922 13.116647794842718 23.125299394130707 19.121319979429245 188.52187672257423
leaf_count=163 55 255 325 321 979 60 625 71 132 900 51 87 62 503
internal_value=0.00311396 -0.00245795 0.00816515 -0.000515333 0.000773748 0.00574409 -0.00668764 -0.001682 0.0103463 0.00635974 -0.00861796 -0.00494594 0.00720483 0.0120738
internal_weight=1338.03 635.873 702.157 436.938 337.908 334.725 198.935 56.3462 367.433 317.384 142.589 99.0298 132.309 235.123
internal_count=4589 2552 2037 1642 1234 1015 910 234 1022 955 676 408 387 635
is_linear=0
shrinkage=0.01


Tree=54
num_leaves=15
num_cat=0
split_feature=0 45 27 11 56 17 45 0 33 45 48 35 84 33
split_gain=369.806 51.0933 38.5259 24.4984 26.6987 20.7441 18.3948 17.7822 15.2156 11.7442 9.29646 8.09669 6.66826 2.68358
threshold=0.1529062038330801 13.244999885559084 -1.0906498256457906 2.3558870995565537 0.67999982833862316 0.20833333333333334 26.105000495910648 0.088669231966842565 119.74499893188478 15.555000305175783 -0.51017037962296496 -1.9126439096535661 2.2675148859036316 114.59499740600587
decision_type=2 2 2 2 2 2 2 2 2 2 2 2 10 2
left_child=1 5 12 4 -3 7 9 -1 -7 -4 -5 -8 13 -2
right_child=2 3 6 10 -6 8 11 -9 -10 -11 -12 -13 -14 -15
leaf_value=-0.0048063460928332649 0.0110612144974529 -0.0022803364633659164 -0.0021063378058527875 0.011695433259305863 0.0051539557652698232 -0.01007811547800975 0.0020969487969768868 0.0073626452385065324 0.00082065448420285249 0.0056429359378981506 0.0010905157328652436 0.010133847468401812 0.0068700906627132416 0.014368075859481293
leaf_weight=51.503506615757942 98.113542020320892 345.28144346177578 19.616085857152939 20.423054859042168 55.367413207888603 118.59805771708488 15.809563115239142 14.909005865454672 13.332743257284163 317.11157533526421 15.711054623126982 144.42022854089737 30.346627086400986 76.385476306080818
leaf_count=222 269 1338 69 60 191 582 49 53 53 961 53 402 88 199
internal_value=0.00308539 -0.00243635 0.00808781 -0.000510373 -0.00123535 -0.00664054 0.00654868 -0.00196519 -0.00894001 0.00517422 0.00729873 0.00938096 0.0117724 0.0125743
internal_weight=1336.93 635.126 701.803 436.783 400.649 198.343 496.957 66.4125 131.931 336.728 36.1341 160.23 204.846 174.499
internal_count=4589 2552 2037 1642 1529 910 1481 275 635 1030 113 451 556 468
is_linear=0
shrinkage=0.01


Tree=55
num_leaves=13
num_cat=0
split_feature=45 1 45 23 91 33 54 16 15 11 1 16
split_gain=369.694 53.3972 47.8043 34.4547 28.7927 24.166 20.2478 19.8069 20.7919 15.0808 11.5215 7.53123
threshold=18.185000419616703 0.95299396187302943 13.574999809265138 0.6578193597780102 0.63988095238095244 80.655002593994155 3.3750004768371586 3.7718900031229654 16.535438272624173 2.3558870995565537 1.6113389449454427 9.6024732353394651
decision_type=2 2 2 2 10 2 2 2 2 2 2 2
left_child=2 9 7 6 5 -4 -3 8 -1 -2 -9 -5
right_child=1 3 4 11 -6 -7 -8 10 -10 -11 -12 -13
leaf_value=0.0019342828053333214 -0.0087139337266039299 0.0070167058289762052 0.007713930926067052 0.0079484848389824916 0.0091593951864309946 -0.0023477222207240449 -0.0038768650211068135 -0.011657697154381776 -0.0066032597582627115 0.003624664550148995 -0.0020854488493181503 0.012466960622507095
leaf_weight=39.957969695329666 23.631920397281647 486.63910087943077 25.322081059217453 61.009661793708801 26.853867739439011 292.61591918766499 16.780448362231255 79.420510515570641 91.363318786025047 15.740090712904928 16.787082970142365 175.33187800645828
leaf_count=165 96 1462 83 177 82 1121 60 394 406 51 74 472
internal_value=0.00306682 0.00754932 -0.003028 0.00815539 -0.000661528 -0.00151981 0.00664018 -0.00658285 -0.00397007 -0.00367223 -0.0100586 0.0113409
internal_weight=1351.45 779.133 572.321 739.761 344.792 317.938 503.42 227.529 131.321 39.372 96.2076 236.342
internal_count=4643 2318 2325 2171 1286 1204 1522 1039 571 147 468 649
is_linear=0
shrinkage=0.01


Tree=56
num_leaves=14
num_cat=0
split_feature=45 1 45 23 47 54 16 15 27 6 11 1 84
split_gain=362.498 52.3434 47.0737 33.9723 25.1983 19.8503 19.6061 20.4916 17.9983 16.9818 14.8238 11.4115 7.42842
