tree
version=v4
num_class=1
num_tree_per_iteration=1
label_index=0
max_feature_idx=91
objective=binary sigmoid:1
feature_names=volatility_20d atr_14 price_vs_sma200 price_vs_sma50 return_50d xlu_vs_xlk xlv_vs_xlk defensive_rotation mags_vs_spy rsp_vs_spy narrow_leadership adx plus_di minus_di adx_regime_score is_trending is_range_bound bb_width bb_width_percentile bb_squeeze bb_expansion regime_confidence rsi rsi_overbought rsi_extreme macd macd_signal macd_histogram distance_from_20d_high at_new_highs extended_move usdjpy_level usdjpy_momentum_3d usdjpy_momentum_5d usdjpy_momentum_10d usdjpy_acceleration_3d usdjpy_volatility yen_carry_unwind_risk dxy_level dxy_momentum_5d dxy_momentum_10d dxy_rsi eurusd_momentum_5d vix_level vix_percentile_252d vix_momentum_3d vix_momentum_5d vix_momentum_10d vix_regime vix_spike vix_vs_ma20 vix_extreme_high vix_term_structure vix_backwardation vix_term_momentum vvix_level vvix_percentile_252d vvix_momentum_5d realized_vol_20d vix_vs_realized vol_risk_premium vol_regime_transition iv_skew_25d iv_skew_10d iv_skew_50d put_iv_25d call_iv_25d iv_smile_curvature iv_slope_25d iv_slope_10d atm_straddle_price_1w atm_straddle_price_2w atm_straddle_price_1m implied_move_1w implied_move_2w implied_move_1m strangle_skew_1w strangle_skew_2w put_call_volume_ratio put_call_volume_ratio_log put_call_oi_ratio put_call_oi_ratio_log put_call_premium_ratio itm_put_otm_call_ratio otm_put_itm_call_ratio vix_short_term vix_contango vix_change vix_percentile vix3m_percentile vix_volatility vix_mean_reversion
feature_infos=[0.031905832703785102:0.95917597946422106] [0.50490822725704831:14.531177064267329] [-39.048264830491668:21.547951705501632] [-27.404430389278506:14.349645378459369] [-39.537294287741886:40.022413806122792] [-30.624281425005741:31.18010754310998] [-28.344218475332617:24.254213309251693] [0:1] none [-7.2118389962736558:9.5387866992223671] [0:1] [8.3512136842592319:80.980965620793924] [4.937307654780879:50.248664010262665] [4.1379343710052217:66.056147744341885] [0:3] [0:1] [0:1] [0.96996372083324878:44.393907347824602] [0.003968253968253968:1] [0:1] [0:1] [0.089801445018692944:1] [16.802663467089516:87.191501135584986] [0:1] none [-21.678349553042551:8.9791826572902664] [-18.143042009908747:7.9646480623639704] [-5.6368447001890445:5.6274296518827898] [-1.3748413883147495e-14:31.003290581470701] [0:1] [0:1] [75.739997863769531:150.17599487304688] [-16.212009731598819:17.285804788088122] [-17.154886699228712:17.285804788088122] [-17.466124656514857:12.76968593626262] [-17.444804841398987:17.641143193760822] [0.18398789030465568:5.5614456312932976] [0:1] [18.082088470458984:27.343647003173828] [-7.5821480842552464:6.2405416088296972] [-9.2852221934495045:8.6635564516819521] [8.8003716053918168:96.202655458333453] [-10.116561044311979:18.405858040670054] [9.1400003433227539:82.69000244140625] [0.003968253968253968:1] [-37.680097723319783:175.62776809429738] [-42.827257369400193:212.90322769669348] [-50.717273693021525:238.34996009352753] [1:4] none [-32.896762461825148:183.74833429206515] [0:1] [-28.089996337890625:6.470001220703125] [0:1] [-20.469999313354492:16.049995422363281] [59.740001678466797:207.58999633789062] [0.003968253968253968:1] [-32.030340666974922:93.188326213875115] [3.19058327037851:95.917597946422106] [-46.065087738482944:25.186233529403452] [-46.065087738482944:25.186233529403452] [0:1] none none none none none none none none none none none none none none none none [0:3.4836283531360324] [-0.6653184933573606:1.2480743808365191] none none [0:12.660058068905977] [0:201] [0:52.907337224285605] [0:1.590032171431597] [0:1] [-0.25905672810706337:1.1559792516603906] [0:1] [0:1] none none
tree_sizes=3355 3419 3410 3432 3413 3414 3402 3415 3409 3410 3418 3417 3419 3413 3416 3412 3414 3420 3413 3423 3423 3416

Tree=0
num_leaves=31
num_cat=0
split_feature=0 43 43 1 31 27 9 25 31 0 4 46 18 31 38 31 2 59 50 27 31 28 27 13 17 44 2 31 25 44
split_gain=1448.5 145.119 114.405 68.6175 52.8223 52.1694 55.2943 36.6676 36.0759 30.2876 30.2494 30.0622 28.9632 39.0143 25.0454 23.3955 20.0709 25.4468 19.5981 19.3524 20.696 18.8998 18.345 20.9899 18.2426 16.4748 15.9969 15.6498 14.7583 14.6539
threshold=0.15290744033068507 13.835000038146974 24.464999198913578 0.84753319324176146 105.61199951171876 0.21288863568111674 1.3916220115914093 0.19087582539579986 121.70499801635744 0.2489046062471503 2.3814615824380163 1.053238080079 0.30222222222222228 109.14000320434572 22.854583740234379 102.44100189208986 11.022484958503222 7.1614521308711225 -3.7093967204859264 0.21733337086913165 90.793998718261733 0.85090263290210599 0.19319231802642964 19.568151211475712 6.7107032250448002 0.6438492063492065 6.8078247789321544 119.46250152587892 1.0735253522314852 0.22718253968253971
decision_type=2 2 2 2 2 2 2 2 2 2 2 2 2 2 2 2 2 2 2 2 2 2 2 2 2 2 2 2 2 2
left_child=1 8 4 16 22 6 11 -6 12 19 21 -5 13 15 -13 -1 -3 -18 -7 20 -4 -9 24 -24 -2 27 -17 -14 -12 -8
right_child=2 3 9 5 7 18 29 10 -10 -11 28 14 25 -15 -16 26 17 -19 -20 -21 -22 -23 23 -25 -26 -27 -28 -29 -30 -31
leaf_value=-0.52880109113591645 -0.48381371491202124 -0.55665959621007133 -0.4692491019187392 -0.4712746845898243 -0.41947771741774736 -0.54695069164686294 -0.41130112714390821 -0.45839255409956164 -0.46096692737562384 -0.39486410339798383 -0.45987858450154995 -0.51080051790303727 -0.5654365866971125 -0.54985908006702033 -0.44827698650762166 -0.50172383091995898 -0.4692491019187392 -0.55309662039473373 -0.48877567377688935 -0.45600604690532731 -0.40789845298767069 -0.52565863427736703 -0.45376274683042012 -0.52273973281413355 -0.42217383086810667 -0.50433057083160504 -0.43042669671927491 -0.5048303888010971 -0.41396656129884374 -0.46419171306251888
leaf_weight=30.711427688598633 24.697243094444275 56.684504628181458 15.25525116920471 115.05273199081421 187.80438387393951 49.292513966560364 28.763829946517944 22.866168916225433 13.457592666149138 250.84499323368073 32.98035603761673 153.99499261379242 164.12243717908859 84.90937077999115 17.876338005065918 16.380714476108555 19.06906396150589 17.220419347286224 20.496993541717529 33.28282231092453 138.98055195808411 19.219865798950195 17.33866810798645 30.308283090591431 23.353715300559998 13.574978828430174 15.137865006923674 11.390883564949034 37.298854351043701 24.042187035083771
leaf_count=119 87 232 52 394 567 198 85 76 45 709 110 575 683 343 58 60 65 70 73 110 407 74 57 116 71 50 47 42 111 81
internal_value=-0.470658 -0.516507 -0.423823 -0.499294 -0.443308 -0.490491 -0.482402 -0.432995 -0.541241 -0.406227 -0.455588 -0.491056 -0.544453 -0.527818 -0.504297 -0.497743 -0.538072 -0.509037 -0.529865 -0.421428 -0.413967 -0.489112 -0.475655 -0.497639 -0.453856 -0.557399 -0.467481 -0.561503 -0.435512 -0.435382
internal_weight=1686.41 852.179 834.231 502.494 395.868 409.52 339.73 300.17 349.685 438.364 112.365 286.924 336.228 147.139 171.871 62.23 92.974 36.2895 69.7895 187.519 154.236 42.086 95.6979 47.647 48.051 189.088 31.5186 175.513 70.2792 52.806
internal_count=5767 3220 2547 1831 1269 1464 1193 938 1389 1278 371 1027 1344 569 633 226 367 135 271 569 459 150 331 173 158 775 107 725 221 166
is_linear=0
shrinkage=1


Tree=1
num_leaves=31
num_cat=0
split_feature=0 43 43 31 27 0 31 25 26 18 31 5 22 25 56 5 41 34 45 55 17 26 27 13 11 17 42 44 88 28
split_gain=1283.89 133.334 98.3526 46.1701 33.9413 40.0177 33.0549 31.7371 30.4682 27.1914 40.2748 24.4564 25.8798 23.2808 21.1585 19.5602 18.6221 17.4307 17.0866 17.8567 16.4156 16.3884 16.3126 19.2085 16.0033 15.9734 15.8063 13.9313 13.4684 13.3676
threshold=0.15290744033068507 13.835000038146974 24.464999198913578 105.61199951171876 0.31601064215011226 0.13132939477689645 121.70499801635744 0.19087582539579986 -0.68042397419975131 0.17084377610693405 109.14000320434572 7.4601386868944415 44.264228274032227 -0.22498830657874433 0.56051056786350917 2.965969178929984 32.786760830049822 -0.046657907098784916 -4.9040719804238782 86.430000305175795 3.7296202702332368 0.55105995418648834 0.19319231802642964 22.108494751296085 15.646377165196295 6.7107032250448002 1.8208716637262536 0.65376984126984139 0.49305555555555564 0.25328855166026604
decision_type=2 2 2 2 2 2 2 2 2 2 2 2 2 2 2 2 2 2 2 2 2 2 2 2 2 2 2 2 2 2
left_child=1 6 3 22 5 11 9 -5 -4 10 17 12 -3 -14 -6 27 -7 -1 -10 -20 -17 -9 25 -24 -21 -2 28 -11 -18 -23
right_child=2 4 8 7 14 16 -8 21 18 15 -12 -13 13 -15 -16 20 26 -19 19 24 -22 29 23 -25 -26 -27 -28 -29 -30 -31
leaf_value=-0.023758130135134444 0.012029977090019454 -0.047294146205378959 0.096700380623268856 0.071895059924724447 -0.062886257877675406 0.072006939738181883 0.033483865910855351 0.010552366609438132 0.092119501057690761 -0.063707045300821011 -0.054067075448769111 0.05532219325700144 0.054947667939121758 -0.0089886025106612338 0.010410074890386674 0.0086412416240932068 -0.0037965523584622789 0.04219144584837712 0.027677964171925296 0.033505898049679739 -0.058517955815836888 0.097113057933613189 0.022019613408787025 -0.044738351191377299 0.07914538739463152 0.069418858383275342 0.045804998990781803 -0.0061842244657210931 0.048091894491482129 0.041997296450096894
leaf_weight=17.510990425944328 24.772742971777916 42.641828566789627 230.2588050365448 191.08886776864529 35.050758555531502 17.738710895180702 13.570439487695692 35.855304211378098 64.666532814502716 196.75390757620335 46.403708070516586 14.480621829628943 15.119101420044897 244.26156890392303 13.692243993282316 20.535855710506439 69.594622522592545 23.418151587247849 31.14841440320015 23.938616141676903 16.337500780820847 13.272670745849608 31.149117097258568 16.473961651325226 97.183336898684502 23.748863816261292 34.168475702404976 11.120647400617598 15.245454192161558 64.282880291342735
leaf_count=67 87 171 634 567 146 54 45 126 181 826 191 46 48 904 49 74 254 77 103 78 68 37 107 66 282 71 110 41 49 208
internal_value=0.0244087 -0.0191061 0.0679136 0.0499217 -0.0026509 0.00161266 -0.0430042 0.0594594 0.0840325 -0.0461299 -0.0221783 -0.00815291 -0.0111963 -0.00526181 -0.0422968 -0.0546765 0.0242152 0.0139758 0.0705868 0.0614422 -0.021115 0.0385061 0.0197152 -0.00107356 0.0701252 0.0401189 0.0170916 -0.0606298 0.00552761 0.0514297
internal_weight=1695.48 847.645 847.84 400.644 501.993 453.25 345.651 304.5 447.196 332.081 87.3329 316.503 302.022 259.381 48.743 244.748 136.747 40.9291 216.937 152.27 36.8734 113.411 96.1447 47.6231 121.122 48.5216 119.009 207.875 84.8401 77.5556
internal_count=5767 3220 2547 1269 1831 1636 1389 938 1278 1344 335 1169 1123 952 195 1009 467 144 644 463 142 371 331 173 360 158 413 867 303 245
is_linear=0
shrinkage=0.05


Tree=2
num_leaves=31
num_cat=0
split_feature=58 43 43 1 27 9 43 1 31 26 18 31 46 2 26 54 31 2 60 50 84 45 31 5 1 2 43 56 21 11
split_gain=1142.73 122.669 85.7371 61.7605 44.4085 46.2388 40.8932 33.0427 30.3182 26.4074 25.9621 33.4495 25.7518 24.4021 22.2245 21.3207 20.6366 18.606 23.0626 17.846 17.0026 16.3985 15.9767 16.4291 15.1911 14.4927 14.2853 14.2617 14.1178 13.911
threshold=15.290744033068504 13.835000038146974 24.464999198913578 0.84753319324176146 0.21288863568111674 1.3916220115914093 15.015000343322756 0.95299394826915729 121.70499801635744 -0.61668347623989106 0.30222222222222228 109.14000320434572 1.053238080079 3.9867881476724718 -0.29021401699773802 -0.51499938964843739 102.44100189208986 11.022484958503222 7.1614521308711225 -3.7093967204859264 2.1893490324208034 -2.826768576891475 119.62150192260744 4.6827171517785162 1.4491881951542334 6.8078247789321544 19.755000114440922 0.47690120824449184 0.37455246498974742 18.744709096435198
decision_type=2 2 2 2 2 2 2 2 2 2 2 2 2 2 2 2 2 2 2 2 2 2 2 2 2 2 2 2 2 2
left_child=1 8 6 17 5 12 -2 -8 10 -4 11 16 27 -14 15 -9 29 -3 -19 -6 -16 -11 23 -12 28 -18 -7 -5 -23 -1
right_child=2 3 9 4 19 26 7 14 -10 21 22 -13 13 -15 20 -17 25 18 -20 -21 -22 24 -24 -25 -26 -27 -28 -29 -30 -31
leaf_value=0.00092863405399518486 -0.029124910103103294 -0.05773645159277016 0.089736745384182318 0.037906253098692791 -0.047483993368551802 0.085017711756722902 -0.022378358735354039 0.015295604613626246 0.031571600087847096 0.083225307217791381 -0.064706248020492435 -0.04944878594817978 -0.033836363628263026 0.006212611069608423 0.037810052564563816 0.072674315665107195 -0.0053575684023142054 0.025891668193121883 -0.05419032490694347 0.0082579731769589423 0.091703800322497753 -0.0021164653843547682 0.00042109564518461907 -0.00057816278737685416 0.068801360360392777 0.06226835081583057 0.033063331827916535 0.0022023235619420033 0.052468405662806222 -0.066999716733108991
leaf_weight=16.373286828398708 16.924072489142418 55.661871910095215 245.18038485944271 68.806134894490242 48.257435247302055 23.44613228738308 15.042057454586027 18.123848259449005 13.670100182294844 80.51932130753994 161.13710297644138 82.488977715373039 57.024820223450661 114.21664273738861 186.84356084465981 151.7110537737608 16.386661022901539 19.178547486662865 16.923788771033287 20.44074310362339 15.878159582614897 17.991714090108871 11.388762816786764 10.647482469677923 75.581161722540855 15.338058367371557 30.367054253816605 47.124937400221825 34.677374377846718 13.965540274977682
leaf_count=60 64 232 665 226 198 67 56 61 45 224 693 343 223 410 604 440 60 65 70 73 44 63 42 40 220 47 99 168 106 59
internal_value=0.0230893 -0.0182668 0.0636925 -0.00252769 0.00577702 0.013166 0.0469537 0.0502756 -0.0413846 0.0786087 -0.0444277 -0.028586 0.00519562 -0.00712403 0.053209 0.0665512 -0.000857178 -0.0396043 -0.0116486 -0.0308983 0.0420313 0.0655398 -0.0569293 -0.0607315 0.0544363 0.0273378 0.0556996 0.0233929 0.0338223 -0.0303401
internal_weight=1701.32 842.844 858.473 501.448 409.684 340.986 404.523 387.599 341.396 453.95 327.726 144.553 287.173 171.241 372.557 169.835 62.0635 91.7642 36.1023 68.6982 202.722 208.77 183.173 171.785 128.25 31.7247 53.8132 115.931 52.6691 30.3388
internal_count=5767 3220 2547 1831 1464 1193 1269 1205 1389 1278 1344 569 1027 633 1149 501 226 367 135 271 648 613 775 733 389 107 166 394 169 119
is_linear=0
shrinkage=0.05


Tree=3
num_leaves=31
num_cat=0
split_feature=0 0 9 27 0 25 40 27 9 4 18 54 82 46 44 27 5 46 83 82 3 33 5 40 2 11 13 11 42 46
split_gain=1020.52 76.7076 71.7164 52.0489 60.8399 44.6789 41.3345 32.1472 26.1004 25.6731 25.0519 22.8442 19.9401 19.4536 19.3628 18.6417 18.6078 19.8915 17.1955 17.1947 28.8745 15.7356 15.4388 19.3533 13.4165 12.6371 12.4106 11.4009 10.147 9.90873
threshold=0.15290744033068507 0.22328016470424614 2.3557690558629778 0.14867083730590022 0.088124788133075768 -0.91308701263432102 0.72502978825088615 0.19319231802642964 -0.93638137291664936 9.3733204095359266 0.36127844712182067 0.86499929428100597 0.56647692610635703 -20.116298918150381 0.67125496031746035 -0.08544488022111997 7.4601386868944415 0.58682358649144739 0.00034251793466579726 1.3701364636539133 -3.1781276741055722 1.3512024351314269 -6.2397870270171056 -1.6772641948208986 9.2462408364556925 25.727813909514222 18.642645152236291 21.848259322208541 1.1239992557106173 -0.51017037962296496
decision_type=2 2 2 2 2 2 2 2 2 2 2 2 2 2 2 2 2 2 2 2 2 2 2 2 2 2 2 2 2 2
left_child=2 5 3 4 6 -2 9 13 27 24 12 16 -10 -7 28 -8 17 -6 21 25 -21 -15 -9 -24 -1 -3 -25 -5 -12 -4
right_child=1 19 29 8 11 7 15 22 10 -11 14 -13 -14 18 -16 -17 -18 -19 -20 20 -22 -23 23 26 -26 -27 -28 -29 -30 -31
leaf_value=-0.057634947192861864 0.073986508106054602 0.070056431408194286 0.065616418645929958 -0.032545713707238223 0.0050879530331512718 -0.026146783980565337 0.038276976310758874 0.055746234659436705 0.026923009695225375 0.026510692307084856 -0.071419073120224649 0.036855705981785288 -0.053672101312010757 0.050962644259469864 -0.0037659535123489036 -0.029876482955309199 0.043589561234041431 -0.01981215285946044 0.088167407276346782 0.077593319146448958 0.0041847670408505259 0.0043482093534043037 0.059426967046963708 0.029838324668073346 -0.021163574121168247 0.088936263745827263 -0.012171452049581515 0.029039074659755706 -0.033009609873235396 0.017826401643056971
leaf_weight=130.11957222223282 107.18328912556171 174.35732071101665 24.697544902563095 14.150046870112421 151.80406075716019 8.4176039695739728 24.355948835611343 21.040219470858574 16.984480485320095 11.578399300575255 107.38947330415249 35.544167160987854 14.000825524330137 166.83667649328709 14.220437943935393 17.062226936221123 18.431089237332344 170.05274264514446 27.619539514183998 35.779638811945915 21.412069752812386 20.308051586151123 15.942833065986632 24.366989597678185 31.277181580662727 180.26984204351902 63.123695150017738 16.026805758476257 20.472995579242706 19.339727029204369
leaf_count=552 300 495 74 56 547 31 82 64 59 40 474 118 59 508 53 68 60 653 75 98 72 70 48 79 121 479 228 56 83 65
internal_value=0.0218817 0.0599178 -0.0174783 -0.0209252 -0.0134105 0.0457635 -0.0346648 0.0370623 -0.042748 -0.0454078 -0.0502299 -0.00128603 -0.00949419 0.048417 -0.0591135 0.0102011 -0.00527005 -0.00806799 0.0513395 0.0755508 0.0501098 0.0459043 0.0167032 0.00876116 -0.0505671 0.0796537 -0.000471329 0.000161721 -0.0652691 0.0446286
internal_weight=1704.17 866.658 837.508 793.47 590.225 454.839 214.393 347.656 203.245 172.975 173.068 375.832 30.9853 223.182 142.083 41.4182 340.288 321.857 214.764 411.819 57.1917 187.145 124.474 103.434 161.397 354.627 87.4907 30.1769 127.862 44.0373
internal_count=5767 2547 3220 3081 2241 1403 863 1103 840 713 728 1378 118 684 610 150 1260 1200 653 1144 170 578 419 355 673 974 307 112 557 139
is_linear=0
shrinkage=0.05


Tree=4
num_leaves=31
num_cat=0
split_feature=0 43 43 1 27 31 46 38 31 25 4 27 0 56 44 38 31 44 47 27 31 34 57 41 27 31 11 55 1 82
split_gain=914.006 106.293 69.2338 55.2705 37.8976 36.2588 32.9398 27.4498 27.1904 24.0037 24.6854 23.83 21.5916 21.5641 20.2102 18.982 18.4922 17.1847 17.15 15.5 16.0477 15.3056 18.5418 14.3993 16.3976 14.7043 14.049 13.3224 12.6031 11.9401
threshold=0.15290744033068507 13.835000038146974 24.464999198913578 0.84753319324176146 0.21288863568111674 105.61199951171876 1.053238080079 22.821036338806156 121.70499801635744 0.19087582539579986 2.3814615824380163 0.14867083730590022 0.2489046062471503 0.47023809523809529 0.58374587458745886 20.968852043151859 111.68500137329103 0.019414305806710875 1.4271963234414933 0.21733337086913165 90.793998718261733 -0.046657907098784916 2.4967126471544092 49.180280368163814 0.22745878180100595 102.17000198364259 21.597683095761578 80.859996795654311 1.7785941966989318 0.95324510991650657
decision_type=2 2 2 2 2 2 2 2 2 2 2 2 2 2 2 2 2 2 2 2 2 2 2 2 2 2 2 2 2 2
left_child=1 8 5 17 6 23 13 15 11 -7 -11 16 19 14 -5 -8 21 -3 -6 20 -4 22 -1 25 -25 -2 -23 -18 -13 -15
right_child=2 3 12 4 18 9 7 -9 -10 10 -12 28 -14 29 -16 -17 27 -19 -20 -21 -22 26 -24 24 -26 -27 -28 -29 -30 -31
leaf_value=-0.067140784439716536 0.046998558233983211 0.0037040472359628472 0.015989119758959298 0.05507615194622522 -0.041324331229948309 0.06051182445720682 0.0093133339483997459 0.052537715283635024 0.030299566798167227 0.0018140791957098935 0.04956614879241375 -0.068436181892518363 0.079109204299009361 0.018347376506946522 -0.0077396433021624236 -0.023749575738030264 -0.0043130159031703813 -0.049076060992315901 0.021181120669033996 0.026964856077186933 0.06892690004549222 0.021768899959438405 -0.01224646376673693 0.017047400276403193 -0.048753738649460865 -0.0089384569524827168 -0.028403439984938307 -0.055718769958536099 -0.013785545843861375 -0.036945057708194638
leaf_weight=27.196157038211823 41.141041800379753 19.737344861030579 15.868201792240141 78.255887001752853 53.696136474609375 196.86960609257221 84.976224735379219 21.320003479719162 13.731348186731337 43.051099196076393 72.881562009453773 87.556045070290565 265.09645619988441 40.082994937896729 15.309899240732191 88.749936044216156 14.775550350546835 70.53780123591423 13.793029144406317 34.779402300715446 146.35177072882652 31.827898636460304 35.414077684283257 24.89479760825634 15.27861477434635 16.444741293787956 24.843400955200195 85.745753362774849 11.99454580247402 12.907962113618849
leaf_count=119 128 72 52 239 223 567 305 67 45 150 221 396 709 137 55 340 57 295 48 110 407 113 138 83 61 59 99 374 48 50
internal_value=0.0207632 -0.0167177 0.0565173 -0.00212589 0.00568823 0.0415762 0.0124525 -0.00100621 -0.0385941 0.0498829 0.0318336 -0.0415564 0.0697922 0.0303642 0.0447978 -0.00757722 -0.0323646 -0.0375365 -0.0285498 0.0572546 0.0637486 -0.0190511 -0.036091 0.0149969 -0.00797786 0.0310247 -0.000225506 -0.0481627 -0.0618515 0.0048788
internal_weight=1705.11 832.452 872.657 499.367 409.092 410.561 341.603 195.046 333.085 312.802 115.933 319.353 462.096 146.557 93.5658 173.726 219.803 90.2751 67.4892 196.999 162.22 119.282 62.6102 97.7592 40.1734 57.5858 56.6713 100.521 99.5506 52.991
internal_count=5767 3220 2547 1831 1464 1269 1193 712 1389 938 371 1344 1278 481 294 645 900 367 271 569 459 469 257 331 144 187 212 431 444 187
is_linear=0
shrinkage=0.05


Tree=5
num_leaves=31
num_cat=0
split_feature=0 43 0 1 25 27 9 43 18 52 31 31 1 27 57 44 46 38 4 88 12 34 0 32 43 82 41 31 47 43
split_gain=820.798 97.9246 62.4771 50.438 37.3223 34.3735 34.6363 26.746 26.1207 24.7959 23.7201 21.2519 20.6655 16.9234 16.5547 15.9229 15.8373 19.1993 15.8278 15.5596 13.8379 13.3591 13.2969 13.2577 12.0428 19.9008 11.0221 11.0197 10.255 9.07743
threshold=0.15290744033068507 13.835000038146974 0.22328016470424614 0.84753319324176146 -0.91308701263432102 0.30297763343009126 1.3916220115914093 15.015000343322756 0.21942110177404298 1.9000005722045901 109.14000320434572 119.74499893188478 0.97677638757831819 0.44114726409367505 3.556291609428031 0.019414305806710875 1.053238080079 22.854583740234379 9.110512936142392 0.23867952088810987 22.175479044894118 -0.046657907098784916 0.087630043077473727 0.62512097256419719 25.345000267028812 1.1527501831557265 46.153974765746405 110.88499832153322 -12.569542305019413 19.755000114440922
decision_type=2 2 2 2 2 2 2 2 2 2 2 2 2 2 2 2 2 2 2 2 2 2 2 2 2 2 2 2 2 2
left_child=1 8 4 15 -2 6 16 -6 10 24 21 18 -9 19 -7 -3 23 -18 20 -14 -10 -1 26 -5 25 -4 -12 -17 -15 -8
right_child=2 3 9 5 7 14 29 12 11 -11 22 -13 13 28 -16 27 17 -19 -20 -21 -22 -23 -24 -25 -26 -27 -28 -29 -30 -31
leaf_value=-0.022160866365818165 0.06635544809962661 0.0035153961440777745 0.064892079843213199 0.026141499689143467 -0.028668738897931558 -0.054764964056732403 0.067922360649280797 -0.011740420613640654 -0.025778187204793929 0.0097208496893259298 -0.066228951426839114 -0.00026537569335006328 0.039270373168378801 0.031877546555647999 0.010455186811529122 -0.056029700053198961 -0.011854836318503904 0.041265988660657747 0.0055518864600717886 0.074016123775261289 -0.062048906266204677 0.032024833545051944 0.00097288503370011989 -0.010863903524043914 0.07501184054828991 0.0044907966087920021 -0.011957561710315048 -0.0016359103568601029 -0.013787958442074706 0.028207019655932909
leaf_weight=19.401046738028526 108.56743392348289 19.75621423125267 82.164529979228973 98.096882119774818 16.840795427560806 32.39161142706871 25.950067192316055 21.304430991411209 31.714676514267921 17.798996865749359 33.501443013548851 21.720729306340218 225.09545913338661 29.14677532017231 13.907025203108786 58.39411835372448 155.25163182616234 19.102635830640793 11.123302578926085 37.60321994125843 153.9261816740036 27.495739445090294 16.674116745591164 32.131148979067802 300.470832914114 16.350739508867264 12.98017744719982 11.077744945883749 21.262989118695259 32.290274560451508
leaf_count=77 300 72 231 328 64 141 75 76 131 58 152 80 692 93 51 252 587 61 43 103 699 92 63 117 801 54 52 43 75 104
internal_value=0.0197329 -0.0160023 0.0534414 -0.00203163 0.040733 0.00539697 0.0105741 0.0328135 -0.0371941 0.067462 -0.0173295 -0.0472001 0.0359097 0.0391519 -0.0351744 -0.0360926 0.00381879 -0.0060348 -0.0523812 0.044244 -0.0558525 0.00960839 -0.0373324 0.0170112 0.0700378 0.0548672 -0.0510734 -0.0473563 0.0126157 0.0459029
internal_weight=1703.49 826.887 876.606 498.349 459.821 409.121 362.823 351.254 328.537 416.785 110.053 218.485 334.413 313.108 46.2986 89.2281 304.582 174.354 196.764 262.699 185.641 46.8968 63.1557 130.228 398.986 98.5153 46.4816 69.4719 50.4098 58.2403
internal_count=5767 3220 2547 1831 1403 1464 1272 1103 1389 1144 436 953 1039 963 192 367 1093 648 873 795 830 169 267 445 1086 285 204 295 168 179
is_linear=0
shrinkage=0.05


Tree=6
num_leaves=31
num_cat=0
split_feature=0 43 43 9 54 43 17 43 2 25 2 26 33 3 2 11 2 9 34 27 4 17 41 89 3 45 13 55 55 11
split_gain=738.591 90.2707 56.7862 33.4009 30.6995 29.0861 23.6574 26.4868 27.1591 21.0538 20.6044 20.0069 19.361 18.2459 18.2132 17.6627 17.531 15.7914 15.4579 15.3694 15.0897 26.3202 25.1921 14.211 13.7104 13.2457 11.794 11.5476 11.0678 11.0811
threshold=0.15290744033068507 13.835000038146974 24.464999198913578 2.3557690558629778 0.73000001907348644 15.015000343322756 3.7927601304622267 11.284999847412111 8.1047392554350406 0.19897483195749291 2.6759046931556649 -0.68042397419975131 0.30476456967452054 5.1443409399076039 4.5375319649788652 17.16026185110444 8.4285022301335975 -0.78595135391197324 1.6245820474514729 -0.24543129684289813 8.7857008266729846 5.8567929795400611 67.286807161454746 0.52083333333333348 -0.99488234120783059 -5.7293387385241354 15.08948108937911 89.384998321533217 86.430000305175795 16.086367857244799
decision_type=2 2 2 2 2 2 2 2 2 2 2 2 2 2 2 2 2 2 2 2 2 2 2 2 2 2 2 2 2 2
left_child=1 6 5 4 20 -2 7 26 18 10 12 -4 -7 14 15 -11 -16 -8 27 -12 21 23 -23 -3 -14 -13 -1 -9 -27 -30
right_child=2 3 11 -5 -6 9 17 8 -10 13 19 25 24 -15 16 -17 -18 -19 -20 -21 -22 22 -24 -25 -26 28 -28 -29 29 -31
leaf_value=-0.013600917937310955 -0.027415774430588676 -0.011227730531757022 0.072680349174321743 0.039334200640924868 0.027487155655744295 0.072520780403957069 -0.005087803514513857 -0.023871074824566577 0.030469110609726149 0.025488465660449589 0.062298765659103833 0.072187884696736301 0.023969498758209085 0.059918475340191846 0.0781725296579735 -0.021622781871221169 0.019710048327232534 -0.057803096189773667 0.019763445680162396 0.0066854263457715047 0.01404524627953882 -0.051527287112277755 0.029546029250720918 0.026865801752974629 0.072875128397338715 0.019373026494990876 -0.070268003243024887 -0.068970754599888745 0.024147962162519986 0.059022265685165033
leaf_weight=12.277875930070875 16.732735604047775 234.62121780216694 239.58026261627674 44.614461541175842 59.417962357401848 100.94113717973232 16.093646854162216 75.262778013944626 28.418680027127266 41.776694163680077 18.048747673630714 59.406077653169632 49.194123119115829 32.89928013086319 19.735822603106499 37.984232947230339 36.609606072306633 121.15096804499626 16.788106992840767 39.859773531556129 51.89905309677124 68.156861960887909 11.149250850081442 27.335221707820892 20.221637219190598 34.290280491113663 36.415144398808479 17.492108210921288 29.294718161225319 102.39047574996948
leaf_count=51 64 888 634 139 201 274 63 306 99 135 51 159 152 95 55 137 119 559 61 132 183 289 38 93 55 108 170 80 91 286
internal_value=0.0187754 -0.0153226 0.0506284 -0.00194162 -0.00601052 0.0371602 -0.0358629 -0.0242757 -0.013086 0.03988 0.0497843 0.0626206 0.0585426 0.026503 0.0184259 0.00305286 0.0401874 -0.0516216 -0.0243855 0.0240188 -0.011073 -0.0148929 -0.0401296 -0.00725266 0.0382163 0.0519272 -0.0559795 -0.0323762 0.0446755 0.0512641
internal_weight=1700.06 821.093 878.966 497.194 452.58 414.004 323.899 186.655 137.962 397.271 228.265 464.962 170.357 169.006 136.106 79.7609 56.3454 137.245 109.543 57.9085 393.162 341.263 79.3061 261.956 69.4158 225.382 48.693 92.7549 165.975 131.685
internal_count=5767 3220 2547 1831 1692 1269 1389 767 546 1205 664 1278 481 541 446 272 174 622 447 183 1491 1308 327 981 207 644 221 386 485 377
is_linear=0
shrinkage=0.05


Tree=7
num_leaves=31
num_cat=0
split_feature=0 43 0 1 31 9 38 31 18 9 40 44 31 25 52 0 18 31 26 43 26 34 31 4 50 4 4 25 13 33
split_gain=666.796 77.4615 57.9723 42.4749 34.6929 27.1485 32.1517 36.1773 26.0018 28.154 25.8949 24.6484 23.3444 22.4345 21.7474 21.5634 20.9692 30.3125 20.8644 18.7908 16.477 15.8569 15.7471 18.8549 14.3414 14.1422 12.6682 13.9419 11.4247 10.7617
threshold=0.15046307263581818 13.835000038146974 0.22328016470424614 0.84077420079507614 104.65500259399415 2.3557690558629778 21.055914878845218 103.46749877929689 0.44291187739463606 0.33179414620853614 -0.080519592723266017 0.71329365079365092 121.70499801635744 -0.85188370416853221 1.9000005722045901 0.087630043077473727 0.17084377610693405 109.53199768066408 0.61051510075154536 18.115000724792484 2.1399672532476113 -0.046657907098784916 111.064998626709 8.7857008266729846 -16.096880633136191 1.5397008018796956 9.3733204095359266 0.56711060500627763 16.52939627389642 1.3512024351314269
decision_type=2 2 2 2 2 2 2 2 2 2 2 2 2 2 2 2 2 2 2 2 2 2 2 2 2 2 2 2 2 2
left_child=1 12 4 22 8 6 7 15 9 -2 19 -12 16 -6 -4 -5 17 21 -9 -8 24 -1 23 -3 -15 -10 27 28 -18 -26
right_child=2 3 14 5 13 -7 10 18 25 -11 11 -13 -14 20 -16 -17 26 -19 -20 -21 -22 -23 -24 -25 29 -27 -28 -29 -30 -31
leaf_value=-0.022327295687938602 0.060062923829053996 -0.054492725567730119 0.063427005104959452 -0.052707229836719729 0.062358393195244388 0.044913073035273601 -0.065809729991091998 0.10130864808883421 0.0099901030030976942 -0.012155241615837488 0.011447069232210873 -0.036394447205151254 0.029108457305817827 -0.0094016572417340398 0.0070017356717791447 0.011071409022437874 0.0078891938192731069 -0.047455441026607675 0.025186988606331725 -0.0065816591613485345 0.064256635931244796 0.038929671012720497 0.017866943495798433 0.015682310993960471 0.03835239739877791 -0.039375621900047231 0.0068416404205603023 -0.056430941217786967 -0.04099430577707161 0.0026109002899227622
leaf_weight=18.324168011546135 39.418211027979851 61.439079746603966 399.5333142131567 14.983137115836142 107.87692615389824 37.145623594522476 34.137798249721527 16.673681885004044 33.477034196257591 20.52116185426712 95.231383070349693 37.533905521035194 13.786604300141333 21.219328805804253 17.838981181383133 114.75466540455818 16.192121922969818 39.837248578667641 19.564109772443771 22.035695970058441 40.873853370547295 24.94742925465107 12.179455623030661 11.338359937071798 169.15310373902321 25.604015916585922 11.01719695329666 149.17482058703899 45.649969160556793 24.055868878960609
leaf_count=74 114 270 1086 61 295 112 147 47 111 72 339 148 45 75 58 405 65 180 68 81 114 81 45 41 512 98 43 699 200 81
internal_value=0.0178778 -0.0154565 0.0473722 -0.00270231 0.0355633 0.00424301 -1.3555e-05 0.0160429 0.0121357 0.0353379 -0.0141185 -0.00207814 -0.0345326 0.0432409 0.0610153 0.00370575 -0.037408 -0.0159842 0.060212 -0.0425758 0.0351629 0.0129893 -0.0347536 -0.0435598 0.0296171 -0.0114036 -0.045427 -0.048156 -0.0281951 0.0339023
internal_weight=1695.52 795.946 899.572 477.017 482.2 392.06 354.914 165.976 119.02 59.9394 188.939 132.765 318.93 363.179 417.372 129.738 305.143 83.1088 36.2378 56.1735 255.302 43.2716 84.9569 72.7774 214.428 59.0811 222.034 211.017 61.8421 193.209
internal_count=5767 3151 2616 1764 1472 1408 1296 581 395 186 715 487 1387 1077 1144 466 1342 335 115 228 782 155 356 311 668 209 1007 964 265 593
is_linear=0
shrinkage=0.05


Tree=8
num_leaves=31
num_cat=0
split_feature=0 43 0 1 27 27 89 56 18 52 5 44 52 57 1 44 36 44 34 40 31 31 4 45 6 18 25 55 42 40
split_gain=602.042 71.5093 52.955 38.8243 36.4124 27.5466 23.9187 26.6363 22.0834 20.4492 21.2166 19.5176 19.483 19.207 18.7612 18.1314 28.591 19.5737 17.7837 19.6351 14.9544 14.5303 17.5264 14.2634 13.4053 13.0787 16.1551 12.5396 11.786 11.4938
threshold=0.15046307263581818 13.835000038146974 0.21262980308245019 0.84077420079507614 0.19319231802642964 0.31601064215011226 0.65987355394135061 0.17956349206349209 0.21942110177404298 0.98500061035156261 2.0765884487542912 0.65575396825396837 2.0149998664855961 3.556291609428031 1.4701839397048311 0.22718253968253971 0.41271051043545331 0.067628463814904505 2.1745755898684664 1.0830577484648554 119.74499893188478 111.064998626709 8.7857008266729846 6.5051833455063388 0.1840025151891245 0.43113342898134871 0.060123694534841128 84.194999694824233 -0.3311427505872932 0.11319024975532389
decision_type=2 2 2 2 2 2 2 2 2 2 2 2 2 2 2 2 2 2 2 2 2 2 2 2 2 2 2 2 2 2
left_child=1 8 4 21 14 15 7 -6 9 27 29 20 25 -7 23 16 24 -18 19 -17 -10 22 -3 -2 -5 26 -4 -1 -16 -11
right_child=2 3 12 5 6 13 -8 -9 11 10 -12 -13 -14 -15 28 18 17 -19 -20 -21 -22 -23 -24 -25 -26 -27 -28 -29 -30 -31
leaf_value=0.044725383370618266 0.03947391142867078 -0.0528058815475176 0.059771576517468054 -0.042448759229573946 0.030969405681400688 -0.058201691541210035 0.066207542917812848 -0.019344164443336868 -0.051537349595240624 -0.05991391886404094 0.015411663440525962 0.014944785643263707 0.0083420849054248632 0.014991656463947671 0.036597606161610043 -0.0017356054369589025 0.011406978221069243 0.067477755385755539 -0.043368582382915716 0.035403439734865143 -0.0047557231767239314 0.016879260097666101 0.014832890795369123 0.0069885576682431269 0.020170443123253196 0.061992644637063492 0.0057933497218166556 -0.018981506299885476 0.068386808565827309 -0.010575637763490934
leaf_weight=18.846006929874424 134.58020746707916 60.261753767728806 31.798025637865067 16.751676291227341 44.431108057498932 27.911491528153419 16.251922786235809 64.481532081961632 174.23697176575661 38.771880462765694 19.754147306084633 13.635417625308035 20.010168612003326 13.202780753374098 46.444516286253929 186.6124360114336 25.323254376649857 40.38971671462059 20.390248969197273 43.974994584918022 18.939698427915573 12.245765045285223 11.386989951133726 45.118092566728592 17.449482053518295 393.34680405259132 24.573994845151901 13.088610187172888 78.334682524204254 16.971108540892601
leaf_count=62 404 270 87 66 141 127 45 233 827 179 75 52 65 48 138 677 86 118 82 145 72 45 41 146 59 1067 79 54 211 66
internal_value=0.0170373 -0.014806 0.0450134 -0.00258312 0.0323274 0.00402357 0.00962464 0.00118135 -0.0333167 -0.0149263 -0.0291138 -0.0428699 0.0566167 -0.0346975 0.04166 0.00856056 0.0265743 0.0458702 0.0013893 0.00534713 -0.0469507 -0.0334536 -0.0420562 0.0313176 -0.0105003 0.0587647 0.0362411 0.0186147 0.0565544 -0.0448927
internal_weight=1689.52 790.144 899.371 475.901 429.642 392.006 125.165 108.913 314.244 107.432 75.4971 206.812 469.729 41.1143 304.477 350.892 99.9141 65.713 250.978 230.587 193.177 83.8945 71.6487 179.698 34.2012 449.719 56.372 31.9346 124.779 55.743
internal_count=5767 3151 2616 1764 1318 1408 419 374 1387 436 320 951 1298 175 899 1233 329 204 904 822 899 356 311 550 125 1233 166 116 349 245
is_linear=0
shrinkage=0.05


Tree=9
num_leaves=31
num_cat=0
split_feature=0 43 43 1 31 9 5 38 31 41 18 40 22 6 42 43 36 38 45 11 25 4 2 11 9 39 43 12 1 0
split_gain=544.991 70.5949 46.1653 37.356 26.1653 23.48 21.1396 20.8535 36.3058 19.7565 25.4964 19.714 25.042 19.0665 18.5409 17.2296 16.6051 16.7504 18.2384 17.2629 16.2401 19.8087 16.0185 21.4233 13.0322 14.7146 14.6174 12.9147 11.6428 11.6081
threshold=0.15290744033068507 13.835000038146974 24.464999198913578 0.84753319324176146 105.61199951171876 2.2744178737131029 2.965969178929984 21.055914878845218 103.46749877929689 59.4088970718417 0.15919701213818863 -0.080519592723266017 44.094885908941883 2.6114882927647192 0.18927628005499522 17.57499980926514 0.31745157736852903 20.94602203369141 3.1771395970831566 15.452644742077181 0.19087582539579986 -0.55712874383750932 11.022484958503222 29.709038756068519 0.49317522443557144 -0.091938176728773011 20.505000114440922 25.53257294354032 1.4086639843225737 0.17510358046455107
decision_type=2 2 2 2 2 2 2 2 2 2 2 2 2 2 2 2 2 2 2 2 2 2 2 2 2 2 2 2 2 2
left_child=1 6 4 22 24 7 9 8 13 -1 -11 15 -13 -5 -8 -9 -4 18 -18 -19 -6 -22 -3 -24 25 -2 -26 -23 -12 -29
right_child=2 3 16 5 20 -7 14 11 -10 10 28 12 -14 -15 -16 -17 17 19 -20 -21 21 27 23 -25 26 -27 -28 29 -30 -31
leaf_value=-0.045873509543347901 0.042712886915903504 -0.049606812379269186 0.0081698974899681014 -0.010589748389095058 0.047115337563701315 0.039583941193973099 -0.03274939457386266 -0.058734590484582933 0.056959738893099993 0.034524272469717142 -0.05565580453630678 -0.039716305515335941 0.011323438005022954 0.031802130629885898 0.029072143561886855 -0.0041464115688068306 0.056800380298808732 0.017173007779883381 0.013847585218999609 0.064413083389357501 -0.020441843201503839 0.010955116802780832 0.027413976319579422 -0.052491946789750811 -0.057737357010417684 -0.0043241404971366059 0.011012872275700768 0.074919542556700622 -0.0060173899608845938 0.029448783762216331
leaf_weight=194.56856195628643 36.813057243824005 50.988651230931282 18.672870263457298 96.654412627220154 199.08715432882309 42.790702849626541 24.282933920621872 33.133464395999908 37.118655115365982 19.059713065624237 26.877204969525337 31.112962543964386 105.59680663049221 36.556383028626442 24.229344978928566 25.641598239541054 57.690737441182137 20.574508294463158 43.235632672905922 322.0406529456377 20.910294145345688 38.950807511806488 20.342074692249298 14.274312466382979 13.159666150808336 30.321917355060577 18.743498548865318 23.874193072319031 21.076746791601181 34.059693768620491
leaf_count=910 111 232 59 359 567 129 106 145 116 64 129 125 375 121 90 94 159 64 135 861 75 126 73 62 53 105 62 65 90 105
internal_value=0.0162482 -0.0134866 0.043483 -0.00175284 0.0313975 0.00453921 -0.0321872 0.000439895 0.013229 -0.0378092 -0.0143952 -0.0107035 -0.000292393 0.00104365 -0.00187277 -0.0349196 0.0543581 0.0563026 0.0383999 0.0615763 0.0384086 0.0236931 -0.0317857 -0.0055358 0.00896514 0.0214683 -0.0173458 0.0332186 -0.0338387 0.048187
internal_weight=1682.44 804.305 878.135 494.21 415.92 408.605 310.095 365.814 170.329 261.582 67.0137 195.485 136.71 133.211 48.5123 58.7751 462.214 443.542 100.926 342.615 316.882 117.795 85.605 34.6164 99.0381 67.135 31.9032 96.8847 47.954 57.9339
internal_count=5767 3220 2547 1831 1269 1464 1389 1335 596 1193 283 739 500 480 196 239 1278 1219 294 925 938 371 367 135 331 216 115 296 219 170
is_linear=0
shrinkage=0.05


Tree=10
num_leaves=31
num_cat=0
split_feature=0 43 0 31 1 27 9 27 17 43 2 47 26 9 56 9 40 2 50 18 27 2 1 12 31 4 26 31 13 40
split_gain=493.404 60.6619 45.7071 34.8555 32.4118 24.5802 27.8898 21.0488 20.6665 23.3603 22.624 19.4028 16.4877 18.1326 15.9895 20.9833 16.6724 15.7599 26.7791 16.7015 15.4042 20.0999 15.2867 14.244 13.3721 18.2691 12.499 11.6466 11.5595 10.9626
threshold=0.15046307263581818 13.835000038146974 0.26257596686149604 107.66350173950197 0.84077420079507614 0.21288863568111674 1.3916220115914093 0.087987920772393272 3.7927601304622267 11.284999847412111 8.1047392554350406 1.4271963234414933 -0.17862452542745796 -0.57438051158693593 0.30210944026733505 0.6149172459829545 -0.31570636912134903 3.9867881476724718 4.3415339719806267 0.065476190476190479 -0.11017719506861055 3.8240881537535629 1.4086639843225737 21.688855055762264 111.064998626709 8.9073479829436604 1.0225596458600039 109.67049789428712 15.08948108937911 -0.046104342611380515
decision_type=2 2 2 2 2 2 2 2 2 2 2 2 2 2 2 2 2 2 2 2 2 2 2 2 2 2 2 2 2 2
left_child=1 8 3 7 24 6 17 26 9 28 20 -7 -5 -14 -9 16 -16 18 -6 -19 -11 -22 -10 -15 25 -3 29 -24 -1 -2
right_child=2 4 -4 12 5 11 -8 14 22 10 -12 -13 13 23 15 -17 -18 19 -20 -21 21 -23 27 -25 -26 -27 -28 -29 -30 -31
leaf_value=-0.0083503022497049394 0.044131949323790221 -0.050435333019710177 0.057812653980989226 0.051620635349402116 0.020528486323494965 -0.040224700984983375 0.043217834323398575 0.024697722197802113 -0.057995653221904891 -0.043852169594916467 0.030183998903106635 0.027222300876654577 0.067148941822600311 0.00094493234197718312 0.026119980949956541 -0.065576066752374471 -0.035748481468831535 -0.020924170497183397 -0.038035545083173167 0.017270591053667943 0.050886106409246283 -0.018919817579467205 -0.053874075125355227 0.034433449488008361 0.017234986162650106 0.020584724230150848 0.060703905911052437 0.0019040939679429538 -0.066096233312579092 0.0096580556020173236
leaf_weight=11.700353890657423 37.684811264276505 58.834208130836487 274.31622344255447 215.98903807997704 31.714523077011108 48.245842456817627 50.4703688621521 42.469102516770363 87.74715781211853 41.572917833924294 28.292733743786812 13.688256055116652 28.999304875731468 46.3381677120924 27.712529703974724 15.466657787561415 17.937619730830193 34.764403745532036 50.764369875192642 161.96563903987408 12.946253314614294 50.683130204677582 15.583736628293989 100.87808814644814 12.206964448094366 10.702354893088339 28.482168450951576 23.428130850195885 33.42095710337162 59.424914002418518
leaf_count=51 109 273 748 604 108 210 150 137 444 186 99 47 80 151 87 62 66 130 205 558 46 215 76 304 45 38 78 100 170 190
internal_value=0.0155056 -0.0136032 0.0408132 0.0333086 -0.00239446 0.00358312 0.00901254 0.017817 -0.0309776 -0.02002 -0.00950751 -0.025318 0.0423609 0.0310111 0.00113196 -0.0152435 0.00180959 0.00282952 -0.0155167 0.0105211 -0.020182 -0.00471686 -0.046418 0.0238925 -0.0310316 -0.0395047 0.0315786 -0.0203771 -0.0511222 0.0230361
internal_weight=1674.43 778.732 895.699 621.382 473.357 391.613 329.679 229.178 305.375 178.616 133.495 61.9341 392.205 176.216 103.586 61.1168 45.6501 279.209 82.4789 196.73 105.202 63.6294 126.759 147.216 81.7435 69.5366 125.592 39.0119 45.1213 97.1097
internal_count=5767 3151 2616 1868 1764 1408 1151 729 1387 767 546 257 1139 535 352 215 153 1001 313 688 447 261 620 455 356 311 377 176 221 299
is_linear=0
shrinkage=0.05


Tree=11
num_leaves=31
num_cat=0
split_feature=58 43 43 1 27 46 38 43 1 31 27 56 5 26 27 38 87 56 9 2 1 42 43 18 46 45 55 36 11 50
split_gain=447.645 59.866 40.6779 31.2538 26.4981 26.0315 22.5605 22.3949 21.4599 19.8885 20.7152 16.8793 16.3917 16.1569 16.0037 15.0504 14.7673 14.6527 14.2338 14.1885 13.6957 19.4361 13.4961 13.4032 12.8027 12.1718 12.3924 11.6415 10.812 10.5539
threshold=15.290744033068504 13.835000038146974 24.464999198913578 0.85271729502023474 0.21288863568111674 1.053238080079 22.821036338806156 15.015000343322756 0.95299394826915729 121.70499801635744 0.14867083730590022 0.13194444444444448 2.965969178929984 -0.68042397419975131 -0.080377707175556048 20.921761512756351 -0.090122138997198328 0.69494949494949509 -0.6594225027170274 12.16055352484832 0.96499653774060346 -0.32037836457791674 14.744999885559084 0.40277777777777785 -5.774086393852139 -4.9040719804238782 86.430000305175795 0.97405458678453249 15.452644742077181 -19.119580092498648
decision_type=2 2 2 2 2 2 2 2 2 2 2 2 2 2 2 2 2 2 2 2 2 2 2 2 2 2 2 2 2 2
left_child=1 9 7 19 5 11 15 -2 -9 10 12 23 20 -4 -14 -7 -10 -6 -12 22 -1 -22 -3 -5 -13 -15 -27 29 -28 -18
right_child=2 3 13 4 17 6 -8 8 16 -11 18 24 14 25 -16 -17 27 -19 -20 -21 21 -23 -24 -25 -26 26 28 -29 -30 -31
leaf_value=-0.044416389073575292 -0.028514102331092268 0.0045111641782772192 0.05899425570227871 0.067458555266303108 -0.035999165959889834 0.0068645071463509068 0.045789061901655798 -0.02757757643353892 0.08065000474588932 0.028715174285382606 -0.003881749737618196 -0.0045234681470439657 -0.036968526802421679 0.058146736937294823 0.030485450282221466 -0.022677787583490844 -0.0025047099504368607 0.027994175732487709 -0.061594636206932521 0.00956909765174601 0.015744541107415848 -0.035784061770512791 -0.050718434608963671 0.012290130648818379 0.031947789682158917 0.0050102412110563576 0.0097211881199299743 -0.002319302412685255 0.04695603821298186 0.03539294680674733
leaf_weight=86.869664713740349 16.714487448334694 13.89611931145191 233.61884181201458 33.47297714650631 53.373999923467636 84.137757554650307 21.727568417787552 15.264342114329336 15.520678043365477 13.791171178221701 12.491122871637343 48.758968353271484 13.90234339237213 66.372018784284592 23.926677942276001 88.417004719376564 19.475176319479942 10.746150165796278 73.825924158096313 18.844896852970123 30.268570393323898 46.28105828166008 54.221295744180679 16.405404150485992 47.50748273730278 32.308277472853661 24.173885881900787 24.664341270923615 100.75226226449013 323.95892921090126
leaf_count=417 64 58 634 93 231 300 67 56 40 45 56 171 62 181 89 343 65 38 388 71 117 215 251 55 153 103 76 82 284 962
internal_value=0.0148033 -0.0123926 0.0395078 -0.00163452 0.00421118 0.00976482 -0.00222693 0.0281861 0.030562 -0.0299389 -0.0327519 0.0257064 -0.0239631 0.0497988 0.0056958 -0.00827296 0.0328754 -0.0252743 -0.0532429 -0.0288286 -0.0308287 -0.0154091 -0.0394515 0.0493132 0.0134751 0.0401917 0.0326124 0.030861 0.0397509 0.0332439
internal_weight=1665.69 792.866 872.823 491.51 404.547 340.427 194.282 415.598 398.883 301.357 287.565 146.145 201.248 457.225 37.829 172.555 383.619 64.1202 86.317 86.9623 163.419 76.5496 68.1174 49.8784 96.2665 223.606 157.234 368.098 124.926 343.434
internal_count=5767 3220 2547 1831 1451 1182 710 1269 1205 1389 1344 472 900 1278 151 643 1149 269 444 380 749 332 309 148 324 644 463 1109 360 1027
is_linear=0
shrinkage=0.05


Tree=12
num_leaves=31
num_cat=0
split_feature=0 43 25 0 27 78 9 54 17 43 2 5 34 38 26 4 46 38 2 22 26 28 9 87 5 57 38 22 47 27
split_gain=405.911 55.2069 38.98 26.7402 24.0572 23.7656 19.3665 24.556 19.0902 21.8261 20.4983 22.1446 18.9568 18.4125 37.125 28.4456 17.4635 16.0787 15.8503 16.6199 21.7674 15.1941 14.5125 13.8413 13.532 12.1751 12.0176 13.7633 11.2247 10.3903
threshold=0.15290744033068507 13.835000038146974 -1.0264741790845127 0.21262980308245019 0.19319231802642964 1.4524588392866427 2.3557690558629778 0.73000001907348644 3.7927601304622267 11.284999847412111 8.1047392554350406 2.0765884487542912 0.28487330547055661 21.088943481445316 0.58011008728668989 9.226526403649661 -17.364686178379504 19.295839309692386 -1.4756333989345916 58.989166742128994 0.40967352920878214 6.315095820982525 -0.57438051158693593 0.0029229402193710068 -5.9044625979339669 3.9898490620386533 22.821036338806156 43.794305319997463 -3.1280557412829086 -0.0071711957520427796
decision_type=2 2 2 2 2 2 2 2 2 2 2 2 2 2 2 2 2 2 2 2 2 2 2 2 2 2 2 2 2 2
left_child=1 8 23 4 16 18 7 13 9 -1 11 12 -11 14 17 -16 -4 -3 19 20 -5 25 28 -2 -6 -18 27 -15 -10 -13
right_child=2 6 3 5 24 -7 -8 -9 22 10 -12 29 -14 26 15 -17 21 -19 -20 -21 -22 -23 -24 -25 -26 -27 -28 -29 -30 -31
leaf_value=-0.049067688668630031 0.058234921691446485 0.013961582463903997 -0.029974071451946655 0.039298648150492742 0.042246633713346526 -0.0099730012886053657 0.029664509110646605 0.025112474342482934 0.022677351268390867 -0.056191914805922054 0.029510234732791265 -0.0074194863287576048 -0.0051144549308336229 -0.05328385702593115 -0.030633913861143516 0.029811016776261159 0.05528819426232312 0.065457101283031824 0.064702282796585103 0.075711739469835074 -0.016808468890584356 -0.006926856998195949 -0.052468168827122186 0.027370239000648749 -0.0052225875448566449 0.028967263436670124 0.013140608904525683 -0.017351702920249661 -0.047094977522681492 0.052224226746866026
leaf_weight=43.379172056913376 229.61279183626175 42.965995937585831 11.267810955643652 113.17736478149891 17.853413045406342 19.873412996530533 45.079963400959969 59.693238154053688 12.860240504145624 40.490069657564163 28.323289901018143 17.30763873457909 32.946750298142433 32.109552055597305 78.682118132710457 25.861728921532631 67.953189164400101 23.421373069286346 82.360516101121902 24.263854324817657 20.40300740301609 20.585805878043175 98.574663683772087 43.150056317448616 94.380138516426086 124.3033467233181 25.447892561554909 156.73322242498398 10.446956828236578 12.630715027451513
leaf_count=221 626 152 40 326 53 66 139 201 52 196 99 72 136 144 317 85 190 70 222 63 68 67 520 128 324 374 89 634 50 43
internal_value=0.0141413 -0.0118733 0.0376949 0.0305342 0.0212245 0.0425739 -0.00156368 -0.0047278 -0.0288847 -0.0183073 -0.00817532 -0.0185006 -0.0332765 -0.0093518 0.00288766 -0.0156812 0.0306876 0.0321291 0.0469214 0.0376436 0.0307289 0.033899 -0.0440787 0.0533522 0.00232852 0.0382704 -0.0191147 -0.0234614 -0.00859662 0.0177436
internal_weight=1656.14 786.955 869.185 596.422 336.344 260.078 489.995 444.915 296.959 175.078 131.698 103.375 73.4368 385.222 170.931 104.544 224.11 66.3874 240.205 157.844 133.58 212.842 121.882 272.763 112.234 192.257 214.291 188.843 23.3072 29.9384
internal_count=5767 3220 2547 1793 1048 745 1831 1692 1389 767 546 447 332 1491 624 402 671 222 679 457 394 631 622 754 377 564 867 778 102 115
is_linear=0
shrinkage=0.05


Tree=13
num_leaves=31
num_cat=0
split_feature=43 2 43 1 89 31 26 26 27 54 45 31 31 27 87 44 5 41 18 27 9 2 28 27 12 11 6 31 2 26
split_gain=351.657 57.2153 43.7954 31.392 29.5519 25.1859 28.0423 24.0411 23.0055 22.4257 20.2333 20.054 19.9157 20.5764 18.8354 18.5141 16.4081 23.4786 15.4818 15.123 14.6664 14.5679 14.1302 13.6074 21.4674 14.0526 11.5427 11.4275 10.5014 8.75505
threshold=18.185000419616703 1.9236990949340635 13.574999809265138 0.90035391054578195 0.6632457580733444 81.272998809814467 0.68480794373301701 -0.63476113007161483 0.10508244975063524 0.86499929428100597 -7.272725361325409 89.825000762939467 121.70499801635744 0.14867083730590022 0.0071484310286260575 0.019414305806710875 2.965969178929984 59.4088970718417 0.15919701213818863 -0.039401979645473977 0.2682412659405054 4.5375319649788652 0.51593489071978149 0.09231824326816486 18.686819534654564 26.824781465643021 6.8810952880996821 119.46250152587892 9.3218688196072197 0.33234900933488681
decision_type=2 2 2 2 2 2 2 2 2 2 2 2 2 2 2 2 2 2 2 2 2 2 2 2 2 2 2 2 2 2
left_child=2 7 12 -3 5 6 -4 -2 9 15 -9 20 13 16 23 -7 17 28 -19 -18 21 -5 -12 24 -13 -25 29 -10 -1 -24
right_child=1 3 4 11 -6 8 -8 10 27 -11 22 14 -14 -15 -16 -17 19 18 -20 -21 -22 -23 26 25 -26 -27 -28 -29 -30 -31
leaf_value=-0.045443867441113471 0.051663528664349784 -0.042767867043749616 0.067875041098903383 -0.029095500039547598 0.047524233546780106 0.040020481982188424 -0.018609937495792504 0.057505930987453838 -0.032779673111652877 0.0431901573200126 0.068209552884232499 0.014602022406431749 0.035054803758467104 -0.053245845420417028 -0.0020487124297428171 -0.011891677146761655 -0.031332258507601921 0.039868910840014635 -0.028415967400727798 0.036139061486365157 -0.040074336292819118 0.033791762063075166 0.035290683256543859 -0.00099870577892039944 0.057613213861950147 0.049174044022178121 -0.0081704605341769328 0.019370638515235579 0.004573715038942318 0.014313357496959909
leaf_weight=105.01668882369995 318.19490168988705 21.171770602464676 22.32537217438221 14.106663197278975 26.687300369143486 18.956502288579941 16.155333131551743 62.807377859950066 115.67178563773632 25.000235542654991 18.17486660182476 44.031185060739517 11.59713865816593 78.989471539855003 45.934602171182632 182.78930935263634 14.087674528360365 17.33674880862236 15.925824388861654 20.232416033744812 20.314298421144485 26.524310529232025 118.67783404886723 44.227508053183556 85.041108548641205 20.39006233215332 27.204831689596176 11.553744435310362 11.659032285213469 85.625950112938881
leaf_count=530 888 89 64 52 81 64 64 173 492 78 49 142 37 423 156 709 63 57 75 73 78 83 352 148 241 60 89 39 49 269
internal_value=0.0135113 0.0332364 -0.0135595 0.0160785 -0.00338827 -0.00685039 0.0315661 0.0419894 -0.0110267 -0.00147857 0.0321387 0.0202236 -0.0290707 -0.0318957 0.0267369 -0.00701389 -0.0227431 -0.0298816 0.00717472 0.00844351 -0.00538548 0.0119579 0.0257576 0.0335636 0.0429406 0.0148333 0.0224248 -0.0280437 -0.0404458 0.0264989
internal_weight=1646.41 952.427 693.985 321.742 419.14 392.452 38.4807 630.686 353.972 226.746 312.491 300.57 274.845 263.248 239.624 201.746 184.258 149.938 33.2626 34.3201 60.9453 40.631 249.683 193.69 129.072 64.6176 231.509 127.226 116.676 204.304
internal_count=5767 2869 2898 1049 1591 1510 128 1820 1382 851 932 960 1307 1270 747 773 847 711 132 136 213 135 759 591 383 208 710 531 579 621
is_linear=0
shrinkage=0.05


Tree=14
num_leaves=31
num_cat=0
split_feature=0 0 0 26 31 6 4 12 22 89 41 41 18 32 25 26 21 25 33 54 36 2 47 36 38 52 28 3 47 32
split_gain=337.746 39.6158 34.4029 33.3818 26.5385 24.2282 25.7518 24.1736 28.0711 29.392 21.7019 21.1079 29.295 19.8652 19.0367 17.4404 16.1563 20.051 16.1011 14.9312 13.7137 13.6967 13.4031 12.9096 12.0622 11.9898 11.1274 11.0884 10.996 10.8123
threshold=0.1535620862316682 0.088124788133075768 0.26257596686149604 3.4165572192764544 107.66350173950197 2.5666738248829875 8.7857008266729846 26.98571216549427 44.42860468484438 0.54563492063492081 51.415202001335985 59.4088970718417 0.26289682539682546 0.69848540546695326 0.19087582539579986 2.3464595878702315 0.30834617377801865 -0.030677748120552902 -0.90043554223915845 -0.2300002574920654 0.82522833803746021 2.3719698978607 9.8080966534934948 0.46708205026900657 21.251864433288578 1.0599999427795412 0.78762573143721282 3.6347492577333553 0.44228385955291666 -0.14219270630986267
decision_type=2 2 2 2 2 2 2 2 2 2 2 2 2 2 2 2 2 2 2 2 2 2 2 2 2 2 2 2 2 2
left_child=1 3 4 11 10 6 7 8 -3 -10 -2 23 25 16 20 26 29 21 -9 -8 -6 -18 -12 -1 -25 -13 27 -16 -15 -7
right_child=2 5 -4 -5 14 13 19 18 9 -11 22 12 -14 28 15 -17 17 -19 -20 -21 -22 -23 -24 24 -26 -27 -28 -29 -30 -31
leaf_value=-0.05573349415913257 0.025998288392101616 -0.041414347794757417 0.049625177182806013 0.049450897226671224 0.047976783754680043 0.022324776410835787 0.043587861447386717 0.011552123903374921 -0.0026799270362615471 0.064451604139446936 -0.020089050378465863 0.051600504913445026 -0.050153144481256046 0.0087860481831599623 0.0059783026944063011 0.060453687315149475 0.0075181656392409035 -0.022901219573017103 -0.038879099368332733 -0.010616342183674968 0.0095245441689095489 0.070169261471596217 0.025074144014302725 -0.016893972306012191 -0.057494851664686333 -0.009433184359105045 -0.0019911879673015736 0.060901092720296902 -0.052378541657899173 0.075681189094169377
leaf_weight=79.365677878260612 139.03643809258938 42.226948827505112 265.21703095734119 13.207938849925993 223.31437774002552 17.284250304102898 33.431005090475082 18.513493105769157 173.86069138348103 17.992156505584717 55.844532385468483 18.276594698429108 21.768209010362625 15.307985708117487 18.889178544282913 21.635858669877052 20.041791290044785 26.167698547244072 109.06460781395435 20.492782086133957 25.873996913433075 15.447494357824324 23.274191811680794 65.931012526154518 25.318478956818581 14.375896587967871 62.210859030485153 17.89671765267849 14.131400436162947 21.068380802869797
leaf_count=406 426 177 748 44 628 58 105 74 678 55 197 59 112 58 62 59 71 111 504 81 81 47 70 291 135 57 204 49 59 61
internal_value=0.0129115 -0.0107956 0.0346758 -0.0278033 0.0279326 -0.00336117 -0.00924475 -0.0140508 -0.00450749 0.00361574 0.014102 -0.0323376 -0.00522362 0.0155274 0.0360912 0.0197869 0.0261544 0.0103045 -0.0315608 0.0229885 0.0439842 0.0347884 -0.00680349 -0.0409861 -0.0281593 0.0247292 0.0108992 0.0326988 -0.020574 0.0516352
internal_weight=1636.47 783.274 853.193 238.244 587.976 545.031 415.582 361.658 234.08 191.853 218.155 225.036 54.4207 129.449 369.821 120.633 100.01 61.657 127.578 53.9238 249.188 35.4893 79.1187 170.615 91.2495 32.6525 98.9968 36.7859 29.4394 38.3526
internal_count=5767 3243 2524 1104 1776 2139 1674 1488 910 733 693 1060 228 465 1083 374 348 229 578 186 709 118 267 832 426 116 315 111 117 119
is_linear=0
shrinkage=0.05


Tree=15
num_leaves=31
num_cat=0
split_feature=0 43 43 1 27 9 5 36 13 27 47 31 59 46 2 6 45 47 82 47 42 12 9 56 33 2 59 9 43 59
split_gain=307.205 40.6304 35.5967 25.9028 22.3034 22.4707 18.8507 18.7248 22.0568 17.62 17.4519 16.4581 15.9964 15.2788 21.8549 14.5881 14.3064 19.5392 14.0262 13.6342 13.6276 13.4567 13.8863 12.9269 12.3854 12.2712 17.53 12.0207 11.8694 13.5109
threshold=0.15046307263581818 13.454999923706056 25.345000267028812 0.84077420079507614 0.21288863568111674 1.3916220115914093 2.965969178929984 0.93957703679524807 21.125680172411172 -0.22183650398872121 1.4271963234414933 121.70499801635744 6.1722949733233436 1.053238080079 3.9867881476724718 5.6058845610703969 -2.1724028389365819 12.410282926033746 1.3804199047704488 0.8943869912690362 0.18927628005499522 19.156310224396943 0.89891070163251607 0.47690120824449184 0.67674079369078888 11.022484958503222 7.1614521308711225 -0.85461725110477216 15.555000305175783 1.2707215463705366
decision_type=2 2 2 2 2 2 2 2 2 2 2 2 2 2 2 2 2 2 2 2 2 2 2 2 2 2 2 2 2 2
left_child=1 6 7 25 5 13 11 9 -9 21 -6 12 27 23 -15 28 18 24 -4 -14 -8 22 -2 -5 -18 -3 -27 -1 -11 -30
right_child=2 3 16 4 10 -7 20 8 -10 15 -12 -13 19 14 -16 -17 17 -19 -20 -21 -22 -23 -24 -25 -26 26 -28 -29 29 -31
leaf_value=-0.0034589885324969624 0.046775549752288544 -0.042616751862565215 0.060164013203777983 0.028085505419282054 -0.037171573330437177 0.038085782258568929 -0.027177827321780246 0.024939236568751494 -0.056462233403217488 -0.021485729707207572 0.025908076964274242 0.0292556898314223 0.03732996484105585 -0.034491532428267212 0.0042730716484999437 0.047837898359477916 0.01254831329514074 0.051448169995170795 0.013376145166841248 -0.039384325807753348 0.031475902452170211 0.067116126895601508 -0.00034624401667832918 -0.0048333582862486908 0.046049993505621695 0.030734082618190786 -0.043596414495475994 -0.046101349622051001 0.030365343623347196 0.0081230829913598052
leaf_weight=18.436126261949539 44.638688787817955 53.431321054697037 143.55478830635548 77.052334502339363 53.104471743106842 50.847413882613182 18.604681774973869 17.927689015865326 15.531248971819876 19.372228875756264 13.817998662590979 9.9621888697147352 12.69589512050152 52.447128310799599 118.5345912873745 42.024083212018013 91.190671697258949 107.64428146183491 18.029957711696625 10.650661140680311 21.17320790886879 38.764184430241585 24.062182575464249 48.653723329305649 39.55415216088295 17.252532452344898 14.682612806558607 159.57254894077778 133.80204087495804 139.41596108675003
leaf_count=85 127 262 395 254 248 151 86 56 59 73 48 32 52 217 431 119 284 303 56 53 79 104 77 174 113 61 68 850 402 448
internal_value=0.0123396 -0.0111243 0.0324644 -0.00288088 0.00228492 0.00737474 -0.0275336 0.0232181 -0.0128464 0.0259476 -0.024147 -0.0334774 -0.0365812 0.00211137 -0.00761763 0.0202907 0.0434575 0.0356722 0.0549433 0.00233303 0.00404272 0.0435618 0.0302713 0.0153445 0.0226836 -0.0279611 -0.00344036 -0.0416849 0.0163341 0.0190157
internal_weight=1626.43 750.919 875.512 499.824 414.458 347.535 251.095 475.538 33.4589 442.079 66.9225 211.317 201.355 296.688 170.982 334.614 399.974 238.389 161.585 23.3466 39.7779 107.465 68.7009 125.706 130.745 85.3665 31.9351 178.009 292.59 273.218
internal_count=5767 3151 2616 1914 1523 1227 1237 1465 115 1350 296 1072 1040 1076 648 1042 1151 700 451 105 165 308 204 428 397 391 129 935 923 850
is_linear=0
shrinkage=0.05


Tree=16
num_leaves=31
num_cat=0
split_feature=43 2 43 1 89 31 27 54 18 25 45 31 87 5 43 16 31 5 1 46 34 1 9 33 34 27 4 2 18 43
split_gain=266.71 46.2693 34.8102 25.8169 24.6109 22.0851 20.0671 19.1814 18.6914 17.8369 18.0096 17.3215 16.75 16.067 15.5123 14.8811 14.5582 16.9802 14.4551 13.5139 14.7736 13.4394 13.1018 13.0596 19.7864 12.4769 12.46 12.3896 11.8352 11.0536
threshold=18.185000419616703 1.9236990949340635 13.574999809265138 0.90035391054578195 0.6632457580733444 81.272998809814467 0.10508244975063524 0.88500022888183605 0.22420634920634921 -1.0264741790845127 6.0564815472436759 89.825000762939467 0.0071484310286260575 -6.3763067081245675 11.284999847412111 1.0000000180025095e-35 119.74499893188478 4.8732523926643525 1.4935193717464308 -1.3384676694632611 -0.046657907098784916 1.7535478262036737 0.2682412659405054 0.14445233611538602 0.2125594151776711 0.087987920772393272 2.3814615824380163 4.5375319649788652 0.74007936507936523 28.190000534057621
decision_type=2 2 2 2 2 2 2 2 2 2 2 2 2 2 2 2 2 2 2 2 2 2 2 2 2 2 2 2 2 2
left_child=2 9 8 -3 5 15 7 13 14 -2 23 22 25 -7 -1 -4 17 21 -12 20 -16 -10 27 -11 -25 26 -13 -5 -20 -26
right_child=1 3 4 11 -6 6 -8 -9 16 10 18 12 -14 -15 19 -17 -18 -19 28 -21 -22 -23 -24 24 29 -27 -28 -29 -30 -31
leaf_value=-0.054955818393937816 0.047739471872799727 -0.040425505307071528 -0.0077522914311305233 -0.028119494419950694 0.043383143099821879 0.044883688583917697 -0.026316216297708458 0.041327052816157721 -0.050528950739398892 0.046418114095488933 -0.010067987713265015 0.014574283060272378 -0.0037180806905422041 -0.010193017628516415 -0.023155695353296681 0.055617870660798423 0.0065023966692649236 0.019647338497662727 0.048478763194969791 -0.023942498404605366 0.037068034733918856 0.0078650791197801186 -0.039361964927610377 -0.0056376034579214852 0.025708044416058923 0.01210268703080329 0.048999886693602564 0.02991087998629224 -0.0019930954460298271 0.062742021097005357
leaf_weight=15.214994594454764 239.67517113685608 20.651975780725479 15.650223881006239 14.037485480308531 26.685638725757599 14.249342158436773 124.50511889159679 23.621155053377151 128.7676177918911 153.71671237051487 43.015199139714241 37.03867207467556 45.825476303696632 187.22441205382347 15.052936270833014 22.703334823250771 17.713754817843437 10.577991634607313 30.966366529464722 33.834080994129181 31.478819891810417 10.669753566384314 20.185566291213036 37.701917693018913 64.707943618297577 65.097536280751228 90.522928178310394 26.678536966443062 18.586446762084961 29.259030371904373
leaf_count=85 688 89 60 52 81 47 531 73 727 439 145 120 156 731 68 68 70 43 89 154 112 48 78 123 196 210 261 83 60 80
internal_value=0.0118 0.029074 -0.0120917 0.0136444 -0.00306299 -0.00625782 -0.0102092 -0.00130001 -0.0263093 0.0370692 0.0303028 0.0173742 0.0234518 -0.00629769 -0.00866207 0.0297596 -0.0363656 -0.0414274 0.0111387 0.000102336 0.0175858 -0.0460606 -0.00642499 0.0365189 0.0249621 0.0299144 0.0390041 0.009904 0.0295476 0.0372395
internal_weight=1615.62 937.667 677.949 320.038 414.639 387.954 349.6 225.095 263.31 617.629 377.954 299.386 238.485 201.474 95.5808 38.3536 167.729 150.015 92.568 80.3658 46.5318 139.437 60.9016 285.386 131.669 192.659 127.562 40.716 49.5528 93.967
internal_count=5767 2869 2898 1049 1591 1510 1382 851 1307 1820 1132 960 747 778 419 128 888 818 294 334 180 775 213 838 399 591 381 135 149 276
is_linear=0
shrinkage=0.05


Tree=17
num_leaves=31
num_cat=0
split_feature=0 43 0 31 41 1 27 87 27 43 27 9 46 38 27 57 36 85 26 36 38 22 2 11 32 28 31 2 40 28
split_gain=256.387 37.1996 29.4857 23.4275 23.3019 21.7149 19.3875 16.7278 16.6413 16.4103 16.2138 16.8751 16.1019 19.5586 14.8528 14.0541 14.0125 14.5524 13.7561 14.0308 13.6306 13.2632 13.2603 19.8357 11.9579 11.932 18.055 11.6472 11.471 11.1204
threshold=0.1535620862316682 13.835000038146974 0.26257596686149604 107.81150054931642 51.415202001335985 0.84753319324176146 -0.22183650398872121 -0.033734379650147577 0.30297763343009126 11.00500011444092 0.18228692514349665 -0.57438051158693593 1.053238080079 22.821036338806156 0.34679434457683239 3.556291609428031 0.38077742086329464 0.83945668590337019 0.3244095004251209 0.87217317065833377 20.896038055419925 50.898805987713814 11.022484958503222 29.709038756068519 0.60558231316947275 0.63614210276414862 102.53499984741212 8.035398468141894 1.3333345653369191 5.6283200103452495
decision_type=2 2 2 2 2 2 2 2 2 2 2 2 2 2 2 2 2 2 2 2 2 2 2 2 2 2 2 2 2 2
left_child=1 9 3 4 14 22 29 -5 12 -1 25 -12 16 20 -2 -10 17 -7 19 28 -14 -8 -3 -24 -18 26 -11 -28 -9 -6
right_child=2 5 -4 7 6 8 21 18 15 10 11 -13 13 -15 -16 -17 24 -19 -20 -21 -22 -23 23 -25 -26 -27 27 -29 -30 -31
leaf_value=-0.053829521594906352 0.032352898463102117 -0.042704459212573563 0.044524796073724969 0.062075651919041332 0.044726205209005873 -0.028703835731597321 -0.070890737134634715 0.042239339612589452 -0.045267550221718536 -0.03861304066580476 0.0055656835418853518 -0.057823078160165436 0.0057700617571917042 0.039991483827494088 -0.0063691035504471047 0.015594962782592137 0.037438453387332545 0.026237349951277418 0.012125617951610282 -0.00920719547628027 -0.0219875576188206 -0.01317065419575543 0.030484653449262877 -0.048234148947691131 0.0021480562114645891 -0.024451569914954511 0.0023654284245671511 0.051263246721848232 -0.00034326800954580808 -0.012131937776644272
leaf_weight=40.120220482349396 111.57187210023403 45.966287866234779 256.66977691650391 41.348517954349518 18.890727430582047 27.182081028819084 14.147522017359732 186.83486950397491 29.789649397134781 21.359113559126854 13.863679692149161 43.265406310558319 86.010450541973114 23.558300629258156 31.829687744379044 13.916119486093519 85.089187443256378 21.653784886002541 93.107699021697044 16.569178342819214 91.04170323908329 33.565210238099098 19.847276613116264 13.409399166703222 33.436574205756187 91.738640412688255 50.064066082239151 16.092756778001785 17.277733311057091 15.785593032836912
leaf_count=238 333 232 748 113 54 102 54 539 145 101 62 262 307 72 108 52 265 71 292 55 358 120 73 62 115 436 234 56 56 52
internal_value=0.0112832 -0.00959463 0.0304114 0.0241757 0.011583 -0.00133271 -0.00960811 0.0321819 0.00328045 -0.0242627 -0.0192445 -0.0424403 0.006745 -0.00280827 0.0237581 -0.0258886 0.0181962 -0.00434296 0.0282428 0.0350427 -0.00850314 -0.0302855 -0.0253048 -0.0012555 0.0274829 -0.0118519 0.00135575 0.0142599 0.0386348 0.0188429
internal_weight=1605 767.405 837.598 580.929 225.791 490.901 82.3891 355.138 411.678 276.504 236.384 57.1291 367.972 200.61 143.402 43.7058 167.362 48.8359 313.789 220.682 177.052 47.7127 79.223 33.2567 118.526 179.255 87.5159 66.1568 204.113 34.6763
internal_count=5767 3243 2524 1776 721 1854 280 1055 1487 1389 1151 324 1290 737 441 197 553 173 942 650 665 174 367 135 380 827 391 290 595 106
is_linear=0
shrinkage=0.05


Tree=18
num_leaves=31
num_cat=0
split_feature=58 43 44 45 43 38 1 17 5 41 17 82 27 4 18 46 56 89 78 47 44 43 39 31 4 82 1 56 54 6
split_gain=233.287 31.7099 30.8591 23.7737 22.3366 21.8645 20.5133 19.1037 18.0032 25.1734 17.9632 17.8392 17.5912 17.5574 15.9553 15.9345 16.8835 16.3118 16.4039 15.7399 14.9691 14.2304 12.7629 12.0623 13.9103 11.7444 10.7156 10.548 10.2629 9.98495
threshold=15.046307263581816 13.454999923706056 0.68700396825396837 1.8982000420934899 20.585000038146976 20.655939102172855 0.84077420079507614 3.7719172300624666 2.0765884487542912 47.782708313808754 5.7846510670671298 1.2483392663311552 0.21288863568111674 3.5376379578468846 0.15919701213818863 1.053238080079 0.47690120824449184 0.54563492063492081 1.5589097241214878 1.4271963234414933 0.59424603174603186 15.300000190734865 -0.043524584826926109 111.064998626709 8.9073479829436604 0.94058683155823564 1.0161193097990726 0.97718253968253976 -1.5500001907348631 2.7943962158948734
decision_type=2 2 2 2 2 2 2 2 2 2 2 2 2 2 2 2 2 2 2 2 2 2 2 2 2 2 2 2 2 2
left_child=1 7 3 11 22 -5 23 8 9 -1 -7 21 15 -10 -11 16 20 18 -17 -14 -8 -2 -4 24 -3 -18 -23 28 -6 -12
right_child=2 6 4 5 27 10 12 -9 13 14 29 -13 19 -15 -16 17 25 -19 -20 -21 -22 26 -24 -25 -26 -27 -28 -29 -30 -31
leaf_value=-0.044870038684850198 -0.020606781003660108 -0.043603730621992742 -0.024885738334005855 -0.035796018887483627 0.0056811667647809448 0.051031713316914723 0.038211975191342853 -0.042582235476542933 0.044509545413766415 0.03500677087663371 0.014035045647449404 -0.019364101416583967 -0.034713333952036393 -0.021995125222941687 -0.024506581209265837 -0.00539751490139151 0.0092513641950634426 0.028686887410589924 -0.0686650304398191 0.025432743809920746 -0.016838581653926443 0.0047108411341801231 0.024837881283246037 0.017826701413329381 0.017838377608680549 -0.045230244756191987 0.035257927755295779 0.069243961134573123 0.041761657320060902 -0.029918757625762401
leaf_weight=62.384279370307922 13.709205493330954 58.073319748044014 18.723118856549263 32.280174225568771 20.967661932110786 22.320027217268944 86.600792154669762 92.668369725346565 22.313565328717232 21.728163927793503 35.2872554063797 20.337903246283531 51.260030373930931 17.873780593276024 23.380555123090744 149.87536598742008 38.505744233727455 33.3770542293787 10.99705623090267 13.807445600628851 14.402032807469366 32.613252952694893 41.530527681112289 13.496433809399603 10.948527321219442 13.311139941215513 239.80543878674507 32.818236067891121 328.33357557654381 20.3852419257164
leaf_count=345 54 297 65 117 67 63 268 538 81 75 110 69 248 82 116 563 131 110 49 48 53 107 127 54 40 53 712 90 965 70
internal_value=0.0107912 -0.00988815 0.0284831 0.0187197 0.0376807 -0.00118901 -0.00264892 -0.024787 -0.0136206 -0.0242949 0.0131344 0.0258833 0.00190717 0.0149308 0.00416007 0.00637988 0.0184586 -0.00312271 -0.00972241 -0.0219502 0.0303623 0.0290995 0.00938685 -0.0254042 -0.0338575 -0.00474431 0.0316009 0.0421422 0.0395958 -0.00205924
internal_weight=1594.12 735.004 859.112 416.738 442.373 110.273 494.655 240.349 147.68 107.493 77.9925 306.466 412.137 40.1873 45.1087 347.069 152.82 194.249 160.872 65.0675 101.003 286.128 60.2536 82.5183 69.0218 51.8169 272.419 382.119 349.301 55.6725
internal_count=5767 3151 2616 1302 1314 360 1914 1237 699 536 243 942 1523 163 191 1227 505 722 612 296 321 873 192 391 337 184 819 1122 1032 180
is_linear=0
shrinkage=0.05


Tree=19
num_leaves=31
num_cat=0
split_feature=0 0 25 27 26 30 17 40 13 59 1 50 82 89 0 78 27 1 2 59 2 27 59 82 44 2 22 38 55 56
split_gain=212.146 30.6386 28.544 28.3898 27.5749 20.5099 19.7688 25.1498 32.2942 19.8016 18.536 17.0428 23.6349 19.5906 16.2662 23.8002 22.8201 16.0116 15.8698 14.9085 14.8504 13.6111 12.9991 12.8144 12.6559 11.7053 11.6594 11.3718 11.2335 16.9581
threshold=0.1535620862316682 0.088124788133075768 -1.0613152562472477 0.18228692514349665 3.4165572192764544 1.0000000180025095e-35 3.821602634979131 0.11319024975532389 13.858429839245831 5.966965919159601 0.85271729502023474 7.9841300461806819 0.84441456028936723 0.49702380952380959 0.21262980308245019 1.4524588392866427 0.19319231802642964 1.2046542579564872 9.2462408364556925 2.0590467129106274 -1.4756333989345916 -0.048341855690121553 7.1614521308711225 1.896199970474362 0.38918128654970768 11.691204510738368 58.989166742128994 20.227191925048832 108.15000152587892 0.17956349206349209
decision_type=2 2 2 2 2 2 2 2 2 2 2 2 2 2 2 2 2 2 2 2 2 2 2 2 2 2 2 2 2 2
left_child=1 4 23 10 6 14 7 8 -1 -9 21 12 19 -14 16 20 -4 -13 -10 -12 26 -3 -23 -2 -22 -5 -16 -19 29 -18
right_child=2 3 5 25 -6 -7 -8 9 18 -11 11 17 13 -15 15 -17 28 27 -20 -21 24 22 -24 -25 -26 -27 -28 -29 -30 -31
leaf_value=0.041386274633339076 0.04754611243534837 -0.042492809118422958 0.021810974964337568 -0.032420292045245047 0.045513964606474444 0.070915344499428323 -0.050162909472709898 -0.023055838682987904 -0.055586906599910696 0.039309778427198488 -0.0059886110602006869 -0.033085661167386315 -0.03944484305860349 0.037127333191691522 0.019995100148821027 -0.023085957616477873 0.012275717370571294 0.037197048107342215 0.0072692300905221434 0.030993476162219293 0.017848028612446349 0.0083386857931524155 -0.05335708195676292 0.01811543791311827 0.06476187352258464 0.0089529270544807717 0.062930127972520483 -0.0078519979506421235 0.030704944088713916 -0.032787490205718681
leaf_weight=12.300928130745886 200.48200803995132 31.918860584497452 215.14146649837494 90.904119685292244 13.310118392109869 20.496259421110153 71.09784023463726 23.899166613817215 64.969874486327171 27.228284552693367 33.15032759308815 38.716394260525703 29.219157233834267 11.696903944015501 129.88027608394623 19.587674185633659 35.646382167935371 21.585742831230164 11.877745300531386 153.14725567400455 19.424311578273773 50.255546778440475 10.285005316138266 45.352824345231056 55.310214668512344 21.055333480238914 18.004150107502937 39.908244341611862 16.691007450222969 50.388733312487602
leaf_count=52 589 162 655 460 44 55 395 109 361 95 132 156 124 38 402 67 114 70 48 495 60 218 51 142 152 85 50 148 50 188
internal_value=0.0103229 -0.00880826 0.0278363 -0.00226812 -0.0242892 0.0217895 -0.0286847 -0.0177986 -0.0338317 0.0101574 0.00369709 0.00927965 0.0168554 -0.0175547 0.0199917 0.0297533 0.0125537 -0.0078973 -0.0458717 0.0244128 0.0344025 -0.0160723 -0.00214257 0.0421166 0.0525685 -0.0246396 0.0252222 0.00796121 -0.00683408 -0.0141167
internal_weight=1582.93 756.527 826.405 531.843 224.684 580.57 211.374 140.276 89.1485 51.1275 419.883 327.424 227.214 40.9161 560.074 242.207 317.868 100.21 76.8476 186.298 222.619 92.4594 60.5406 245.835 74.7345 111.959 147.884 61.494 102.726 86.0351
internal_count=5767 3243 2524 2139 1104 1793 1060 665 461 204 1594 1163 789 162 1738 731 1007 374 409 627 664 431 269 731 212 545 452 218 352 302
is_linear=0
shrinkage=0.05


Tree=20
num_leaves=31
num_cat=0
split_feature=0 43 44 3 27 45 43 31 0 50 34 17 38 82 31 27 17 25 43 39 1 18 59 38 56 82 45 31 47 85
split_gain=193.419 28.6612 27.7961 22.193 27.4821 21.4253 19.8946 19.4807 19.2742 23.4803 17.9893 17.833 20.6582 16.193 16.1534 15.6194 13.7368 12.4169 12.0628 11.5943 11.1393 11.0467 10.1159 11.7188 9.9769 9.42461 12.5058 11.3515 8.58379 7.50492
threshold=0.15046307263581818 11.00500011444092 0.68700396825396837 6.4270579517290178 0.11285254051820394 1.8982000420934899 20.585000038146976 104.78450012207033 0.11018466891648122 11.342223940329667 -1.6310873605769713 3.7927601304622267 22.854583740234379 1.2483392663311552 119.74499893188478 -0.11354276691756118 5.8150279206905475 1.2325453927389705 15.300000190734865 -0.043524584826926109 1.2406117794434774 0.37447786131996663 -1.1120548414540978 22.610323905944828 0.97718253968253976 1.8287002027652413 15.016939852954392 113.14500045776369 2.0740537287337828 0.90016579787605588
decision_type=2 2 2 2 2 2 2 2 2 2 2 2 2 2 2 2 2 2 2 2 2 2 2 2 2 2 2 2 2 2
left_child=1 -1 5 4 8 13 19 -7 11 17 -6 12 -3 18 21 -13 -9 -10 -2 -4 -11 -12 -20 -24 25 26 -8 -27 -18 -21
right_child=2 3 6 -5 10 7 24 16 9 20 14 15 -14 -15 -16 -17 28 -19 22 29 -22 -23 23 -25 -26 27 -28 -29 -30 -31
leaf_value=-0.051736465215861976 -0.019243425512618928 -0.0054386871971770293 -0.024509960752835798 0.059221557108489635 0.024714906561929637 -0.033008301728198797 0.043993667871532083 0.043464268599110865 0.024680948552461515 -0.050198320652556111 -0.014118911577882282 -0.00099543813180762728 0.057322082364119988 -0.019485374918609459 0.029106113641889482 -0.040304426785700363 -0.022692984728237747 -0.020742277598508455 0.048293966495330735 0.0046797018246021588 0.00021491353622553013 -0.044139671564054295 0.020567579327255048 0.061698962986951301 0.066057788133765991 -0.016859235730541471 0.012912521635185465 0.034160717627801922 0.018335299921425834 0.047813579706882443
leaf_weight=37.378646850585938 13.575872942805288 184.12190590798855 18.659439444541931 12.505363151431082 16.258673951029778 34.828465536236763 257.20579591393471 23.970780044794083 133.9552875161171 19.398123100399971 44.173054188489914 39.557366266846657 14.116920977830885 20.295213580131531 10.564912319183348 69.971521258354187 25.808978796005249 16.948729887604713 54.544538930058479 23.765631005167961 25.182263776659966 100.04081939160824 196.58873857557774 18.989993423223495 31.710239171981812 16.863729789853096 37.022137627005577 30.83976674079895 25.191697299480438 17.51752944290638
leaf_count=238 54 779 65 37 66 126 764 69 463 86 194 156 44 69 39 339 88 65 157 77 90 555 610 52 90 57 118 93 77 50
internal_value=0.00987619 -0.0090984 0.026092 -0.00677784 -0.00800186 0.0168222 0.0349386 -0.00210876 -0.00211715 0.0101606 -0.0253167 -0.00991562 -0.000969387 0.0236599 -0.0305723 -0.0261076 0.0122458 0.0195793 0.0267464 0.00819867 -0.0217212 -0.0349442 0.0290578 0.0241908 0.0392284 0.0367403 0.0400828 0.0161246 -0.00242713 0.0229825
internal_weight=1571.55 724.174 847.379 686.795 674.29 413.794 433.584 109.8 503.252 195.484 171.037 307.768 198.239 303.994 154.779 109.529 74.9715 150.904 283.699 59.9426 44.5804 144.214 270.123 215.579 373.642 341.931 294.228 47.7035 51.0007 41.2832
internal_count=5767 3151 2616 2913 2876 1302 1314 360 2022 704 854 1318 823 942 788 495 234 528 873 192 176 749 819 662 1122 1032 882 150 165 127
is_linear=0
shrinkage=0.05


Tree=21
num_leaves=31
num_cat=0
split_feature=0 43 21 3 27 0 31 46 44 78 34 1 17 1 30 27 36 0 34 36 1 26 36 43 82 45 45 47 9 55
split_gain=176.012 26.9819 26.4657 20.0216 25.2771 18.5563 16.5599 16.1755 16.3124 15.8514 15.3547 14.4222 17.832 13.0404 15.5929 17.2395 25.2802 19.6711 16.365 15.0243 13.3542 10.9876 10.5873 7.44647 10.6826 8.76292 8.68014 14.7981 6.40737 4.89337
threshold=0.15046307263581818 11.00500011444092 0.65782023183349936 6.4270579517290178 0.11285254051820394 0.088124788133075768 119.74499893188478 15.479193679187176 0.62202380952380965 1.303287989563539 -1.6310873605769713 1.6113389106782925 3.821602634979131 0.95299394826915729 1.0000000180025095e-35 0.29421208069384491 1.0101568101714038 0.20542491598974108 1.5890973809377209 0.59933274294332839 1.4491881951542334 3.3088450727983547 0.97405458678453249 19.644999504089359 1.8287002027652413 7.2460476408349743 6.3672932091603309 14.195584228023208 0.039214629180872602 81.354999542236342
decision_type=2 2 2 2 2 2 2 2 2 2 2 2 2 2 2 2 2 2 2 2 2 2 2 2 2 2 2 2 2 2
left_child=1 29 13 4 5 11 10 9 -9 -7 -6 12 -3 -2 15 16 20 19 -19 -17 -15 -12 23 28 26 -26 -25 -28 -4 -1
right_child=2 3 22 -5 6 7 -8 8 -10 -11 21 -13 -14 14 -16 17 -18 18 -20 -21 -22 -23 -24 24 25 -27 27 -29 -30 -31
leaf_value=-0.017908300983367074 -0.021023504734344809 -0.011939798035792447 0.035686146954829169 0.056139047452818273 0.018488629991246255 0.01367092404372983 0.033657335511059712 -0.058873504088137386 -0.0019144106046158228 -0.020821752189236327 -0.03834709886037925 0.018362394559747273 -0.053973753131622108 0.018468505020319648 0.065925693973587982 -0.0013640489965911805 -0.028465584053094059 0.0070030871336222988 0.058893586512400377 -0.056280017782939798 0.03786743924105869 0.0087542112789253373 0.061017635148399321 0.049044070773653803 -0.016193989764324786 0.036009114944239175 -0.010636664790844678 0.046658105455652396 -0.0065340856196458956 -0.061042369910278997
leaf_weight=8.6326102018356305 19.933541268110275 92.56503076851368 16.441638633608818 12.531635031104086 15.588507518172262 253.1187409311533 11.454060062766073 18.255496025085449 40.35966531932354 38.355714485049248 128.04145577549934 24.686553537845612 34.68586465716362 194.22038367390633 17.989521026611328 39.049605041742325 21.523588061332703 65.963518559932709 19.741666451096535 18.287590131163597 163.31572623550892 13.707010328769682 40.869241997599602 124.88371704518795 15.566410526633261 16.623886168003082 18.728231593966484 28.298535585403442 19.817691415548325 27.588225811719894
leaf_count=49 71 422 49 37 64 939 41 81 153 151 694 88 188 600 50 131 76 212 56 74 486 55 121 371 53 50 64 85 67 189
internal_value=0.00944716 -0.00870764 0.0249759 -0.00647855 -0.00764831 -0.00202046 -0.024387 0.00431234 -0.0196541 0.00913196 -0.0286126 -0.0166123 -0.0233974 0.0186914 0.0201572 0.0185802 0.0241614 0.00378989 0.0189557 -0.0188794 0.0273296 -0.0337924 0.0374907 0.0334903 0.0371997 0.010765 0.0421496 0.0238407 0.0126105 -0.0507621
internal_weight=1560.83 719.571 841.254 683.35 670.818 502.027 168.791 350.09 58.6152 291.474 157.337 151.937 127.251 560.025 540.092 522.102 379.06 143.042 85.7052 57.3372 357.536 141.748 281.229 240.36 204.101 32.1903 171.91 47.0268 36.2593 36.2208
internal_count=5767 3151 2616 2913 2876 2022 854 1324 234 1090 813 698 610 1756 1685 1635 1162 473 268 205 1086 749 860 739 623 103 520 149 116 238
is_linear=0
shrinkage=0.05


end of trees

feature_importances:
vix_level=52
usdjpy_level=50
macd_histogram=46
volatility_20d=38
atr_14=32
price_vs_sma200=30
rsp_vs_spy=24
macd_signal=20
dxy_level=19
bb_width_percentile=18
macd=18
vix_percentile_252d=17
return_50d=16
xlu_vs_xlk=15
vix_momentum_5d=15
vix_momentum_3d=14
bb_width=13
adx=12
usdjpy_momentum_10d=12
vix_momentum_10d=12
vvix_percentile_252d=12
put_call_premium_ratio=12
usdjpy_volatility=11
dxy_momentum_10d=10
dxy_rsi=10
minus_di=8
vix_term_momentum=8
vvix_level=8
vix_vs_realized=8
rsi=7
distance_from_20d_high=7
vix_vs_ma20=7
vix3m_percentile=7
price_vs_sma50=6
xlv_vs_xlk=6
plus_di=6
usdjpy_momentum_5d=6
eurusd_momentum_5d=6
vix_term_structure=5
vvix_momentum_5d=5
vix_change=5
usdjpy_momentum_3d=4
put_call_volume_ratio=4
regime_confidence=3
dxy_momentum_5d=3
realized_vol_20d=3
extended_move=2
vix_short_term=2
vix_percentile=2
is_range_bound=1
vol_risk_premium=1
itm_put_otm_call_ratio=1
otm_put_itm_call_ratio=1

parameters:
[boosting: gbdt]
[objective: binary]
[metric: auc]
[tree_learner: serial]
[device_type: cpu]
[data_sample_strategy: bagging]
[data: ]
[valid: ]
[num_iterations: 1000]
[learning_rate: 0.05]
[num_leaves: 31]
[num_threads: 10]
[seed: 42]
[deterministic: 0]
[force_col_wise: 0]
[force_row_wise: 0]
[histogram_pool_size: -1]
[max_depth: 7]
[min_data_in_leaf: 50]
[min_sum_hessian_in_leaf: 0.001]
[bagging_fraction: 0.8]
[pos_bagging_fraction: 1]
[neg_bagging_fraction: 1]
[bagging_freq: 0]
[bagging_seed: 400]
[bagging_by_query: 0]
[feature_fraction: 0.8]
[feature_fraction_bynode: 1]
[feature_fraction_seed: 30056]
[extra_trees: 0]
[extra_seed: 12879]
[early_stopping_round: 0]
[early_stopping_min_delta: 0]
[first_metric_only: 0]
[max_delta_step: 0]
[lambda_l1: 0]
[lambda_l2: 0]
[linear_lambda: 0]
[min_gain_to_split: 0]
[drop_rate: 0.1]
[max_drop: 50]
[skip_drop: 0.5]
[xgboost_dart_mode: 0]
[uniform_drop: 0]
[drop_seed: 17869]
[top_rate: 0.2]
[other_rate: 0.1]
[min_data_per_group: 100]
[max_cat_threshold: 32]
[cat_l2: 10]
[cat_smooth: 10]
[max_cat_to_onehot: 4]
[top_k: 20]
[monotone_constraints: ]
[monotone_constraints_method: basic]
[monotone_penalty: 0]
[feature_contri: ]
[forcedsplits_filename: ]
[refit_decay_rate: 0.9]
[cegb_tradeoff: 1]
[cegb_penalty_split: 0]
[cegb_penalty_feature_lazy: ]
[cegb_penalty_feature_coupled: ]
[path_smooth: 0]
[interaction_constraints: ]
[verbosity: -1]
[saved_feature_importance_type: 0]
[use_quantized_grad: 0]
[num_grad_quant_bins: 4]
[quant_train_renew_leaf: 0]
[stochastic_rounding: 1]
[linear_tree: 0]
[max_bin: 255]
[max_bin_by_feature: ]
[min_data_in_bin: 3]
[bin_construct_sample_cnt: 200000]
[data_random_seed: 175]
[is_enable_sparse: 1]
[enable_bundle: 1]
[use_missing: 1]
[zero_as_missing: 0]
[feature_pre_filter: 1]
[pre_partition: 0]
[two_round: 0]
[header: 0]
[label_column: ]
[weight_column: ]
[group_column: ]
[ignore_column: ]
[categorical_feature: ]
[forcedbins_filename: ]
[precise_float_parser: 0]
[parser_config_file: ]
[objective_seed: 16083]
[num_class: 1]
[is_unbalance: 1]
[scale_pos_weight: 1]
[sigmoid: 1]
[boost_from_average: 1]
[reg_sqrt: 0]
[alpha: 0.9]
[fair_c: 1]
[poisson_max_delta_step: 0.7]
[tweedie_variance_power: 1.5]
[lambdarank_truncation_level: 30]
[lambdarank_norm: 1]
[label_gain: ]
[lambdarank_position_bias_regularization: 0]
[eval_at: ]
[multi_error_top_k: 1]
[auc_mu_weights: ]
[num_machines: 1]
[local_listen_port: 12400]
[time_out: 120]
[machine_list_filename: ]
[machines: ]
[gpu_platform_id: -1]
[gpu_device_id: -1]
[gpu_use_dp: 0]
[num_gpu: 1]

end of parameters

pandas_categorical:[]
