tree
version=v4
num_class=1
num_tree_per_iteration=1
label_index=0
max_feature_idx=91
objective=binary sigmoid:1
feature_names=volatility_20d atr_14 price_vs_sma200 price_vs_sma50 return_50d xlu_vs_xlk xlv_vs_xlk defensive_rotation mags_vs_spy rsp_vs_spy narrow_leadership adx plus_di minus_di adx_regime_score is_trending is_range_bound bb_width bb_width_percentile bb_squeeze bb_expansion regime_confidence rsi rsi_overbought rsi_extreme macd macd_signal macd_histogram distance_from_20d_high at_new_highs extended_move usdjpy_level usdjpy_momentum_3d usdjpy_momentum_5d usdjpy_momentum_10d usdjpy_acceleration_3d usdjpy_volatility yen_carry_unwind_risk dxy_level dxy_momentum_5d dxy_momentum_10d dxy_rsi eurusd_momentum_5d vix_level vix_percentile_252d vix_momentum_3d vix_momentum_5d vix_momentum_10d vix_regime vix_spike vix_vs_ma20 vix_extreme_high vix_term_structure vix_backwardation vix_term_momentum vvix_level vvix_percentile_252d vvix_momentum_5d realized_vol_20d vix_vs_realized vol_risk_premium vol_regime_transition iv_skew_25d iv_skew_10d iv_skew_50d put_iv_25d call_iv_25d iv_smile_curvature iv_slope_25d iv_slope_10d atm_straddle_price_1w atm_straddle_price_2w atm_straddle_price_1m implied_move_1w implied_move_2w implied_move_1m strangle_skew_1w strangle_skew_2w put_call_volume_ratio put_call_volume_ratio_log put_call_oi_ratio put_call_oi_ratio_log put_call_premium_ratio itm_put_otm_call_ratio otm_put_itm_call_ratio vix_short_term vix_contango vix_change vix_percentile vix3m_percentile vix_volatility vix_mean_reversion
feature_infos=[0.031905571124681162:0.95917445332307882] [0.50490828508331731:14.531177769684648] [-39.048298404824621:21.547983869884277] [-27.404424780819493:14.349609325387833] [-39.537322742710778:40.022418246358924] [-30.62419927875013:31.180090975197349] [-28.344375227439688:24.254324400004514] [0:1] none [-7.2118118056352163:9.5387761953044095] [0:1] [8.3513778240510828:80.980461111602764] [4.9373566537580951:50.248204322561129] [4.1377907362031152:66.056128619145881] [0:3] [0:1] [0:1] [0.96998524377742301:44.393893368227275] [0.003968253968253968:1] [0:1] [0:1] [0.089803086416611458:1] [16.802674888637924:87.191531514352391] [0:1] [0:1] [-21.678348931867589:8.9791783167456742] [-18.143041472578876:7.9646444756446915] [-5.6368413108880731:5.6274270570243292] [0:31.003314747552619] [0:1] [0:1] [75.739997863769531:150.17599487304688] [-16.212009731598819:17.285804788088122] [-17.154886699228712:17.285804788088122] [-17.466124656514857:12.76968593626262] [-17.444804841398987:17.641143193760822] [0.18398789030465568:5.5614456312932976] [0:1] [18.082090377807617:27.343647003173828] [-7.5821565999442564:6.2405416088296972] [-9.2852381348427002:8.6635654832433637] [8.800226072519834:96.202128373091284] [-10.116561044311979:18.405858040670054] [9.1400003433227539:82.69000244140625] [0.003968253968253968:1] [-37.680097723319783:175.62776809429738] [-42.827257369400193:212.90322769669348] [-50.717273693021525:238.34996009352753] [1:4] none [-32.896762461825148:183.74833429206515] [0:1] [-28.089996337890625:6.470001220703125] [0:1] [-20.469999313354492:16.049995422363281] [59.740001678466797:207.58999633789062] [0.003968253968253968:1] [-32.030340666974922:93.188326213875115] [3.1905571124681162:95.917445332307878] [-46.064944748567115:25.186620174028651] [-46.064944748567115:25.186620174028651] [0:1] none none none none none none none none none none none none none none none none [0:3.4836283531360324] [-0.6653184933573606:1.2480743808365191] none none [0:12.660058068905977] [0:201] [0:52.907337224285605] [0:1.590032171431597] [0:1] [-0.25905672810706337:1.1559792516603906] [0:1] [0:1] none none
tree_sizes=3286 3395 3390 3394 3395 3408 3392 3402 3404 3411 3401 3403 3414 3411 3402 3415

Tree=0
num_leaves=31
num_cat=0
split_feature=3 0 27 3 17 9 17 27 0 31 3 56 43 17 12 2 13 31 11 3 6 55 43 0 57 3 2 3 27 59
split_gain=1898.9 1074.79 418.904 291.116 353.324 214.657 149.905 138.447 127.083 101.559 118.061 99.9798 90.2493 73.2432 72.7615 72.0405 71.1052 67.8265 68.0772 54.0291 53.9813 52.9351 51.1166 50.3095 46.7777 45.0562 43.3116 41.6447 39.0685 38.0859
threshold=3.0362527014997678 0.16775877424329905 -0.01896033093957988 1.7277255651350494 4.6912528404522744 4.3764383831372946 4.1054454556487174 0.30297675724185941 0.24401946866560012 95.833999633789077 -2.2561298261657607 0.37003968253968261 11.574999809265138 4.5666997317552527 17.923399602381775 10.043899177163576 19.2961902075469 131.52500152587893 38.085384763306955 0.37616746869098117 1.3231346006778502 75.544998168945327 14.875000000000002 0.099245617480880552 3.8908818221071511 -0.54622798156180963 0.79795885075955753 3.7698808802151507 -0.11354045047287413 -2.0903613485739316
decision_type=2 2 2 2 2 2 2 2 2 2 2 2 2 2 2 2 2 2 2 2 2 2 2 2 2 2 2 2 2 2
left_child=1 3 8 5 12 7 15 9 11 10 -1 17 21 -9 24 20 23 18 -3 26 27 -5 -18 -14 -4 -11 -13 -2 -6 -10
right_child=6 2 14 4 28 -7 -8 13 29 25 -12 19 16 -15 -16 -17 22 -19 -20 -21 -22 -23 -24 -25 -26 -27 -28 -29 -30 -31
leaf_value=0.85015810202705178 0.97279620798044164 1.030584950697792 1.0593705073001283 1.0515409470673733 0.95934291580489761 1.0115225876367702 1.0853315852117598 0.88347281894864194 1.0723087288919901 0.84424035749344672 0.99764441493629308 0.92681705752810228 1.0351060916236967 1.0602689977002804 1.0750058859165388 1.0875167035368518 0.88223902188283809 0.8862224891981092 0.84816130813883217 1.0229803308235721 0.90107852557173052 0.8613202854776526 0.96210497251156057 0.91749121150251223 0.95672422321751727 0.87528129065441251 0.86073068210531589 1.0875167035368518 1.0686135802342513 0.98969927500181898
leaf_weight=23.354926377534866 25.368907570838928 43.816878527402878 19.695352852344513 3.8522419035434714 9.7312084734439832 31.002194762229919 253.69301971793175 9.5088487267494219 18.225611209869385 176.02813228964806 32.382992506027222 47.431980103254318 26.442606091499329 15.258603870868681 132.92878606915474 19.093897879123688 50.634090662002563 14.458108782768248 5.7900226712226859 8.5897183716297132 17.096864581108093 72.296915650367737 33.151759117841721 13.856653809547423 25.430327415466309 348.04295256733894 51.942892402410507 11.495305866003035 51.320154905319214 59.505421310663223
leaf_count=49 93 193 94 18 34 129 1295 24 90 356 129 146 118 73 661 98 127 37 12 37 47 162 117 41 88 842 116 59 251 231
internal_value=0.959203 0.932575 0.997785 0.901469 0.945898 0.883205 1.06716 0.876625 0.95601 0.87168 0.935846 0.932036 0.913793 0.992392 1.05638 1.00405 0.940089 0.981518 1.00929 0.902673 0.974512 0.870943 0.91384 0.994665 1.00152 0.864855 0.892274 1.00857 1.0512 1.00907
internal_weight=1651.43 1324.68 427.815 896.864 261.286 635.579 326.748 604.576 249.761 579.809 55.7379 172.03 200.234 24.7675 178.054 73.055 124.085 64.065 49.6069 107.965 53.9611 76.1492 83.7858 40.2993 45.1257 524.071 99.3749 36.8642 61.0514 77.731
internal_count=5767 4175 1705 2470 868 1602 1592 1473 862 1376 178 541 583 97 843 297 403 242 205 299 199 180 244 159 182 1198 262 152 285 321
is_linear=0
shrinkage=1


Tree=1
num_leaves=31
num_cat=0
split_feature=3 0 27 27 17 9 2 17 0 56 13 31 12 6 2 3 0 31 11 43 31 6 3 31 25 13 1 22 31 3
split_gain=1637.57 874.221 369.602 235.067 233.014 195.977 176.477 141.759 106.325 80.7323 68.2075 69.612 68.0655 66.5911 65.3118 59.5761 57.5278 56.2947 56.8288 55.0477 48.0577 44.9789 44.8745 44.3753 41.4782 39.3389 37.0384 36.4297 35.4259 34.3118
threshold=3.0362527014997678 0.16775877424329905 -0.01896033093957988 0.20970000210970322 4.8406249695971715 1.859325405633961 8.4919629376787054 4.1054454556487174 0.24401946866560012 0.37003968253968261 17.098251015380033 82.877502441406264 17.923399602381775 -2.7599725801551007 10.043899177163576 1.0000000180025095e-35 0.13692226209086986 131.52500152587893 38.085384763306955 11.574999809265138 96.405502319335952 0.94803655207331705 0.89944650607590193 125.27499771118165 1.2819461261628009 24.885210770556906 0.70319213966196925 36.853014532463902 113.77350234985353 3.5201240616394229
decision_type=2 2 2 2 2 2 2 2 2 2 2 2 2 2 2 2 2 2 2 2 2 2 2 2 2 2 2 2 2 2
left_child=1 3 8 5 13 6 10 14 9 17 19 -12 23 -5 21 -6 26 18 -3 -1 -18 29 -11 -4 -23 -7 -8 -10 -27 -2
right_child=7 2 12 4 15 25 16 -9 27 22 11 -13 -14 -15 -16 -17 20 -19 -20 -21 -22 24 -24 -25 -26 28 -28 -29 -30 -31
leaf_value=-0.12989850440963996 -0.05312570358993518 0.010608962536624867 0.0095333182752605269 0.046612049566232182 -0.10039990371813777 0.031656596373354433 -0.12695586745710355 0.064633833117441239 -0.049988798709012516 -0.1128029789000527 -0.069605465884834725 -0.13879679481924315 0.054215693216758801 -0.13041998502339566 0.066852622867625611 0.061485963553984703 -0.013506908711123276 -0.11913867632637112 -0.15073798154378415 -0.02649169723235912 -0.15191271513863708 -0.15904497262534004 0.024189978433692593 -0.10919296023762384 -0.023040886137622434 -0.12395781490452432 -0.022919628874594748 0.019208109759328879 -0.0041155002058207981 0.049706090405516386
leaf_weight=24.182534605264664 17.035663723945618 43.587810769677162 35.372125849127769 6.0131023526191703 6.512987717986106 22.565696254372597 9.8653627187013608 245.75973950326443 32.770461902022362 107.3870548158884 38.706796005368233 597.3689831495285 129.42920862138271 45.554263070225716 18.476797014474869 44.60809513926506 8.4487724602222425 15.33779329061508 6.2385109961032859 27.512194469571114 24.341185256838799 12.104345917701723 6.330194726586341 10.122462555766104 10.44234152138233 11.478487730026247 64.41190405189991 45.331990242004395 13.325128197669981 15.486171394586561
leaf_count=55 59 193 154 28 18 104 24 1295 117 270 121 1272 661 105 98 228 34 37 12 104 50 24 29 28 39 29 243 204 55 77
internal_value=-0.0556089 -0.0792687 -0.020338 -0.106206 -0.0347852 -0.114914 -0.120802 0.0464089 -0.0584984 -0.0797497 -0.130098 -0.134586 0.0357242 -0.109777 -0.0144916 0.0408612 -0.0610889 -0.0353766 -0.0095925 -0.0748649 -0.116251 -0.0417845 -0.105177 -0.0168831 -0.0960556 -0.0161145 -0.0367375 -0.00982574 -0.0595755 -0.0041595
internal_weight=1696.11 1376.8 431.908 944.895 102.688 842.207 794.838 319.305 256.984 178.881 687.771 636.076 174.924 51.5674 73.5453 51.1211 107.067 65.1641 49.8263 51.6947 32.79 55.0685 113.717 45.4946 22.5467 47.3693 74.2773 78.1025 24.8036 32.5218
internal_count=5767 4175 1705 2470 379 2091 1903 1592 862 541 1552 1393 843 133 297 246 351 242 205 159 84 199 299 182 63 188 267 321 84 136
is_linear=0
shrinkage=0.05


Tree=2
num_leaves=31
num_cat=0
split_feature=3 27 9 17 0 17 2 12 43 2 12 0 2 12 59 55 34 6 18 43 3 17 28 26 31 55 48 50 18 4
split_gain=1427.41 735.539 394.777 334.947 213.156 134.133 134.107 68.7651 113.819 59.4042 59.2699 55.1964 52.8598 50.9215 48.2488 46.5846 39.5415 39.0629 37.1996 35.6525 35.3595 34.9059 35.081 34.0351 33.7053 32.661 32.2111 32.0314 28.4325 26.4983
threshold=3.0362527014997678 0.2306518370404583 1.8168353572471931 4.7995004799495753 0.24401946866560012 4.1054454556487174 9.246226924574291 19.934815132426142 17.57499980926514 10.043899177163576 14.546591099489619 0.099245617480880552 -3.6784402122183129 20.040684259117945 1.3825454920515983 79.99499893188478 -0.69429167676605663 1.3231346006778502 0.47420634920634924 12.984999656677248 3.7698808802151507 5.5390135159111198 0.85191989673959045 -0.03430456962988207 122.91749954223634 116.77000045776369 3.5000000000000004 4.2426804813405292 0.43113342898134871 6.4443244977056455
decision_type=2 2 2 2 2 2 2 2 2 2 2 2 2 2 2 2 2 2 2 2 2 2 2 2 2 2 2 2 2 2
left_child=1 2 4 19 6 9 7 15 -9 17 16 27 -12 28 -6 -1 -4 20 -13 -3 29 22 -5 -21 -18 -15 -16 -8 -14 -2
right_child=5 3 10 21 14 -7 11 8 -10 -11 12 18 13 25 26 -17 24 -19 -20 23 -22 -23 -24 -25 -26 -27 -28 -29 -30 -31
leaf_value=-0.054056719039376727 0.013003490960731827 -0.13876560447234304 0.024039991901186799 0.045815232752203089 0.041859029682862495 0.063501579293657018 0.060531342084791398 -0.10701373160907653 -0.037091791603483158 0.065762816193330784 0.04522970369829566 -0.077518380633480183 -0.092116335012780048 0.060279019740283712 -0.094084635788704601 -0.12714646357956788 -0.042346929687481417 -0.097907117732203064 0.06825834098902378 -0.10024336215751117 0.066279468128679395 0.06126068613968725 -0.081457586603046028 0.033650447685796829 -0.13072701385397859 -0.094731130454186463 0.002483160864625307 -0.07954513171323245 0.016903143823978228 -0.087503308287652279
leaf_weight=22.929387241601944 12.268911540508272 26.787631332874298 12.226336091756819 13.229394897818567 26.899875700473785 237.83577263355255 15.609981730580332 366.78358109295368 69.17801322042942 17.859490245580673 49.23070977628231 67.135984644293785 24.840507730841637 18.440393730998043 17.873197659850121 442.85770401358604 27.249933034181595 18.714234203100204 4.6814071089029303 12.92195248603821 10.920378252863882 131.40635317564011 9.1652833670377714 7.5014748722314826 17.856906294822693 4.1658874899148932 16.7075305134058 5.5259041786193839 7.8771407902240744 14.088491752743719
leaf_count=70 52 51 54 67 131 1295 76 854 239 98 241 196 72 94 53 894 97 47 24 34 59 696 28 33 40 11 70 16 34 41
internal_value=-0.0516639 -0.0729443 -0.0875676 0.015668 -0.0987117 0.0452239 -0.104296 -0.11019 -0.0959186 -0.0136385 -0.0148613 -0.0471139 0.00754201 -0.0259949 -0.00836204 -0.123548 -0.0557166 -0.0389647 -0.0680159 -0.100826 -0.00937433 0.0514273 -0.00627265 -0.0510645 -0.0773349 0.0317137 -0.0474283 0.0239088 -0.0658687 -0.0407191
internal_weight=1730.77 1419.08 1218.07 201.012 1056.18 311.687 994.702 901.749 435.962 73.8515 161.888 92.9533 104.555 55.3239 61.4806 465.787 57.3332 55.992 71.8174 47.2111 37.2778 153.801 22.3947 20.4234 45.1068 22.6063 34.5807 21.1359 32.7176 26.3574
internal_count=5767 4175 3266 909 2623 1592 2369 2057 1093 297 643 312 452 211 254 964 191 199 220 118 152 791 95 67 137 105 123 92 106 93
is_linear=0
shrinkage=0.05


Tree=3
num_leaves=31
num_cat=0
split_feature=3 27 17 9 0 17 2 6 0 13 31 2 12 2 12 59 0 0 22 57 34 6 3 17 48 31 18 9 32 18
split_gain=1254.24 631.088 346.469 318.499 175.058 127.026 107.843 63.9001 58.2202 89.2886 57.9403 54.207 49.4194 50.9068 43.7963 43.6669 42.183 36.1065 40.4158 36.0316 34.5026 33.537 32.1342 29.338 27.6533 27.0016 26.5403 25.4341 24.8472 24.0434
threshold=3.0362527014997678 0.20970000210970322 5.2691339035761855 1.8168353572471931 0.24401946866560012 4.1054454556487174 8.6318273108064236 -2.7599725801551007 0.1709852754844961 25.575000410514907 79.30899810791017 10.043899177163576 14.546591099489619 -3.6784402122183129 20.607115465201044 1.3825454920515983 0.13692226209086986 0.12892721035787627 55.476279579788269 6.9928527173543147 -0.69429167676605663 2.0462037000327009 3.8800993451121149 4.6912528404522744 3.5000000000000004 122.91749954223634 0.43113342898134871 0.19058928762346053 0.47350450026324437 0.90674603174603186
decision_type=2 2 2 2 2 2 2 2 2 2 2 2 2 2 2 2 2 2 2 2 2 2 2 2 2 2 2 2 2 2
left_child=1 3 7 4 6 11 8 -3 10 -10 -1 21 20 -14 26 -6 19 -9 -19 -8 -5 22 27 -18 -17 28 -15 -2 -22 -26
right_child=5 2 -4 12 15 -7 16 17 9 -11 -12 -13 13 14 -16 24 23 18 -20 -21 25 -23 -24 -25 29 -27 -28 -29 -30 -31
leaf_value=-0.010315292480314289 -0.069121738957394971 0.040794431279437424 0.056199412959250808 0.023091488150590901 0.040248428113948902 0.062447601149820578 0.015163679483191313 -0.11861242562204405 0.05750086883490714 -0.084519473713279614 -0.10929766461464384 0.064759560960970325 0.043536151294874537 -0.082383459895009004 0.036885759146038463 -0.087477218502692494 -0.12313416850515452 -0.090784110905738333 0.069393170905666962 -0.057484447091534809 -0.074595850467301481 -0.097653487563437016 0.065763793625132003 -0.044072336344009214 0.068283109509527859 -0.11799552853126201 0.019232459854382461 0.028046019276661029 0.02536835407330806 -0.053007426712917374
leaf_weight=15.082612782716749 20.763974204659466 9.9138415753841382 143.68620781600475 12.095515415072439 25.989840805530548 229.95740167796612 30.008330464363098 46.396698012948036 12.155672401189802 123.58560959994793 747.84177020192146 17.244939088821411 47.260685935616493 27.927662998437881 17.727783650159836 18.412198171019554 25.910880789160728 11.061004906892778 6.1154480874538413 39.578554913401604 18.086607187986377 16.057263314723969 9.9532790631055814 21.445208117365837 7.437306389212611 18.768789410591125 8.3460131138563138 9.9674604982137662 9.4715866744518262 9.067039951682089
leaf_count=55 63 47 772 54 129 1295 125 94 60 310 1530 98 236 79 85 52 52 30 31 122 54 37 55 70 38 40 37 44 42 31
internal_value=-0.0482561 -0.0675732 0.0110349 -0.0813829 -0.0911576 0.044113 -0.0960952 -0.0772734 -0.101973 -0.0718015 -0.107341 -0.0128726 -0.0154871 0.00564069 -0.0275244 -0.00882298 -0.0509288 -0.0956853 -0.0337551 -0.026156 -0.0521073 -0.0364664 -0.0123174 -0.087331 -0.0453489 -0.0717409 -0.0590032 -0.0376063 -0.0402388 0.00164938
internal_weight=1757.32 1453.37 217.173 1236.2 1076.52 303.944 1015.61 73.487 898.666 135.741 762.924 73.9869 159.685 101.262 54.0015 60.9064 116.943 63.5732 17.1765 69.5869 58.4225 56.742 40.6847 47.3561 34.9165 46.327 36.2737 30.7314 27.5582 16.5043
internal_count=5767 4175 974 3201 2574 1592 2324 202 1955 370 1585 297 627 437 201 250 369 155 61 247 190 199 162 122 121 136 116 107 96 69
is_linear=0
shrinkage=0.05


Tree=4
num_leaves=31
num_cat=0
split_feature=3 27 9 17 0 17 3 17 0 31 13 12 2 59 43 59 17 44 40 56 57 26 3 59 36 3 21 48 4 27
split_gain=1110.3 552.957 284.898 272.637 152.06 115.378 106.089 104.461 53.1236 57.0015 53.442 48.2583 47.8676 43.7697 41.0374 38.9325 36.4629 40.9532 36.4035 36.3719 36.0872 32.0551 29.7381 28.9166 43.6017 27.4311 27.128 23.3767 22.8825 22.61
threshold=3.0801336174526921 0.2306518370404583 1.8168353572471931 5.2691339035761855 0.24401946866560012 4.1054454556487174 1.7565481743522156 4.6912528404522744 0.16687398271844553 89.444999694824233 25.575000410514907 20.040684259117945 10.043899177163576 5.6761330938840784 11.775000095367433 1.3825454920515983 9.7782047522060989 0.98690476190476206 1.6351538244123278 0.65674603174603186 7.3474747251913177 0.84367782965836902 3.8800993451121149 4.1053146637434894 0.40530063912522607 1.4438372929337759 0.41850396740892859 3.5000000000000004 -14.933806279051396 -0.26949266127387739
decision_type=2 2 2 2 2 2 2 2 2 2 2 2 2 2 2 2 2 2 2 2 2 2 2 2 2 2 2 2 2 2
left_child=1 2 4 14 6 12 8 13 9 -1 -10 16 21 -8 -3 -6 23 -18 -9 25 -13 26 -23 29 -25 -16 -2 -17 -29 -4
right_child=5 3 11 -5 15 -7 7 18 10 -11 -12 20 -14 -15 19 27 17 -19 -20 -21 -22 22 -24 24 -26 -27 -28 28 -30 -31
leaf_value=-0.054495127832753759 -0.013029037893612691 -0.11988404913208922 -0.12740349110179455 0.056445433231958581 0.039397356253832512 0.06206138469789392 -0.08703532997032426 0.039490644957852324 0.021435444331935186 -0.10747285201506818 -0.07992190404211004 0.057266359978034226 0.063834028977222665 -0.03468574357180295 -0.046305388378865817 -0.078585615447384599 0.047206096162321118 -0.08111916820812963 -0.087863012651557701 -0.099105497062545206 -0.10326165043044085 -0.034384135974556966 0.06626537078683567 -0.099594934666234147 0.010094412677324834 0.057568630125814271 -0.13127283604828663 -0.064888858566704663 0.053419926231346795 -0.049497991878769187
leaf_weight=55.432888031005859 8.132674381136896 24.268664240837097 13.144593894481657 132.11097431182861 25.82593247294426 219.12337109446526 152.20177176594734 31.367589861154556 14.294828459620474 604.1015267521143 144.13867451250553 30.938820660114288 16.465915262699127 54.129193499684334 14.876023292541506 19.270020216703415 26.269605740904808 8.1450521647930128 6.8337345272302619 15.300131395459173 3.9477095901966086 24.670504003763199 10.44647106528282 11.992771610617636 37.04357872903347 11.096961572766302 12.019749507308005 7.1971224546432522 9.4579318016767484 31.952924624085426
leaf_count=158 30 42 28 737 131 1279 347 142 63 1135 350 165 97 169 46 53 128 23 17 39 10 83 58 29 157 54 22 23 47 105
internal_value=-0.0452907 -0.062784 -0.0747362 0.0150835 -0.0837033 0.0440431 -0.0881364 -0.0592402 -0.0967749 -0.10302 -0.0707768 -0.0130528 -0.0109957 -0.0733019 -0.0682886 -0.00742731 -0.0272068 0.0168349 0.0167087 -0.0379504 0.0391012 -0.033289 -0.00444328 -0.0433081 -0.0167322 -0.0019252 -0.0835546 -0.0410888 0.00229534 -0.0722051
internal_weight=1776.2 1485.34 1287.69 197.653 1124.25 290.859 1062.5 244.532 817.968 659.534 158.434 163.435 71.7353 206.331 65.5418 61.751 128.549 34.4147 38.2013 41.2731 34.8865 55.2694 35.117 94.1339 49.0364 25.973 20.1524 35.9251 16.6551 45.0975
internal_count=5767 4198 3280 918 2635 1569 2381 675 1706 1293 413 645 290 516 181 254 470 151 159 139 175 193 141 319 186 100 52 123 70 133
is_linear=0
shrinkage=0.05


Tree=5
num_leaves=31
num_cat=0
split_feature=3 27 17 9 0 17 3 17 0 2 31 12 2 2 59 0 22 59 59 12 34 26 3 40 21 31 21 35 55 32
split_gain=988.361 481.791 248.638 246.336 131.067 109.599 91.173 99.2767 44.0942 45.8921 45.0759 44.0314 43.9349 43.8339 38.287 35.9056 46.8918 35.0985 30.055 38.2467 28.925 27.8453 27.3169 24.9926 24.6317 23.6142 22.4386 21.3974 20.0842 19.1932
threshold=3.0801336174526921 0.2306518370404583 5.2691339035761855 1.8168353572471931 0.24401946866560012 4.1054454556487174 1.6623833664576526 4.6912528404522744 0.16687398271844553 1.3728016397746081 89.444999694824233 14.546591099489619 10.043899177163576 6.3724461306371882 5.6761330938840784 0.1142289906722668 55.349599065608921 1.3825454920515983 3.9270905082833898 18.955754380871046 -0.69429167676605663 0.84367782965836902 3.8800993451121149 1.6351538244123278 0.23040158755153045 122.91749954223634 0.45999732139758459 0.63789899003917083 117.15499877929689 0.47350450026324437
decision_type=2 2 2 2 2 2 2 2 2 2 2 2 2 2 2 2 2 2 2 2 2 2 2 2 2 2 2 2 2 2
left_child=1 3 15 4 6 12 8 14 10 -10 -1 20 21 18 -8 24 -17 -6 19 -13 -5 26 -23 -9 -3 29 -2 -19 -15 -22
right_child=5 2 -4 11 17 -7 7 23 9 -11 -12 13 -14 28 -16 16 -18 27 -20 -21 25 22 -24 -25 -26 -27 -28 -29 -30 -31
leaf_value=-0.052801531920767711 -0.023741949183084428 0.068220712298572003 0.055367108322460182 0.022885529526847231 0.038218569621315257 0.061152618361452693 -0.08138036664188468 0.03545507769086139 -0.041160027711411036 -0.094663008100637297 -0.099880302107147587 -0.046253020047820226 0.062978544408582304 -0.017766058777472359 -0.034170331394322656 -0.075998474791729484 0.068437589621380468 -0.055358209594861776 0.050951703806949578 0.049527900876803893 -0.063261353691428254 -0.032232703849042962 0.065244634655158437 -0.063740139839563753 -0.099016923237075838 -0.10590272569748636 -0.12801914506276071 0.048294842471545259 -0.12836216480387388 0.024183687438232463
leaf_weight=55.527601972222328 10.029650256037714 2.3249728232622138 128.05311089754105 12.063357338309286 25.304778546094894 211.45524209737778 168.72382664680481 32.262826517224312 83.989186108112335 76.662764340639114 602.70446924865246 25.978332281112671 15.870200008153914 9.2260777801275271 57.609639152884483 12.851155996322634 9.9857399761676771 30.491307720541954 43.612567454576492 17.405925318598747 19.166171893477443 24.992695033550262 10.088484093546866 7.9060028195381156 41.540452226996422 19.627267047762871 10.623019725084303 5.9506152272224417 7.3955657780170432 9.3295345157384855
leaf_count=154 35 12 737 54 131 1279 373 147 243 165 1102 88 97 34 176 34 52 96 225 94 55 83 58 21 83 40 17 27 13 42
internal_value=-0.0426722 -0.0587869 0.014593 -0.0696884 -0.0778787 0.0430478 -0.0819098 -0.0565076 -0.0901768 -0.0666915 -0.0959088 -0.0123314 -0.0104178 0.00742547 -0.0693638 -0.0636839 -0.0128419 -0.00701977 0.0216403 -0.00782536 -0.0463454 -0.0313173 -0.00420062 0.0159315 -0.0901529 -0.0637001 -0.0773785 -0.0384327 -0.0669742 -0.0346317
internal_weight=1788.75 1505.69 194.755 1310.94 1147.13 283.059 1085.39 266.502 818.884 160.652 658.232 163.805 71.604 103.618 226.333 66.7023 22.8369 61.7467 86.9968 43.3843 60.1863 55.7338 35.0812 40.1688 43.8654 48.123 20.6527 36.4419 16.6216 28.4957
internal_count=5767 4198 918 3280 2635 1569 2381 717 1664 408 1256 645 290 454 549 181 86 254 407 182 191 193 141 168 95 137 52 123 47 97
is_linear=0
shrinkage=0.05


Tree=6
num_leaves=31
num_cat=0
split_feature=3 27 9 17 0 17 3 17 12 0 22 31 2 43 59 57 17 44 28 6 40 1 31 31 3 25 47 9 36 43
split_gain=884.029 423.316 225.822 201.15 117.962 104.166 87.1665 104.206 47.8255 43.25 48.1874 40.8254 40.4246 40.2855 33.3651 32.9181 31.7832 35.6108 27.1868 24.8656 24.5985 23.9377 35.4364 28.3555 23.815 23.3727 22.442 18.1631 16.6893 14.7416
threshold=3.0801336174526921 0.26900484227402921 1.8168353572471931 4.8406249695971715 0.24401946866560012 4.1054454556487174 1.6623833664576526 4.6912528404522744 20.040684259117945 0.1558638105001077 52.119178003942345 89.444999694824233 10.043899177163576 11.574999809265138 -2.0903613485739316 8.3704677561230252 9.7782047522060989 0.98690476190476206 6.2093211939367068 0.94803655207331705 1.6351538244123278 1.1309894601221036 118.11500167846681 131.52500152587893 3.5201240616394229 1.2819461261628009 35.92001254740638 0.21639071617279851 0.45146426924984678 12.984999656677248
decision_type=2 2 2 2 2 2 2 2 2 2 2 2 2 2 2 2 2 2 2 2 2 2 2 2 2 2 2 2 2 2
left_child=1 2 4 29 6 12 9 13 16 11 -11 -1 19 -8 -6 -10 21 28 -16 24 -9 22 -4 -23 27 -21 -20 -2 -18 -3
right_child=5 3 8 -5 14 -7 7 20 15 10 -12 -13 -14 -15 18 -17 17 -19 26 25 -22 23 -24 -25 -26 -27 -28 -29 -30 -31
leaf_value=-0.045976555937410957 -0.079282736326252615 -0.10460616533086016 -0.076920474078949003 0.054292202389621617 0.056095272871619667 0.060301636714847312 -0.091317835023015534 0.037362284854679788 0.056343715682309406 -0.070256361708348758 0.031096943092135773 -0.093954484822001499 0.062186374318355123 -0.048688779693650125 0.052521592113170971 -0.095532486578776374 -0.030766221046569314 -0.071959357292755322 -0.068870855976582004 -0.11141532562410539 -0.059394023166225135 -0.039030770137786747 0.044693849177853295 -0.12075078050300314 0.047200319404081224 -0.013420944138943429 0.017572412266995952 0.027807510394936976 0.067026149003677635 -0.043322226126518218
leaf_weight=47.995013311505318 10.819315284490591 20.998422339558601 9.240493059158327 119.42983120679855 16.359765008091927 203.90877193212509 88.358568772673607 35.580117717385292 33.093838423490524 206.32138408720493 12.434034287929533 582.10487766563892 15.283606752753256 148.67602264881134 8.7498280704021436 3.9988594353198996 5.5509750396013287 8.4756441414356214 27.506902232766151 13.496898427605631 8.056210130453108 58.206292003393173 17.027568846940994 12.982622534036635 14.412607103586195 11.079980447888373 10.327116698026655 6.244678020477294 20.38299971818924 18.421232610940933
leaf_count=134 28 35 26 704 92 1279 169 170 187 481 51 1045 97 398 44 9 21 23 82 23 21 196 82 21 77 39 43 26 109 55
internal_value=-0.0403451 -0.0552733 -0.0642856 0.0219673 -0.0719508 0.0421083 -0.0756631 -0.0515077 -0.0101867 -0.08365 -0.0644955 -0.0903 -0.00989512 -0.0645795 -0.0053332 0.0399704 -0.0242953 0.0170159 -0.0269063 -0.0295489 0.019499 -0.0388813 0.00191276 -0.0539339 -0.000122514 -0.0672366 -0.0452754 -0.0400924 0.0460944 -0.0759675
internal_weight=1795.52 1520.28 1361.43 158.849 1192.47 275.246 1129.53 280.671 168.959 848.855 218.755 630.1 71.3371 237.035 62.9436 37.0927 131.867 34.4096 46.5838 56.0535 43.6363 97.457 26.2681 71.1889 31.4766 24.5769 37.834 17.064 25.934 39.4197
internal_count=5767 4198 3404 794 2730 1569 2469 758 674 1711 532 1179 290 567 261 196 478 153 169 193 191 325 108 217 131 62 125 54 130 90
is_linear=0
shrinkage=0.05


Tree=7
num_leaves=31
num_cat=0
split_feature=3 27 17 9 17 0 2 13 0 0 2 6 12 9 43 18 59 2 12 57 17 6 2 55 34 26 3 57 21 40
split_gain=793.732 375.163 241.569 180.28 99.0273 97.995 71.2925 45.5725 40.8845 40.8312 37.2716 37.259 34.5808 33.0763 32.652 31.9458 30.5202 30.0004 35.7728 28.8162 27.0571 25.7517 24.5026 24.8692 24.2169 22.4975 23.8669 21.8706 18.1381 15.7565
threshold=3.0801336174526921 0.20970000210970322 5.4755592435414924 1.8168353572471931 4.1054454556487174 0.24401946866560012 8.6842529863716837 14.168458393478867 0.099245617480880552 0.1558638105001077 10.043899177163576 -2.7599725801551007 20.040684259117945 -0.26461056448418002 11.635000228881838 0.14484126984126985 -2.0903613485739316 1.8079895048643013 14.546591099489619 8.3704677561230252 4.5375814094061289 10.860440593817158 -3.6784402122183129 98.415000915527358 -0.69429167676605663 0.84367782965836902 3.8800993451121149 4.2066376718845397 0.45999732139758459 -0.046109436644686801
decision_type=2 2 2 2 2 2 2 2 2 2 2 2 2 2 2 2 2 2 2 2 2 2 2 2 2 2 2 2 2 2
left_child=1 3 11 5 10 6 7 14 13 -9 25 -3 17 -8 -1 -10 -7 18 24 -14 -13 -20 23 -18 -5 28 29 -22 -2 -27
right_child=4 2 -4 12 -6 16 8 9 15 -11 -12 20 19 -15 -16 -17 22 -19 21 -21 27 -23 -24 -25 -26 26 -28 -29 -30 -31
leaf_value=-0.058463716553821835 -0.020495537424743401 0.031416542414500981 0.05501890069772232 0.022126289576997821 0.059502617565634568 0.054639188941339525 -0.050520090677656372 -0.083443542001804927 -0.082173400137559846 -0.058001619649768327 0.061451630878308572 -0.090023090987489618 0.053859022974149885 0.052965700677783029 0.079242622028886461 -0.022422735013132938 0.0062851150878333265 -0.09395945274129533 0.029163580371134062 -0.088358469673564005 0.023125217925944755 -0.061981670378250281 0.03529741355743659 -0.081630180288878598 -0.057288280576426001 -0.060666664252822113 0.064033963722082837 -0.068792102011604267 -0.11306064481885177 0.019628904284142913
leaf_weight=9.5697671473026293 10.183313548564913 10.919712394475935 123.13800771534443 11.925739064812658 196.50240951776505 15.057660564780234 12.771545454859732 762.49714846909046 46.72284397482872 198.82037135958672 14.707617044448851 47.498714447021484 26.941372081637386 19.526983484625816 7.8241930156946173 42.91901920735836 12.873818904161451 13.59613962471485 45.80223873257637 4.1044428944587699 11.956818029284479 9.3278137445449811 11.642181172966955 21.441239729523659 49.218792945146561 15.309552401304243 9.5571365058422071 14.106586650013922 11.018408522009848 10.167094931006433
leaf_count=22 35 51 751 54 1279 87 34 1436 104 482 97 88 155 86 34 138 53 29 216 9 55 30 52 58 136 43 58 38 17 40
internal_value=-0.0382499 -0.0521398 0.0103462 -0.0619488 0.0412216 -0.0688194 -0.0722386 -0.0767303 -0.0361873 -0.0781816 -0.00941434 -0.0547673 -0.0123499 0.0120452 0.00347968 -0.0535658 -0.00714025 -0.0236825 -0.015465 0.035057 -0.0675606 0.0137421 -0.027382 -0.0486474 -0.0417991 -0.0279484 -0.00334618 -0.0266242 -0.0686011 -0.0286227
internal_weight=1797.65 1530.2 207.62 1322.58 267.446 1161.67 1100.65 978.711 121.94 961.318 70.9431 84.4818 160.917 32.2985 17.394 89.6419 61.0149 129.871 116.275 31.0458 73.5621 55.1301 45.9572 34.3151 61.1445 56.2355 35.0338 26.0634 21.2017 25.4766
internal_count=5767 4198 983 3215 1569 2586 2336 1974 362 1918 290 232 629 120 56 242 250 465 436 164 181 246 163 111 190 193 141 93 52 83
is_linear=0
shrinkage=0.05


Tree=8
num_leaves=31
num_cat=0
split_feature=3 27 17 9 17 0 12 31 17 1 12 55 2 59 57 17 44 38 6 31 3 59 36 31 21 25 48 18 45 43
split_gain=714.754 333.626 178.299 176.105 94.1991 91.2459 77.9357 87.8516 74.9218 48.7516 37.5781 36.2158 34.4223 28.2083 27.3288 26.8503 31.4902 25.5404 20.8017 20.503 20.5798 20.4509 32.0126 19.4184 19.1257 18.8157 18.7964 20.4662 18.4951 17.2204
threshold=3.0801336174526921 0.25820926201797739 4.8406249695971715 1.8168353572471931 4.1054454556487174 0.24401946866560012 19.934815132426142 82.877502441406264 5.3177290018064172 1.2284173542114096 20.040684259117945 79.99499893188478 10.043899177163576 1.3825454920515983 8.3704677561230252 9.7782047522060989 0.98690476190476206 21.305941581726078 0.94803655207331705 111.064998626709 3.6888478526235482 4.1053146637434894 0.40530063912522607 107.74349975585939 0.64022282976522071 1.2819461261628009 3.5000000000000004 0.90674603174603186 12.628418625869388 12.984999656677248
decision_type=2 2 2 2 2 2 2 2 2 2 2 2 2 2 2 2 2 2 2 2 2 2 2 2 2 2 2 2 2 2
left_child=1 3 29 5 12 6 11 9 -9 -8 15 17 18 -7 -12 21 -17 -1 19 -2 -21 24 -23 -13 -5 -20 -15 -28 -4 -3
right_child=4 2 28 10 -6 13 7 8 -10 -11 14 23 -14 26 -16 16 -18 -19 25 20 -22 22 -24 -25 -26 -27 27 -29 -30 -31
leaf_value=0.0064587080117422552 0.056189249500706209 -0.093162222639362927 0.056004738672748994 -0.075993616963665425 0.058750390731642323 0.036363071372514204 0.055284958552455687 -0.066741015903695133 -0.012997862387722376 -0.073415713028884819 0.054082978282585625 -0.094775771363705241 0.060769097756447767 -0.064659330892856762 -0.082195974831024199 0.045179552857903531 -0.064944518261581999 -0.10451544253841874 -0.099444631735095185 -0.056209616009809553 0.06276308349572278 -0.07998767947728358 0.011499892263808311 -0.075311201436785422 -0.0033477287289975354 -0.012139463667784258 0.068107865551396279 -0.041898264919603891 -0.038337644275335481 -0.030965329940921538
leaf_weight=19.235458925366405 10.858629137277605 25.106318444013596 110.5440888851881 36.049833461642265 189.2513502240181 24.781272202730179 26.86438399553299 483.06612096726894 74.904199302196503 10.13375800848007 30.191599994897842 222.01237224042416 14.143453702330588 20.492797017097473 4.1892213672399512 25.384965181350708 8.7220413684844953 7.0978379547595969 13.841745480895044 15.771394923329355 4.7234808653593054 12.881483122706411 37.102146252989769 303.02183119952679 12.101504743099211 11.136602267622946 7.5193545371294048 9.6596642881631833 5.4511411637067786 19.989355340600014
leaf_count=61 56 41 699 92 1279 136 114 1032 252 27 181 374 97 53 9 130 23 11 23 45 30 29 158 577 43 39 39 31 26 60
internal_value=-0.0363391 -0.0493067 0.0187725 -0.0572803 0.0403751 -0.0639228 -0.0671292 -0.0545789 -0.0595263 0.020034 -0.00909126 -0.080672 -0.0089691 -0.00506818 0.0374777 -0.0211985 0.017018 -0.0234531 -0.0264785 0.000640898 -0.0287898 -0.0344807 -0.0120777 -0.0835419 -0.0577361 -0.0605196 -0.0323225 0.00625205 0.0515712 -0.0655925
internal_weight=1796.23 1536.5 161.091 1375.41 259.727 1208.79 1146.34 594.968 557.97 36.9981 166.623 551.368 70.4753 62.4531 34.3808 132.242 34.107 26.3333 56.3319 31.3535 20.4949 98.135 49.9836 525.034 48.1513 24.9783 37.6718 17.179 115.995 45.0957
internal_count=5767 4198 826 3372 1569 2707 2448 1425 1284 141 665 1023 290 259 190 475 153 72 193 131 75 322 187 951 135 62 123 70 725 101
is_linear=0
shrinkage=0.05


Tree=9
num_leaves=31
num_cat=0
split_feature=3 27 17 9 17 0 3 17 12 38 31 1 43 2 33 57 27 17 44 27 1 31 31 6 3 25 6 9 55 3
split_gain=645.369 296.861 156.014 155.914 89.6308 81.5899 72.3837 83.6907 36.5121 36.4923 38.9825 37.1348 34.4111 31.8452 27.2026 25.2659 24.6441 24.6399 28.8078 21.0599 19.2125 29.0315 22.8983 18.5681 18.9944 16.7661 15.9925 15.4726 15.3376 13.8286
threshold=3.0801336174526921 0.26900484227402921 4.8406249695971715 1.8168353572471931 4.1054454556487174 0.24401946866560012 1.6623833664576526 4.6912528404522744 20.040684259117945 21.217564582824711 112.5639991760254 1.7079464101146724 11.454999923706056 10.043899177163576 -0.41644263331395698 8.3704677561230252 -0.36880456317322841 9.7782047522060989 0.99598335269066995 -0.11354045047287413 1.1309894601221036 118.11500167846681 131.52500152587893 0.94803655207331705 3.5201240616394229 1.2819461261628009 3.0256254896383954 0.21639071617279851 101.83499908447267 -7.0838130680347549
decision_type=2 2 2 2 2 2 2 2 2 2 2 2 2 2 2 2 2 2 2 2 2 2 2 2 2 2 2 2 2 2
left_child=1 3 -3 5 13 6 9 12 17 10 -1 -11 -8 23 -7 -10 26 20 29 -9 21 -5 -22 24 27 -25 -16 -2 -18 -19
right_child=4 2 -4 8 -6 14 7 19 15 11 -12 -13 -14 -15 16 -17 28 18 -20 -21 22 -23 -24 25 -26 -27 -28 -29 -30 -31
leaf_value=-0.062120033262412201 -0.068617213478180381 -0.063475037889055605 0.051488720536872236 -0.065171244237869505 0.058040343176721999 0.03888447697740019 -0.079119508324538568 -0.027146820569397802 0.053319209465279918 -0.085401200098014149 -0.0012130092747536542 -0.056476738194975951 -0.039493038431342754 0.060134155782560331 -0.083888619812482509 -0.076828594767405903 0.065188819139686521 -0.005296167344927806 -0.084310817056033549 0.046150133815753926 -0.032964319667973675 0.043659953382188102 -0.10509273199184288 -0.093647546753039212 0.045087418390223885 -0.011484099479547198 0.007994851303485569 0.029180017812488569 -0.037336075030824055 0.066567128410567597
leaf_weight=271.10516482591629 11.303948730230337 40.505848154425621 108.71848633885384 9.7004084736108798 182.16788071393967 22.90088127553463 82.758079409599304 14.659771397709845 30.121864646673203 419.71450644731522 29.089770406484604 150.84806333482265 162.08707892894745 13.592111170291899 18.346359848976139 4.2559542506933203 8.5098104327917081 11.210091814398767 5.8654241412878028 29.561843082308769 59.977085515856743 16.638039246201515 13.475769221782683 13.960230216383936 13.574739918112753 11.182321444153784 6.3834097534418097 6.2974836379289618 6.3848067522048941 16.617912709712982
leaf_count=586 28 90 704 26 1279 113 152 48 187 705 88 332 415 97 49 9 49 48 13 143 196 82 21 23 77 39 26 26 24 92
internal_value=-0.0345908 -0.0467345 0.0202827 -0.0539281 0.0395703 -0.0601332 -0.0631325 -0.0414533 -0.00874327 -0.0703294 -0.056218 -0.077754 -0.0528869 -0.00855726 -0.00449685 0.037207 -0.0295691 -0.0205774 0.0163924 0.0218517 -0.0330598 0.0035776 -0.0461971 -0.0251354 0.000646814 -0.0571048 -0.0601711 -0.0336271 0.0212399 0.0376181
internal_weight=1791.52 1539.44 149.224 1390.21 252.079 1222.35 1159.82 289.067 167.863 870.758 300.195 570.563 244.845 69.9108 62.5253 34.3778 39.6244 133.485 33.6934 44.2216 99.7913 26.3384 73.4529 56.3187 31.1762 25.1426 24.7298 17.6014 14.8946 27.828
internal_count=5767 4198 794 3404 1569 2730 2469 758 674 1711 674 1037 567 290 261 196 148 478 153 191 325 108 217 193 131 62 75 54 73 140
is_linear=0
shrinkage=0.05


Tree=10
num_leaves=31
num_cat=0
split_feature=3 27 17 2 17 22 3 17 0 31 2 59 31 44 6 2 31 5 50 31 36 9 12 2 43 3 26 40 44 57
split_gain=584.212 266.981 190.549 129.679 85.3263 78.8076 67.623 100.564 50.1946 48.7634 43.6062 35.362 31.3832 30.5924 30.0926 29.509 28.051 42.7907 23.5981 23.135 21.059 29.4808 33.868 20.8502 19.9225 31.7334 19.7073 19.0937 14.9963 13.6464
threshold=3.0801336174526921 0.2128869061318012 5.4755592435414924 -1.0932291901372364 4.1054454556487174 40.251643731257282 1.0654302303724095 5.3177290018064172 0.2387496104320079 82.877502441406264 -5.6312525948212562 5.6761330938840784 131.52500152587893 0.48710317460317465 -2.7599725801551007 10.043899177163576 122.91749954223634 -0.62160803979336421 5.0182121155533883 89.138000488281264 0.93957703679524807 0.33909804324958609 14.840886604370642 4.7480812829528869 12.984999656677248 1.4205011259327096 0.84367782965836902 -0.046109436644686801 0.74305555555555569 1.7836563410282615
decision_type=2 2 2 2 2 2 2 2 2 2 2 2 2 2 2 2 2 2 2 2 2 2 2 2 2 2 2 2 2 2
left_child=1 3 14 5 15 20 8 9 16 -8 -7 -11 13 -12 -3 23 19 -18 -9 -5 21 28 -23 -2 -16 -26 -25 -28 -1 -22
right_child=4 2 -4 6 -6 10 7 18 -10 11 12 -13 -14 -15 24 -17 17 -19 -20 -21 29 22 -24 26 25 -27 27 -29 -30 -31
leaf_value=-0.0083083501390288691 0.067181726236097083 0.031699254929946324 0.053633642484526893 -0.04332072158209798 0.057368332943833956 0.048824474270287542 0.043596799645630388 0.061341167060975588 0.027695107566773926 -0.064098141457863356 0.063467807045559627 -0.029487486116146766 -0.070874732809746752 -0.018707554750577716 -0.084318730129497532 0.059542711950957943 -0.067367769431729049 0.074689032198046859 -0.033272187719493404 -0.077837977020686969 -0.035142994820356342 -0.047062487921727111 0.03295438505025923 -0.074051265404691702 -0.060396647685349893 0.044344342158303227 -0.045790196652063075 0.032409404787026856 -0.07882208461558958 0.069888735806066998
leaf_weight=8.4601192176341993 5.6511687040328971 10.724399358034132 110.24270132184029 53.303283974528313 175.2617801129818 43.659054338932037 12.891315981745718 25.56878849864006 12.720475777983664 288.72246000170708 15.777386426925657 99.141664236783981 18.352868765592575 40.141447827219963 36.191498667001724 13.054380089044569 15.651638925075533 8.0160674899816495 8.8789956420660001 543.71889217197895 6.1293843090534192 50.687539398670197 17.892063319683075 19.157726854085922 26.673300683498383 9.9211200326681119 16.916602000594139 14.493680819869043 69.335902497172356 6.2418525665998459
leaf_count=25 32 50 740 133 1279 231 53 128 60 594 83 268 41 131 64 97 29 33 29 964 20 150 84 40 67 47 51 70 141 33
internal_value=-0.0329903 -0.0443969 0.0104774 -0.0523 0.0387997 -0.0217916 -0.060199 -0.0450249 -0.0706249 -0.0520716 0.0091688 -0.0552513 -0.014142 0.00447806 -0.0464936 -0.008179 -0.0726398 -0.0192542 0.0369544 -0.0747562 -0.0447916 -0.0500859 -0.0261865 -0.0239043 -0.0580147 -0.0320003 -0.0340835 -0.00970647 -0.0711539 0.0178503
internal_weight=1783.58 1539.04 193.753 1345.29 244.535 276.678 1068.61 435.203 633.41 400.755 117.931 387.864 74.2717 55.9188 83.5103 69.2736 620.69 23.6677 34.4478 597.022 158.747 146.376 68.5796 56.2192 72.7859 36.5944 50.568 31.4103 77.796 12.3712
internal_count=5767 4198 968 3230 1569 939 2291 1072 1219 915 486 862 255 214 228 290 1159 62 157 1097 453 400 234 193 178 114 161 121 166 53
is_linear=0
shrinkage=0.05


Tree=11
num_leaves=31
num_cat=0
split_feature=3 27 17 9 17 0 2 13 0 22 43 31 43 12 33 2 12 57 43 5 3 0 52 6 3 34 38 26 4 50
split_gain=530.005 238.753 168.779 120.093 81.601 63.5221 58.5187 40.3583 36.3749 32.0171 31.9765 29.4493 28.5739 28.3632 24.0072 22.0008 26.3114 21.8362 21.3431 25.8813 27.9396 31.2043 21.2388 21.1849 18.9795 18.6705 18.0677 16.3255 16.1984 15.6213
threshold=3.0801336174526921 0.22167635506464958 5.2691339035761855 1.7618481624636309 4.2036698170787981 0.24401946866560012 8.4919629376787054 14.168458393478867 0.1709852754844961 62.323709829526898 14.295000076293947 89.444999694824233 11.635000228881838 20.040684259117945 -0.41644263331395698 1.2857228788544124 14.546591099489619 8.3704677561230252 11.775000095367433 3.4267620982036013 1.4205011259327096 0.1214481477285224 0.97500038146972667 10.860440593817158 3.9009827683565805 -0.69429167676605663 22.968041419982914 0.83341163384174388 6.9493013952010143 -5.2797092566499062
decision_type=2 2 2 2 2 2 2 2 2 2 2 2 2 2 2 2 2 2 2 2 2 2 2 2 2 2 2 2 2 2
left_child=1 3 18 5 10 6 7 12 -9 11 24 -8 -1 15 -7 16 25 -15 -3 20 21 -20 -16 -18 28 -5 -24 -26 29 -2
right_child=4 2 -4 13 -6 14 9 8 -10 -11 -12 -13 -14 17 22 -17 23 -19 19 -21 -22 -23 26 -25 27 -27 -28 -29 -30 -31
leaf_value=-0.045191756760379773 0.053262646993913337 -0.081518738993756917 0.050687459749439882 0.022912526786618523 0.057513911097446441 0.036804106008204107 0.018700578231640223 -0.067562128632211421 -0.040847590949945611 0.043214823792809089 0.054233273919668736 -0.046328345904636629 0.08179363171766893 0.051592750796332035 -0.058589554874269784 -0.070120626860809568 0.029742975734158433 -0.069878754298266468 -0.10198073473229596 -0.087010087924598301 0.059391484004856179 0.019082939114152892 0.05319733367251616 -0.051994988419525559 -0.054920375247042269 -0.046613343232731398 -0.062706535879865563 0.062087066112927317 -0.072192329173545108 -0.03967346965423154
leaf_weight=9.7642440795898455 6.6502505242824546 28.031327247619629 109.48758113384247 11.956736132502554 164.63364492356777 21.751459524035454 20.849178746342659 818.33717446029186 150.92276464402676 14.347603455185888 16.858006671071053 105.54890602827072 8.1089960783719999 25.990926355123523 23.616139680147171 18.354057401418686 43.194576904177666 4.3137582689523688 9.8822246044874209 12.624841734766958 11.667142376303671 11.536003753542898 10.658384531736372 9.7090083956718427 4.3074857145547858 50.185064733028412 4.9119457304477683 9.681473106145857 21.004229694604874 14.125885635614397
leaf_count=22 32 46 753 54 1251 109 77 1529 372 57 117 264 35 166 71 39 212 9 16 26 58 45 59 30 9 136 13 66 51 43
internal_value=-0.0315126 -0.0422576 0.0113047 -0.0495138 0.0380381 -0.0550426 -0.0577291 -0.0620296 -0.0634024 -0.0275673 -0.00611019 -0.0356019 0.0124209 -0.00936393 -0.00531901 -0.0192836 -0.0111731 0.0343017 -0.0471687 -0.0261039 -0.0028631 -0.036775 -0.0287005 0.0147422 -0.0243509 -0.0332358 0.0166333 0.0260581 -0.0412289 -0.00992547
internal_weight=1773.01 1535.75 183.229 1352.52 237.261 1188.82 1127.88 987.133 969.26 140.746 72.6273 126.398 17.8732 163.704 60.9379 133.399 115.045 30.3047 73.7415 45.7102 33.0854 21.4182 39.1865 52.9036 55.7693 62.1418 15.5703 13.989 41.7804 20.7761
internal_count=5767 4198 944 3254 1569 2608 2356 1958 1901 398 318 341 57 646 252 471 432 175 191 145 119 61 143 242 201 190 72 75 126 75
is_linear=0
shrinkage=0.05


Tree=12
num_leaves=31
num_cat=0
split_feature=3 27 9 17 17 0 3 17 3 2 28 31 28 43 12 43 50 40 31 17 44 6 26 13 32 26 47 18 36 56
split_gain=481.652 214.508 118.975 106.926 77.9319 65.5404 72.6135 53.0635 52.7201 63.4585 53.2257 36.7222 76.9708 31.6688 30.1895 29.5031 25.5135 24.5259 24.0235 21.4766 24.7537 21.4514 20.6286 17.6673 19.5858 17.2139 15.9871 17.3153 15.1553 15.1244
threshold=3.0801336174526921 0.3160091981562046 1.8168353572471931 5.1218642263498806 4.2036698170787981 0.16687398271844553 1.7565481743522156 4.6912528404522744 0.41018151729295743 1.3728016397746081 6.009359829548778 89.444999694824233 2.9580153709501631 11.574999809265138 20.040684259117945 14.295000076293947 5.6649305859894321 2.1722117751547425 122.91749954223634 9.7782047522060989 0.98690476190476206 -1.0823477466542661 2.6754753535413074 27.014968636996162 0.42744105053939002 1.8923700838294637 1.4271963234414933 0.13502788502788507 0.45146426924984678 0.63907914764079155
decision_type=2 2 2 2 2 2 2 2 2 2 2 2 2 2 2 2 2 2 2 2 2 2 2 2 2 2 2 2 2 2
left_child=1 2 5 29 15 6 11 13 9 10 -7 12 -1 -8 19 25 -10 -9 -13 23 28 -11 -16 24 -4 26 27 -2 -21 -3
right_child=4 3 14 -5 -6 8 7 17 16 21 -12 18 -14 -15 22 -17 -18 -19 -20 20 -22 -23 -24 -25 -26 -27 -28 -29 -30 -31
leaf_value=0.069175261320629483 0.069745497102479515 -0.015875460512376035 -0.023245901429715388 0.056261437272456409 0.056931015009932223 0.036366832108557248 -0.066629706774657502 0.039035350114891419 0.063390554655283315 0.0049864459164202374 -0.033769643120754485 -0.070317552767798455 -0.060252592446465386 -0.028697632266943447 0.051881847181636444 0.053348236022802843 -0.05186831326286731 -0.082451538251403736 -0.020593602894534772 -0.027844095382612413 -0.052419886866257995 -0.079983049609853918 -0.062853852063257415 -0.044817441753925095 0.056839754254229782 0.032711019553074192 -0.081461731371250914 -0.03311807581739222 0.065085405674496929 -0.082595857545823589
leaf_weight=15.299220904707907 4.8599338009953525 16.951520398259163 28.666473925113678 81.581547632813454 158.16713106632233 36.016585513949394 89.111703962087631 30.56085529923439 21.166795358061794 8.2621998786926252 108.65943409502506 637.36630925536156 46.101264953613281 143.84806655347347 28.900464743375778 16.295125424861908 6.2099512368440619 4.8079709112644187 25.253392860293388 5.6992409080266979 9.1839959025382978 73.564803272485733 4.5318358093500128 62.213330954313278 10.405483812093733 11.055804982781408 13.905630126595495 25.86338796466589 19.059096783399582 17.023636013269424
leaf_count=67 26 54 102 601 1251 153 166 145 111 29 320 1131 97 373 194 117 17 9 61 22 24 138 11 177 52 57 33 85 111 33
internal_value=-0.0301362 -0.0402777 -0.0456272 0.0252231 0.0373032 -0.0509611 -0.0567608 -0.0345437 -0.0282915 -0.0362128 -0.0163094 -0.0649947 -0.0280029 -0.0432074 -0.00621519 -0.00582664 0.037246 0.0225207 -0.0684225 -0.0167334 0.0176875 -0.0714035 0.0363291 -0.0282684 -0.00191782 -0.0231431 -0.0369797 -0.0168467 0.0436935 -0.0493065
internal_weight=1760.59 1530.45 1414.89 115.557 230.147 1246.23 992.349 268.329 253.88 226.503 144.676 724.02 61.4005 232.96 168.66 71.9799 27.3767 35.3688 662.62 135.228 33.9423 81.827 33.4323 101.285 39.072 55.6848 44.629 30.7233 24.7583 33.9752
internal_count=5767 4198 3510 688 1569 2817 2049 693 768 640 473 1356 164 539 693 318 128 154 1192 488 157 167 205 331 154 201 144 111 133 87
is_linear=0
shrinkage=0.05


Tree=13
num_leaves=31
num_cat=0
split_feature=3 27 17 2 17 22 3 17 2 0 31 3 31 59 11 13 5 43 6 40 2 36 9 12 17 3 3 26 0 44
split_gain=438.477 194.217 153.878 97.8788 74.5741 63.1011 56.5091 45.4754 37.8665 33.5352 29.731 67.204 30.6061 28.7979 48.7384 27.9723 27.6618 27.2112 26.8894 19.7534 19.3948 17.8067 23.6936 28.3052 17.6602 20.3473 16.3013 14.8672 14.3487 13.9778
threshold=3.0801336174526921 0.20970000210970322 5.5390135159111198 -1.0932291901372364 4.2036698170787981 40.251643731257282 1.7565481743522156 4.6912528404522744 -5.6312525948212562 0.24401946866560012 89.138000488281264 -1.8928247969939391 122.91749954223634 5.1922143263766385 20.667511791636819 15.298584432757226 4.8732333676499549 14.295000076293947 -2.7599725801551007 1.6351538244123278 -2.7482811122144977 0.93957703679524807 0.33909804324958609 14.840886604370642 4.5375814094061289 -0.04787391940109513 3.9009827683565805 0.83341163384174388 0.11150461116327186 0.65376984126984139
decision_type=2 2 2 2 2 2 2 2 2 2 2 2 2 2 2 2 2 2 2 2 2 2 2 2 2 2 2 2 2 2
left_child=1 3 18 5 17 21 9 13 -7 10 11 -5 -12 15 -15 -8 20 26 -3 -9 -10 22 -1 -24 -20 -26 -2 -28 -27 -18
right_child=4 2 -4 6 -6 8 7 19 16 -11 12 -13 -14 14 -16 -17 29 -19 24 -21 -22 -23 23 -25 25 28 27 -29 -30 -31
leaf_value=-0.062487297820290812 -0.037266687058703112 0.033156670357631861 0.051582001284552127 -0.083393822505508697 0.056378063747634134 0.047544939844149481 0.015826739501421837 0.03475871124400981 -0.010165685015269259 0.029372134931847777 -0.064798919011494288 0.019773732195205583 -0.010637730712858128 0.029397083658452745 -0.048571586218813169 -0.061594639706011395 -0.071875139832692156 0.052488857584513209 -0.068494354172014604 -0.05482892339123685 0.061610254122123835 0.018794674322001537 -0.041007743776505276 0.032467052832894347 -0.070146255085176121 -0.037433443739853488 -0.051456478685092913 0.061271550704245073 0.056638832595661527 -0.004018690326137316
leaf_weight=78.694339066743851 42.195913165807724 11.137326821684836 99.98650461435318 28.940759316086769 151.89147529751062 41.859707817435265 12.840051978826521 31.897318437695503 26.65306156873703 10.668051198124884 694.88921085000038 34.725474253296852 27.101178631186485 33.355513796210289 50.221614986658096 127.66473126411438 20.33178636431694 15.747759871184824 47.831806749105453 7.6235871016979209 14.549297839403151 12.343552112579344 51.738832861185074 17.555347427725792 11.318369552493097 7.0321184247732189 4.2699940651655188 9.2847626730799657 9.5697949677705747 12.109240859746931
leaf_count=166 126 54 739 49 1251 229 43 153 101 55 1283 120 75 117 116 251 45 117 88 17 68 53 150 84 27 24 9 66 51 40
internal_value=-0.0288584 -0.0384558 0.00928646 -0.045135 0.0365576 -0.0186034 -0.0520396 -0.0319736 0.00957241 -0.0586819 -0.0598775 -0.0271231 -0.0627659 -0.0406951 -0.0174544 -0.0545195 -0.0120116 -0.00554903 -0.0393844 0.0174772 0.0151797 -0.0389013 -0.0437137 -0.0223933 -0.0500496 -0.0184509 -0.0219429 0.0257602 0.0167924 -0.0465464
internal_weight=1746.03 1522.64 186.876 1335.76 223.39 275.835 1059.93 263.603 115.503 796.325 785.657 63.6662 721.99 224.082 83.5771 140.505 73.6434 71.4984 86.8894 39.5209 41.2024 160.332 147.989 69.2942 75.7521 27.9203 55.7507 13.5548 16.6019 32.441
internal_count=5767 4198 983 3215 1569 936 2279 697 483 1582 1527 169 1358 527 233 294 254 318 244 170 169 453 400 234 190 102 201 75 75 85
is_linear=0
shrinkage=0.05


Tree=14
num_leaves=31
num_cat=0
split_feature=3 27 0 17 17 22 2 3 17 9 22 31 6 31 28 59 47 17 18 13 43 3 40 55 21 26 43 34 0 25
split_gain=399.756 176.32 100.311 93.3077 71.3603 62.9151 62.9707 58.6186 51.6581 46.3516 44.1692 48.1924 29.9513 29.8191 65.0328 29.1442 42.0164 26.3808 26.3231 25.2481 25.126 21.6869 21.2288 17.8418 16.7042 14.745 14.389 21.199 13.7277 22.4687
threshold=3.0801336174526921 0.3160091981562046 0.16687398271844553 5.1218642263498806 4.2036698170787981 51.240144823708512 1.3728016397746081 1.7277255651350494 4.6912528404522744 4.3764383831372946 40.251643731257282 131.52500152587893 -2.7105246456786243 89.444999694824233 2.9580153709501631 5.6761330938840784 6.1300579206958536 5.6250182695139381 0.36574578940991159 15.298584432757226 14.295000076293947 -0.54622798156180963 2.1722117751547425 120.66499710083009 0.38222459801068503 1.8923700838294637 13.454999923706056 0.74480848179316894 0.10098497186069233 0.40931204473977806
decision_type=2 2 2 2 2 2 2 2 2 2 2 2 2 2 2 2 2 2 2 2 2 2 2 2 2 2 2 2 2 2
left_child=1 2 7 28 20 6 10 9 15 13 18 -12 -8 14 -1 19 -17 -11 -4 -9 25 -15 -10 -14 -19 26 27 -2 -3 -30
right_child=4 3 5 -5 -6 -7 12 8 22 17 11 -13 23 21 -16 16 -18 24 -20 -21 -22 -23 -24 -25 -26 -27 -28 -29 29 -31
leaf_value=0.066454462173230186 -0.046799706929088428 -0.076633768314255446 -0.11030395272404248 0.055071191568086222 0.055852282191462245 0.047648981526518724 0.078330749210744205 0.0093431249377865649 0.036871899711989446 0.059421618337007404 0.025210916895923852 -0.063797427663876791 -0.07698709340485152 -0.075331914499755404 -0.054869864840249027 0.03198097785391512 -0.050006775648319096 -0.07173071629221682 -0.025576439790664342 -0.055038311661754206 0.051652132852160908 -0.056097950515169581 -0.074754120766227256 -0.0080835689492533471 0.021632289385203587 0.031643919638142719 -0.10161998250674531 0.033398942696168346 -0.051530970503307516 0.072499042534386715
leaf_weight=14.515080884099005 26.331444956362247 16.879521936178207 9.8735518157482129 75.881943538784981 145.80935075134039 32.168535321950912 3.6423749178647986 16.81228119134903 34.51300361007452 12.318023473024367 93.209297180175781 18.172391258180141 73.078482627868652 219.33894956111908 46.205350205302238 31.036483317613602 31.472419679164886 11.769775211811067 128.10659778118134 161.6130844950676 15.216251872479914 441.65179993212223 4.8588993996381751 10.780993193387983 8.0797843933105451 10.789557956159113 6.6027716845273963 11.992822036147116 11.764101162552835 5.2949267774820319
leaf_count=65 73 30 18 601 1251 184 18 54 175 63 441 39 135 357 97 112 73 32 391 326 117 855 9 32 34 57 14 57 30 27
internal_value=-0.0276658 -0.0367632 -0.0415382 0.0242489 0.0358418 -0.0191588 -0.0255385 -0.049524 -0.030002 -0.0567826 -0.0127328 0.0106888 -0.0620323 -0.0594 -0.0258676 -0.038679 -0.00929879 0.00194254 -0.0316394 -0.0489719 -0.00529168 -0.0624804 0.0230961 -0.0681288 -0.0337272 -0.0208431 -0.0334482 -0.0217031 -0.0446654 -0.0130335
internal_weight=1729.78 1513.04 1403.22 109.82 216.742 369.032 336.864 1034.18 280.306 753.879 249.362 111.382 87.5019 721.711 60.7204 240.934 62.5089 32.1676 137.98 178.425 70.9328 660.991 39.3719 83.8595 19.8496 55.7166 44.927 38.3243 33.9385 17.059
internal_count=5767 4198 3510 688 1569 1258 1074 2252 749 1503 889 480 185 1374 162 565 185 129 409 380 318 1212 184 167 66 201 144 130 87 57
is_linear=0
shrinkage=0.05


Tree=15
num_leaves=31
num_cat=0
split_feature=3 27 9 17 17 0 3 17 31 3 2 4 22 12 43 50 6 21 44 11 56 55 3 26 4 50 40 56 2 38
split_gain=364.974 159.625 92.4337 87.0791 68.3471 52.8167 59.7505 75.4519 59.8527 42.3698 49.6703 46.8121 28.4553 27.0985 23.2052 22.8369 21.1984 24.395 37.095 22.8114 20.2491 18.158 13.7941 13.6919 13.4865 12.9947 13.3307 12.9891 24.1286 11.6727
threshold=3.0801336174526921 0.3160091981562046 1.7618481624636309 5.1218642263498806 4.2036698170787981 0.16687398271844553 -0.54622798156180963 5.3177290018064172 82.44800186157228 0.41018151729295743 1.4852155672849101 -9.2511987064571226 55.681369233838574 20.040684259117945 14.295000076293947 5.6649305859894321 -11.689506886218274 0.64474202537546166 0.98448773448773463 23.40661026736684 0.95683313975996909 117.15499877929689 3.9009827683565805 0.83341163384174388 6.9493013952010143 -5.2797092566499062 -0.040130768984092395 0.63907914764079155 6.9937283367198892 20.831691741943363
decision_type=2 2 2 2 2 2 2 2 2 2 2 2 2 2 2 2 2 2 2 2 2 2 2 2 2 2 2 2 2 2
left_child=1 2 5 27 14 6 29 8 -8 10 11 -7 -9 16 22 -11 -4 19 -19 -18 -12 -15 24 -24 25 -2 -27 28 -3 -1
right_child=4 3 13 -5 -6 9 7 12 -10 15 20 -13 -14 21 -16 -17 17 18 -20 -21 -22 -23 23 -25 -26 26 -28 -29 -30 -31
leaf_value=-0.052753010430232783 0.052865231675605279 0.057815293791622646 -0.095588872462241847 0.054459768627572291 0.055351136062285256 -0.048166722165063895 0.037903253143696053 -0.014163332319017225 -0.049353043592243427 0.061839883386738695 -0.07266676755745935 0.0097976527256130597 0.064837533614086507 0.051009215050976109 0.050835364570427345 -0.047544382590243711 -0.0032919491882959862 0.054857240590771475 -0.055093394391772965 -0.054211666336975432 -0.00078516182674926046 -0.057951978665900961 -0.048860992710920301 0.060464936950505879 -0.061524403562725427 -0.07690818066751022 0.018865318136563218 -0.07358985365561295 -0.063282391768269872 -0.077381164842065142
leaf_weight=65.232224673032761 6.6110751256346694 7.1819193363189724 7.6612258851528159 72.971017375588417 139.92213139683008 58.345212675631046 20.257873713970184 27.271301984786987 658.27104309201241 20.116411365568641 69.327788397669792 86.430136688053608 19.58329389244318 27.93795495480299 14.700820989906786 6.2554180324077597 54.110719554126263 27.133346892893314 10.694754853844641 37.058038264513016 11.409819871187208 4.4297885894775382 4.2326235473155966 8.8562943786382657 21.444006070494652 7.6884080320596668 6.8886720091104552 16.930259212851524 9.6274924725294095 183.3068917542696
leaf_count=129 32 34 16 601 1251 167 79 78 1360 111 129 306 109 198 117 17 212 138 26 99 36 10 9 66 51 17 26 33 20 290
internal_value=-0.0265519 -0.0351928 -0.0397019 0.023747 0.0351314 -0.0444815 -0.0497597 -0.0425104 -0.046748 -0.0240732 -0.0310859 -0.0135623 0.0188558 -0.00503951 -0.00504348 0.0358939 -0.0147828 -0.00998363 0.023772 -0.0239897 -0.0625085 0.036097 -0.0197859 0.0251117 -0.0335704 -0.00527882 -0.0316486 -0.0426774 -0.0115427 -0.0709172
internal_weight=1711.89 1501.54 1394.83 106.711 210.344 1225.81 973.923 725.384 678.529 251.885 225.513 144.775 46.8546 169.026 70.4219 26.3718 136.658 128.997 37.8281 91.1688 80.7376 32.3677 55.7211 13.0889 42.6322 21.1882 14.5771 33.7397 16.8094 248.539
internal_count=5767 4198 3510 688 1569 2811 2045 1626 1439 766 638 473 187 699 318 128 491 475 164 311 165 208 201 75 126 75 43 87 54 419
is_linear=0
shrinkage=0.05


end of trees

feature_importances:
price_vs_sma50=53
bb_width=53
volatility_20d=34
price_vs_sma200=34
usdjpy_level=34
plus_di=22
macd_histogram=22
vix_level=21
rsp_vs_spy=20
xlv_vs_xlk=18
vix_vs_realized=16
macd_signal=11
minus_di=10
rsi=10
vvix_momentum_5d=10
dxy_momentum_10d=9
vix_percentile_252d=9
vvix_level=9
bb_width_percentile=8
regime_confidence=7
usdjpy_momentum_10d=6
usdjpy_volatility=6
vix_vs_ma20=6
vvix_percentile_252d=6
atr_14=5
return_50d=5
macd=5
distance_from_20d_high=5
adx=4
dxy_level=4
vix_regime=4
xlu_vs_xlk=3
usdjpy_momentum_3d=3
vix_momentum_10d=3
usdjpy_momentum_5d=2
usdjpy_acceleration_3d=1
vix_momentum_3d=1
vix_term_structure=1

parameters:
[boosting: gbdt]
[objective: binary]
[metric: auc]
[tree_learner: serial]
[device_type: cpu]
[data_sample_strategy: bagging]
[data: ]
[valid: ]
[num_iterations: 1000]
[learning_rate: 0.05]
[num_leaves: 31]
[num_threads: 10]
[seed: 42]
[deterministic: 0]
[force_col_wise: 0]
[force_row_wise: 0]
[histogram_pool_size: -1]
[max_depth: 7]
[min_data_in_leaf: 20]
[min_sum_hessian_in_leaf: 0.001]
[bagging_fraction: 1]
[pos_bagging_fraction: 1]
[neg_bagging_fraction: 1]
[bagging_freq: 0]
[bagging_seed: 400]
[bagging_by_query: 0]
[feature_fraction: 1]
[feature_fraction_bynode: 1]
[feature_fraction_seed: 30056]
[extra_trees: 0]
[extra_seed: 12879]
[early_stopping_round: 0]
[early_stopping_min_delta: 0]
[first_metric_only: 0]
[max_delta_step: 0]
[lambda_l1: 0]
[lambda_l2: 0]
[linear_lambda: 0]
[min_gain_to_split: 0]
[drop_rate: 0.1]
[max_drop: 50]
[skip_drop: 0.5]
[xgboost_dart_mode: 0]
[uniform_drop: 0]
[drop_seed: 17869]
[top_rate: 0.2]
[other_rate: 0.1]
[min_data_per_group: 100]
[max_cat_threshold: 32]
[cat_l2: 10]
[cat_smooth: 10]
[max_cat_to_onehot: 4]
[top_k: 20]
[monotone_constraints: ]
[monotone_constraints_method: basic]
[monotone_penalty: 0]
[feature_contri: ]
[forcedsplits_filename: ]
[refit_decay_rate: 0.9]
[cegb_tradeoff: 1]
[cegb_penalty_split: 0]
[cegb_penalty_feature_lazy: ]
[cegb_penalty_feature_coupled: ]
[path_smooth: 0]
[interaction_constraints: ]
[verbosity: -1]
[saved_feature_importance_type: 0]
[use_quantized_grad: 0]
[num_grad_quant_bins: 4]
[quant_train_renew_leaf: 0]
[stochastic_rounding: 1]
[linear_tree: 0]
[max_bin: 255]
[max_bin_by_feature: ]
[min_data_in_bin: 3]
[bin_construct_sample_cnt: 200000]
[data_random_seed: 175]
[is_enable_sparse: 1]
[enable_bundle: 1]
[use_missing: 1]
[zero_as_missing: 0]
[feature_pre_filter: 1]
[pre_partition: 0]
[two_round: 0]
[header: 0]
[label_column: ]
[weight_column: ]
[group_column: ]
[ignore_column: ]
[categorical_feature: ]
[forcedbins_filename: ]
[precise_float_parser: 0]
[parser_config_file: ]
[objective_seed: 16083]
[num_class: 1]
[is_unbalance: 1]
[scale_pos_weight: 1]
[sigmoid: 1]
[boost_from_average: 1]
[reg_sqrt: 0]
[alpha: 0.9]
[fair_c: 1]
[poisson_max_delta_step: 0.7]
[tweedie_variance_power: 1.5]
[lambdarank_truncation_level: 30]
[lambdarank_norm: 1]
[label_gain: ]
[lambdarank_position_bias_regularization: 0]
[eval_at: ]
[multi_error_top_k: 1]
[auc_mu_weights: ]
[num_machines: 1]
[local_listen_port: 12400]
[time_out: 120]
[machine_list_filename: ]
[machines: ]
[gpu_platform_id: -1]
[gpu_device_id: -1]
[gpu_use_dp: 0]
[num_gpu: 1]

end of parameters

pandas_categorical:[]
