tree
version=v4
num_class=1
num_tree_per_iteration=1
label_index=0
max_feature_idx=95
objective=binary sigmoid:1
feature_names=volatility_20d atr_14 sma_200 sma_50 price_vs_sma200 price_vs_sma50 return_50d xlu_vs_xlk xlv_vs_xlk defensive_rotation mags_vs_spy rsp_vs_spy narrow_leadership adx plus_di minus_di bb_width bb_width_percentile bb_squeeze bb_expansion adx_regime_score is_trending is_range_bound regime_confidence rsi rsi_overbought rsi_extreme macd macd_signal macd_histogram distance_from_20d_high at_new_highs extended_move usdjpy_level usdjpy_momentum_3d usdjpy_momentum_5d usdjpy_momentum_10d usdjpy_acceleration_3d usdjpy_volatility yen_carry_unwind_risk dxy_level dxy_momentum_5d dxy_momentum_10d dxy_rsi eurusd_momentum_5d vix_level vix_percentile_252d vix_momentum_3d vix_momentum_5d vix_momentum_10d vix_regime vix_spike vix_vs_ma20 vix_extreme_high vix_term_structure vix_backwardation vix_term_momentum vvix_level vvix_percentile_252d vvix_momentum_5d realized_vol_20d vix_vs_realized vol_risk_premium vol_regime_transition iv_skew_25d iv_skew_10d iv_skew_50d put_iv_25d call_iv_25d iv_smile_curvature iv_slope_25d iv_slope_10d atm_straddle_price_1w atm_straddle_price_2w atm_straddle_price_1m implied_move_1w implied_move_2w implied_move_1m strangle_skew_1w strangle_skew_2w put_call_volume_ratio put_call_volume_ratio_log put_call_oi_ratio put_call_oi_ratio_log put_call_premium_ratio itm_put_otm_call_ratio otm_put_itm_call_ratio vix_short_term vix_contango vix_change vix_percentile vix3m_percentile vix_volatility vix_mean_reversion bb_width_distance_interaction trend_strength
feature_infos=[0.031905420982772791:0.95917460884574746] [0.50490826184099247:14.531176738874631] [57.794236660003662:424.52990447998047] [55.922169265747073:442.09072082519532] [-39.048298881142259:21.547984178739966] [-27.40443303255844:14.349573931218295] [-39.537337943955499:40.02239455956564] [-30.624254990930666:31.180114047005937] [-28.344319557383081:24.254202610422571] [0:1] none [-7.2118248459178247:9.538775097242393] [0:1] [8.3515416872014008:80.980705423522494] [4.9373979960723267:50.248658725477902] [4.1377497985697902:66.056381555680915] [0.48500303530025257:22.196951212851786] [0.001984126984126984:0.5] [0:0.5] [0:0.5] [0:3] [0:1] [0:1] [0.089804725048114639:1] [16.802820208480796:87.191766326844885] [0:1] [0:1] [-21.678349012183986:8.9791739497022149] [-18.143041679517701:7.9646443914687453] [-5.6368461967221251:5.6274260031882966] [0:31.00328845309928] [0:1] [0:1] [75.739997863769531:150.17599487304688] [-16.212009731598819:17.285804788088122] [-17.154886699228712:17.285804788088122] [-17.466124656514857:12.76968593626262] [-17.444804841398987:17.641143193760822] [0.18398789030465568:5.5614456312932976] [0:1] [18.082088470458984:27.343647003173828] [-7.5821565999442564:6.2405416088296972] [-9.285230552211587:8.6635654832433637] [8.8000649959642487:96.201870140903324] [-10.116561044311979:18.405858040670054] [9.1400003433227539:82.69000244140625] [0.003968253968253968:1] [-37.680097723319783:175.62776809429738] [-42.827257369400193:212.90322769669348] [-50.717273693021525:238.34996009352753] [0.5:2] none [-32.896762461825148:183.74833429206515] [0:1] [-14.044998168945312:3.2350006103515625] [0:0.5] [-20.469999313354492:16.049995422363281] [59.740001678466797:207.58999633789062] [0.003968253968253968:1] [-32.030340666974922:93.188326213875115] [3.190542098277279:95.917460884574751] [-46.064968135009565:25.186308935579497] [-46.064968135009565:25.186308935579497] [0:1] none none none none none none none none none none none none none none none none [0.51410976108486595:3.4836283531360324] [-0.6653184933573606:1.2480743808365191] none none [0.055641094032481256:12.660058068905977] [0:201] [0.52706545214500089:52.907337224285605] [0.65928906936992504:1.590032171431597] [0:1] [-0.25905672810706337:1.1559792516603906] [0.001984126984126984:0.5] [0.003968253968253968:1] none none [0:686.18999239848256] [-30.625646758031916:21.831863172258128]
tree_sizes=3056 3087 3085 3399 3308 3099 3095 3083 2870 3100 3097 3408 3000 3308

Tree=0
num_leaves=28
num_cat=0
split_feature=0 45 45 1 91 33 11 27 33 28 29 45 6 17 33 27 61 4 61 47 1 94 4 57 86 38 45
split_gain=1453.4 144.133 114.525 68.127 56.6362 53.0576 45.7731 36.1128 36.0759 33.1095 30.5835 30.1428 29.1478 28.9632 39.0143 21.0562 20.4674 20.0709 25.4468 19.0465 18.6586 14.1645 12.9426 12.7237 9.39294 7.95361 5.98406
threshold=0.15290677988699514 13.835000038146974 24.464999198913578 0.84753323704998007 0.52480158730158744 105.61199951171876 1.391589928140047 0.19087590028622972 121.70499801635744 -0.61668318107576092 -0.66823758234400998 15.015000343322756 2.3814874654806366 0.15111111111111114 109.14000320434572 3.4716464399174929 1.2708750189296156 11.022463183046922 7.161303886425479 -4.9040719804238782 1.5238159714429453 1.8703950544983596 2.9320605105193072 73.194999694824233 1.6440242841295785 0.95601783881615299 14.744999885559084
decision_type=2 2 2 2 8 2 2 2 2 2 2 2 2 2 2 2 2 2 2 2 2 2 2 2 8 2 2
left_child=1 8 5 17 10 11 -6 22 13 23 -5 -2 -9 14 -1 -15 -13 26 -19 24 -21 -10 -7 -4 -11 -25 -3
right_child=2 3 9 4 6 7 -8 12 21 19 -12 16 -14 15 -16 -17 -18 18 -20 20 -22 -23 -24 25 -26 -27 -28
leaf_value=-0.49774335453821023 -0.57694894553420406 -0.52718121900165438 -0.46582243152137559 -0.44159885011186928 -0.4888809428401395 -0.41334486827829137 -0.43668278944050448 -0.4879766618699915 -0.41646285895032203 -0.43215722915810156 -0.53548514641997891 -0.43752325528394209 -0.43551197797695834 -0.56002943215539858 -0.54985908006702033 -0.45157611238789708 -0.48684565620834014 -0.4692491019187392 -0.55309662039473373 -0.45117717230895726 -0.41469925704205507 -0.52009236259471103 -0.44757038497170665 -0.39589087480477692 -0.38626513486375258 -0.37164622475086423 -0.56561258632758571
leaf_weight=62.230007171630859 6.820905089378356 13.205249905586241 5.9139375686645499 9.7110425233840925 268.64501130580902 154.15183264017105 49.781785547733307 42.472471475601196 7.6781803965568525 14.751428246498106 81.230514585971832 34.173513293266296 70.279210388660431 184.50161325931549 84.90937077999115 4.5866863131523123 54.7034912109375 19.06906396150589 17.220419347286224 63.356764376163483 78.478784143924713 5.7794122695922852 33.652551233768463 188.74692356586456 45.666369080543518 41.21420806646347 43.479254722595215
leaf_count=226 29 51 20 31 957 458 157 151 23 46 319 108 221 760 343 15 194 65 70 207 234 22 109 535 126 109 181
internal_value=-0.470658 -0.516592 -0.423752 -0.499434 -0.490659 -0.443231 -0.48072 -0.432907 -0.541241 -0.406136 -0.52546 -0.475655 -0.455275 -0.544453 -0.527818 -0.557399 -0.467881 -0.538072 -0.509037 -0.420979 -0.430994 -0.460967 -0.419478 -0.393408 -0.39747 -0.391546 -0.55666
internal_weight=1686.41 852.028 834.382 502.342 409.368 396.254 318.427 300.556 349.685 438.128 90.9416 95.6979 112.752 336.228 147.139 189.088 88.877 92.974 36.2895 202.253 141.836 13.4576 187.804 235.875 60.4178 229.961 56.6845
internal_count=5767 3220 2547 1831 1464 1270 1114 939 1389 1277 350 331 372 1344 569 775 302 367 135 613 441 45 567 664 172 644 232
is_linear=0
shrinkage=1


Tree=1
num_leaves=28
num_cat=0
split_feature=0 45 45 1 91 33 11 33 27 28 29 45 17 33 6 33 54 4 61 0 11 54 16 94 84 45 38
split_gain=1288.2 132.43 98.4705 62.1459 51.2353 46.3732 40.496 33.0355 31.2638 28.2867 27.6993 27.4569 27.1362 36.0176 25.6267 19.7602 19.6084 18.6611 23.2259 16.1284 16.0674 13.1847 12.6482 12.5133 12.3142 5.6396 4.69923
threshold=0.15290677988699514 13.835000038146974 24.464999198913578 0.84753323704998007 0.52480158730158744 105.61199951171876 1.391589928140047 121.70499801635744 0.19087590028622972 -0.68042395272640721 -0.66823758234400998 15.015000343322756 0.15111111111111114 109.14000320434572 2.3814874654806366 119.74499893188478 1.6050002574920657 11.022463183046922 7.161303886425479 0.20996488531161547 -0.95850371737666296 -0.86249971389770497 3.2869969907984085 1.8703950544983596 0.88141779730530523 14.744999885559084 0.95601783881615299
decision_type=2 2 2 2 8 2 2 2 2 2 2 2 2 2 2 2 2 2 2 2 2 2 2 2 8 2 2
left_child=1 7 5 17 10 11 -6 12 24 22 -5 -2 13 -1 -10 -14 -13 25 -19 21 -21 -11 -4 -9 -7 -3 -24
right_child=2 3 9 4 6 8 -8 23 14 19 -12 16 15 -15 -16 -17 -18 18 -20 20 -22 -23 26 -25 -26 -27 -28
leaf_value=-0.0011657854452997789 -0.078080459842999828 -0.029361875241055407 0.039396439409698308 0.051498589381382166 0.0072401476036252979 0.12643140444287543 0.056047355018512539 0.074660930045086435 0.008095787091116741 0.11302823933142414 -0.037395597954355861 0.032920196541889539 -0.062749707473440011 -0.051389555259780742 0.05712931941520849 0.008088332462071848 -0.06577246041813925 0.025732926118426137 -0.054557253509251905 0.029158381708543121 0.085548414238362569 0.042899071475652417 0.095019496553519323 -0.022532199900808469 0.068942545186152879 -0.066859196019496525 0.11306926585440175
leaf_weight=62.211414456367493 6.6786319911479941 13.104212552309034 9.3640112876892072 9.8346471488475782 269.14081607758999 9.8194932937622053 50.469012141227722 7.8173162341117841 42.560072839260101 7.5515659451484671 80.435420155525208 84.117024123668671 175.70731310546398 83.758775979280472 71.267307162284851 10.428908035159109 5.3531222641468039 19.192617535591125 16.972282826900482 13.931164816021917 135.48619312047958 59.583503007888794 175.65557381510735 5.7456092834472656 181.26224721968174 42.706782788038254 45.374653548002243
leaf_count=226 29 51 30 31 957 25 157 23 151 20 319 280 737 343 221 38 22 65 70 46 387 191 485 22 542 181 118
internal_value=0.0244089 -0.0191856 0.0679788 -0.00278241 0.00555239 0.0499922 0.0149472 -0.0430003 0.0595397 0.0841186 -0.0277108 0.0197152 -0.046124 -0.0299846 0.0387957 -0.0587808 0.0270153 -0.0399255 -0.0119475 0.0711442 0.0802908 0.0507874 0.0963136 0.0334874 0.0718968 -0.058055 0.0987249
internal_weight=1695.53 847.525 848.005 501.856 409.88 401.058 319.61 345.669 304.909 446.947 90.2701 96.1488 332.106 145.97 113.827 186.136 89.4701 91.9759 36.1649 216.552 149.417 67.1351 230.394 13.5629 191.082 55.811 221.03
internal_count=5767 3220 2547 1831 1464 1270 1114 1389 939 1277 350 331 1344 569 372 775 302 367 135 644 433 211 633 45 567 232 603
is_linear=0
shrinkage=0.05


Tree=2
num_leaves=28
num_cat=0
split_feature=0 45 45 1 29 48 33 33 91 27 29 45 28 6 7 11 1 46 48 47 1 11 33 58 94 57 4
split_gain=1146.61 121.796 85.8868 56.7467 47.7572 45.371 40.8052 30.2792 29.0277 27.3399 26.0086 25.0592 24.6574 23.3629 20.5073 19.2368 18.1378 17.5707 21.0901 16.2504 14.0566 13.2253 13.0242 11.5097 11.1061 10.7315 5.85534
threshold=0.15290677988699514 13.835000038146974 24.464999198913578 0.84753323704998007 0.21288704192618838 1.053238080079 105.61199951171876 121.70499801635744 0.5813492063492065 0.19087590028622972 0.1486763815738851 15.015000343322756 -0.61668318107576092 -0.55715198352032635 2.9660082244535038 -0.87559647145094555 0.93361185514111511 0.019414305806710875 -8.7304425316147451 -2.826768576891475 1.4491881812989538 -1.0018961969503468 111.064998626709 0.91369047619047628 1.8703950544983596 73.194999694824233 -18.006364948321657
decision_type=2 2 2 2 2 2 2 2 10 2 2 2 2 2 2 2 2 2 2 2 2 2 2 2 2 2 2
left_child=1 7 6 17 5 -5 11 10 -6 23 14 -2 25 -11 -1 -12 -13 18 -3 21 -21 -14 -19 -8 -9 -4 -27
right_child=2 3 12 4 8 -7 9 24 -10 13 15 16 19 -15 -16 -17 -18 22 -20 20 -22 -23 -24 -25 -26 26 -28
leaf_value=-0.041918021513885115 -0.075971340387014197 -0.079204221058298996 0.023797665311622279 0.034229570881032866 -0.040754216944600796 -0.0026860227465491686 0.071324771223755898 0.069916207725784302 0.094806669597314333 -0.012120245216335613 0.013933806428727574 -0.065721674804419636 0.02824760420645361 0.047013710398473844 -0.0025073613931491257 -0.071050420208950582 0.031029080577997692 -0.058839916826988949 0.035570836287518864 0.035104958399232 0.068792422429826708 0.091087584233890989 0.0017678853009239763 0.029937668024494737 -0.021534448216087368 0.10625678070418845 0.087070011163871808
leaf_weight=184.21750536561012 6.5247336328029624 5.5699340552091625 6.0711463689804068 144.48896905779839 65.189403027296066 196.33100491762161 175.11464931070805 7.9274053275585157 4.2036055028438559 20.291875928640366 7.1539498865604392 5.1373822391033164 9.4935184866189939 94.439197540283203 40.213542684912682 96.204312115907669 84.862090095877647 60.732705473899841 14.222195342183111 52.456108719110489 75.585758060216904 70.929061397910118 10.37894946336746 18.581123232841492 5.7120994627475739 50.37731346487999 188.74029618501663
leaf_count=749 29 24 20 481 259 712 507 23 12 75 26 21 31 297 151 418 281 256 48 169 220 193 39 60 22 129 515
internal_value=0.0230925 -0.0183462 0.0637561 -0.00265446 0.00526612 0.0129642 0.0470184 -0.041377 -0.0325424 0.0558975 -0.0444143 0.0186467 0.078697 0.036555 -0.0348564 -0.0651682 0.0255063 -0.0383969 0.00327065 0.066055 0.0549914 0.0836696 -0.049994 0.0673545 0.0316175 0.0894455 0.0911123
internal_weight=1701.15 842.546 858.604 501.117 410.213 340.82 404.951 341.429 69.393 308.427 327.789 96.5242 453.653 114.731 224.431 103.358 89.9995 90.9038 19.7921 208.464 128.042 80.4226 71.1117 193.696 13.6395 245.189 239.118
internal_count=5767 3220 2547 1831 1464 1193 1270 1389 271 939 1344 331 1277 372 900 444 302 367 72 613 389 224 295 567 45 664 644
is_linear=0
shrinkage=0.05


Tree=3
num_leaves=31
num_cat=0
split_feature=0 45 45 1 91 33 11 17 33 28 29 27 33 27 45 0 6 48 46 29 54 4 1 33 33 43 4 95 30 8
split_gain=1024.26 112.077 75.862 51.8179 44.8502 36.1055 35.9187 28.0176 27.631 26.8669 24.5132 24.132 24.0257 23.1381 22.9125 22.3116 21.0174 19.7096 18.3696 18.0219 17.5876 17.1832 25.4122 16.3063 12.8997 11.9694 10.8107 10.0803 24.9873 3.81209
threshold=0.15290677988699514 13.835000038146974 24.464999198913578 0.84753323704998007 0.52480158730158744 105.61199951171876 1.1368446935400569 0.10971055088702149 109.14000320434572 0.18723402497330896 -0.66823758234400998 0.19087590028622972 119.74499893188478 3.4716464399174929 15.015000343322756 0.24890461642060774 2.3814874654806366 -8.1125864399858134 0.2020192054722442 0.21733513323264322 1.6050002574920657 12.160562504117545 0.69749490759191968 90.793998718261733 111.064998626709 47.146561897367611 2.9320605105193072 -0.82465267306170509 3.7519826370752742 10.860453081628604
decision_type=2 2 2 2 8 2 2 2 2 2 2 2 2 2 2 2 2 2 2 2 2 2 2 2 2 2 2 2 2 2
left_child=1 7 5 21 10 14 -6 8 18 -10 -5 26 13 -9 -2 19 -13 -14 -1 23 -16 24 -23 -4 -3 -21 -7 29 -29 -17
right_child=2 3 15 4 6 11 -8 12 9 -11 -12 16 17 -15 20 27 -18 -19 -20 25 -22 22 -24 -25 -26 -27 -28 28 -30 -31
leaf_value=-0.0078546223446759704 -0.074071346630597695 -0.05728757249851775 0.019519937734708656 0.047598369424636279 0.0055700847830291271 0.068779339163164352 0.04804923349186975 -0.058036555038345122 0.047419865444893461 -0.052279629081359913 -0.03560034297677224 0.0066970913845654893 0.068103916961321523 0.049567659069469444 0.02959566826836595 0.092900636121506328 0.050855317855787244 -0.033343341478231953 0.065115979058379708 0.045469309278472404 -0.064310556827392368 -0.076830013056718077 0.048009922960898663 0.073414166008136023 0.00051178418120964597 -0.022273850080073959 0.03808370699694795 0.083158238940654786 0.018203090068784261 0.065829656850514381
leaf_weight=35.632183760404587 6.3616230487823477 60.026074469089508 15.53812539577484 9.9637654572725278 259.62393742799759 160.81547802686691 61.563314646482468 198.34311760962009 7.6608641296625128 57.290313839912415 79.440680921077728 42.820337921380997 7.1354254931211498 5.1249334067106238 85.174983650445938 156.56186562776566 72.686716198921204 14.552343532443045 11.378972649574278 25.941949769854546 5.2960976064205161 6.1230749040842083 12.195357799530028 145.0792842656374 11.503161057829855 8.709704786539076 34.91108050942421 73.961875170469284 18.511424899101257 14.182592138648031
leaf_count=133 29 257 51 31 922 458 192 856 25 242 319 151 22 17 280 408 221 58 36 79 22 27 40 407 43 31 109 201 60 40
internal_value=0.0218845 -0.0175446 0.0599942 -0.00253269 0.00499362 0.0443129 0.0137122 -0.0398292 -0.0193883 -0.0405203 -0.0263282 0.0526087 -0.0499938 -0.0553262 0.017649 0.073951 0.0344851 3.35058e-05 0.00980779 0.0611451 0.0240985 -0.0369269 0.00628123 0.0682004 -0.0479924 0.028442 0.0633043 0.0834512 0.0701554 0.090652
internal_weight=1704.11 837.558 866.553 500.439 410.592 408.066 321.187 337.118 111.962 64.9512 89.4044 311.234 225.156 203.468 96.8327 458.487 115.507 21.6878 47.0112 195.269 90.4711 89.8477 18.3184 160.617 71.5292 34.6517 195.727 263.218 92.4733 170.744
internal_count=5767 3220 2547 1831 1464 1270 1114 1389 436 267 350 939 953 873 331 1277 372 80 169 568 302 367 67 458 300 110 567 709 261 448
is_linear=0
shrinkage=0.05


Tree=4
num_leaves=30
num_cat=0
split_feature=0 45 0 1 27 29 48 29 54 17 91 33 33 38 33 27 13 58 33 4 13 44 45 80 89 33 58 47 45
split_gain=917.73 103.238 68.3562 47.356 41.875 41.7384 40.0404 28.9342 28.3626 26.2371 25.7695 25.3614 25.2653 22.7716 22.4388 21.3348 18.6559 17.8448 17.3713 16.4085 21.6348 13.6397 12.0688 27.0701 11.892 16.2919 15.0077 8.79332 5.40101
threshold=0.15290677988699514 13.835000038146974 0.22327894004259857 0.84753323704998007 -0.91308724804049379 0.21288704192618838 1.053238080079 0.19318462316755416 1.0074999332427981 0.10971055088702149 0.5813492063492065 109.14000320434572 121.70499801635744 1.0101568101714038 119.74499893188478 3.4716464399174929 16.659789308831041 0.17956349206349209 107.28400039672853 11.022463183046922 29.708005841667681 0.57150637440845931 25.345000267028812 1.4705165368084188 -0.0099794754247191069 99.007499694824233 0.73485195360195366 -4.9803872383934458 14.744999885559084
decision_type=2 2 2 2 2 2 2 2 2 2 10 2 2 2 2 2 2 2 2 2 2 2 2 10 10 2 2 2 2
left_child=1 9 4 19 24 6 -5 13 22 11 -7 18 -13 -6 15 -11 -16 -9 -1 28 -21 -10 23 -4 25 -2 -26 -24 -3
right_child=2 3 8 5 7 10 -8 17 21 14 -12 12 -14 -15 16 -17 -18 -19 -20 20 -22 -23 27 -25 26 -27 -28 -29 -30
leaf_value=-0.0042933554357612444 -0.014053804942965773 -0.024619652845238947 0.068081823051313925 0.031724536022674138 0.048696853748938847 -0.038793819127274531 -0.0028638884476033487 0.040116882033116544 0.039338968910342803 -0.056234328404327009 0.087715260100086789 -0.048602944554686688 0.063925767570173403 -0.035813643526850979 -0.066777646817036587 0.046470276872950148 0.032260360423523413 0.00098944106157905975 0.077143845709993872 0.023686305569507186 -0.055526761853793127 -0.058433731148353055 0.090751206018581082 -0.014750119365189102 -0.02695643437938669 0.083384521740573189 0.06607533509768107 0.072725608829650984 -0.061999519792824233
leaf_weight=39.262723118066788 4.5220287889242163 12.686101615428923 86.68057669699192 145.78835386037827 216.93911044299603 64.263874799013138 196.37651577591896 46.443396002054214 10.323650285601614 194.56135393679142 4.2943313270807257 58.640086933970451 5.4518888294696799 8.275028243660925 7.0502483546733883 5.1914044022560111 14.605950444936751 78.212664514780045 7.8589754402637473 20.757632687687874 14.741363272070883 5.4502578973770133 102.66506196558475 11.1300693154335 6.4770048558712032 83.584351047873497 13.108382299542425 198.4126532971859 40.560342252254486
leaf_count=145 16 51 246 481 654 259 712 147 32 856 12 251 16 31 30 17 50 272 24 73 62 21 264 39 23 223 37 542 181
internal_value=0.0207747 -0.0167901 0.0566111 -0.0024178 0.0432861 0.00473873 0.0118734 0.0348942 0.0713147 -0.0383716 -0.0308696 -0.0185576 -0.0390309 0.0455917 -0.0483241 -0.0535651 1.82041e-05 0.0155672 0.00928877 -0.0355389 -0.00920782 0.00555619 0.0739151 0.0586562 0.0705498 0.0783835 0.0353092 0.0788722 -0.0530937
internal_weight=1704.32 832.091 872.224 499.469 457.562 410.723 342.165 349.87 414.662 332.623 68.5582 111.214 64.092 225.214 221.409 199.753 21.6562 124.656 47.1217 88.7454 35.499 15.7739 398.888 97.8106 107.692 88.1064 19.5854 301.078 53.2464
internal_count=5767 3220 2547 1831 1403 1464 1193 1104 1144 1389 271 436 267 685 953 873 80 419 169 367 135 53 1091 285 299 239 60 806 232
is_linear=0
shrinkage=0.05


Tree=5
num_leaves=28
num_cat=0
split_feature=0 45 45 1 91 11 45 1 16 45 4 11 29 28 11 89 6 33 40 94 15 16 46 58 35 14 13
split_gain=824.083 95.1867 61.5218 43.2888 39.321 31.5878 30.9093 30.0241 25.4462 28.5969 27.4843 25.4388 21.7323 19.5982 18.3162 16.4998 15.8565 18.2968 13.1784 16.6691 12.5726 9.43655 8.97244 8.96948 6.89512 4.31449 2.63618
threshold=0.15290677988699514 13.835000038146974 24.464999198913578 0.84753323704998007 0.52480158730158744 1.1368446935400569 15.015000343322756 0.95299394025184425 1.8963828428336524 11.284999847412111 8.1763559621036901 -1.0233878389936335 -0.66823758234400998 -0.68042395272640721 0.96129226641975551 -0.090122138997198328 9.6931531180100805 111.064998626709 20.946019172668461 18.850829847986585 17.71786777024607 3.2869969907984085 0.66567460317460325 0.66567460317460325 -1.0000000180025095e-35 15.60483044455013 21.227580146531718
decision_type=2 2 2 2 8 2 2 2 2 2 2 2 2 2 2 8 2 2 2 2 2 2 2 2 2 2 2
left_child=1 8 6 16 12 -6 23 24 9 14 -11 -10 -5 21 -1 -9 17 -3 19 -15 -20 -4 -13 26 -8 -23 -2
right_child=2 3 13 4 5 -7 7 15 11 10 -12 22 -14 18 -16 -17 -18 -19 20 -21 -22 25 -24 -25 -26 -27 -28
leaf_value=-0.069650824366271832 -0.077236226891930673 -0.050603202377477445 0.027550607440898947 0.044135610996650622 0.0049485432589293169 0.044615685364297962 0.0047684128040038579 0.095701852191519485 0.021218771300214937 -0.024379586563964755 0.031504053282245086 -0.062445568818237457 -0.033910195822135759 0.053045662686770051 0.01835074602025185 0.042894390438196123 0.037928263382455189 0.015579369275815514 0.099804842179616979 -0.0024468929465929234 0.057742115549881928 0.070487252342223458 -0.0047953484006069162 0.020470992554692428 -0.06263828619885807 0.084261599642802165 -0.02623340375369897
leaf_weight=42.857094421982765 6.0267553776502627 68.294860273599625 9.6498502939939481 10.064569175243376 260.23992389440536 62.179009541869164 8.1770830601453763 15.416183471679686 10.627004787325857 110.96800330281258 27.442737311124802 122.08505702018738 78.406281337141991 44.745270848274231 6.8591558635234824 365.35932648181915 7.0078667104244223 12.328177228569983 20.345336318016052 19.399945825338364 140.08750446140766 103.89989368617535 7.1440858244895926 6.1266760528087607 7.0774406492710105 125.53948950767517 4.3710198551416397
leaf_count=196 27 298 30 31 922 192 28 40 38 451 95 555 319 130 25 1110 24 45 51 65 398 279 29 20 28 324 17
internal_value=0.0197438 -0.0160714 0.0535268 -0.00230818 0.0044961 0.0125984 0.0394812 0.0422768 -0.0369909 -0.0249829 -0.0132995 -0.0531434 -0.0250316 0.0660241 -0.0575096 0.0450324 -0.0342126 -0.0404831 0.0554176 0.0362626 0.0630763 0.0759868 -0.0592585 -0.0275187 -0.0265054 0.078024 -0.0557956
internal_weight=1702.73 826.504 876.222 498.521 410.89 322.419 412.554 396.03 327.983 188.127 138.411 139.856 88.4709 463.667 49.7163 380.776 87.6309 80.623 224.578 64.1452 160.433 239.089 129.229 16.5245 15.2545 229.439 10.3978
internal_count=5767 3220 2547 1831 1464 1114 1270 1206 1389 767 546 622 350 1277 221 1150 367 343 644 195 449 633 584 64 56 603 44
is_linear=0
shrinkage=0.05


Tree=6
num_leaves=28
num_cat=0
split_feature=0 45 0 1 29 27 48 29 54 16 28 45 4 91 38 11 33 4 61 84 38 46 17 89 33 58 45
split_gain=741.458 87.7305 57.0443 39.5633 36.5322 35.7432 35.4267 25.482 25.1143 24.0487 28.9334 26.811 24.8694 22.9638 20.1691 17.228 16.0229 15.3663 20.6844 12.463 11.5897 10.9284 10.4965 10.4466 14.2855 13.286 5.2223
threshold=0.15290677988699514 13.835000038146974 0.22327894004259857 0.84753323704998007 0.21288704192618838 -0.91308724804049379 1.053238080079 0.19318462316755416 1.0074999332427981 1.8963828428336524 3.4165561540034894 11.284999847412111 8.1763559621036901 0.5813492063492065 1.0101568101714038 0.96129226641975551 105.25000000000001 11.022463183046922 7.161303886425479 1.4769150375421292 0.30741103821799093 0.60218253968253976 0.21556671449067435 -0.0099794754247191069 99.007499694824233 0.73485195360195366 14.744999885559084
decision_type=2 2 2 2 2 2 2 2 2 2 2 2 2 10 2 2 2 2 2 8 2 2 2 10 2 2 2
left_child=1 9 5 17 6 23 -5 14 20 11 21 15 -13 -6 -7 -1 -9 26 -19 -10 -4 -11 -22 24 -2 -25 -3
right_child=2 3 8 4 13 7 -8 16 19 10 -12 12 -14 -15 -16 -17 -18 18 -20 -21 22 -23 -24 25 -26 -27 -28
leaf_value=-0.067970530058748271 -0.015414664772097408 -0.022086781741205985 -0.016854324285410296 0.029466585736921444 -0.036952048188190111 0.043749874750303099 -0.0030027816442744267 -0.011874093672295298 0.033563668454757806 -0.059999536916052726 0.079820262268979134 -0.023347430041665559 0.02968002944296479 0.081684411892840009 -0.035798855729696953 0.017338549152364865 0.025728139490456492 0.028004904088187267 -0.049081631501463302 -0.060594584036956334 0.044155111740661862 -0.0091462446723820003 0.070248902669266242 -0.027837945208285898 0.075654627516525227 0.059517528565077339 -0.059289396433429377
leaf_weight=41.748871326446533 4.53812451660633 12.435841321945189 4.1231727600097647 146.82914826273918 63.307255029678345 219.12790548801422 196.35018718242645 43.185935750603676 10.628197669982907 121.40153266489506 4.0664948225021353 110.1025435179472 27.666807472705841 4.3598419725894919 8.2688680291175825 6.8956335037946692 82.358412712812424 18.954361587762833 16.088616326451302 5.2505232542753228 43.248717918992043 11.571736544370649 353.97621737420559 6.4886165708303478 84.245408028364182 13.222530320286749 39.067185610532761
leaf_count=196 16 51 14 481 259 654 712 157 33 562 12 451 95 12 31 25 262 65 70 20 126 48 951 23 223 37 181
internal_value=0.0187838 -0.0153852 0.0507044 -0.00220354 0.00426864 0.0385902 0.0108892 0.0308747 0.0641022 -0.0356554 -0.0515565 -0.023966 -0.0126985 -0.0293082 0.0408572 -0.0558775 0.0127934 -0.0329279 -0.00738637 0.00242891 0.0665422 -0.0555741 0.0674079 0.0636892 0.0709997 0.0307614 -0.0503065
internal_weight=1699.51 820.846 878.663 497.392 410.846 461.436 343.179 352.941 417.227 323.454 137.04 186.414 137.769 67.6671 227.397 48.6445 125.544 86.546 35.043 15.8787 401.348 132.973 397.225 108.495 88.7835 19.7111 51.503
internal_count=5767 3220 2547 1831 1464 1403 1193 1104 1144 1389 622 767 546 271 685 221 419 367 135 53 1091 610 1077 299 239 60 232
is_linear=0
shrinkage=0.05


Tree=7
num_leaves=28
num_cat=0
split_feature=0 45 45 1 91 11 45 1 7 28 17 0 44 28 16 28 46 48 47 57 33 15 16 13 38 0 3
split_gain=668.468 80.9016 52.3209 36.3004 35.0102 29.3694 26.6455 26.2984 23.6186 22.1055 23.0919 19.8494 19.5532 17.0029 16.0774 14.8636 14.629 18.2934 12.8142 11.8497 11.8254 10.9988 8.3884 8.2555 7.99068 6.59708 3.98902
threshold=0.15290677988699514 13.835000038146974 24.464999198913578 0.8527172933738042 0.52480158730158744 1.391589928140047 15.015000343322756 0.95299394025184425 2.9660082244535038 3.4165561540034894 0.073591595107988558 0.11338516998525484 0.18927628005499522 -0.68042395272640721 1.8648098563553159 -0.29021472080047339 0.019414305806710875 -8.7304425316147451 -5.7293387385241354 86.430000305175795 111.064998626709 18.781944774114411 3.2869969907984085 23.244739140302645 0.36262906295725739 0.15701796637462886 72.42983955383302
decision_type=2 2 2 2 8 2 2 2 2 2 2 2 2 2 2 2 2 2 2 2 2 2 2 2 2 2 2
left_child=1 8 6 16 11 -6 23 25 9 10 -1 -5 21 22 -14 -9 17 -3 24 -20 -18 -10 -4 -2 -15 -8 -24
right_child=2 3 13 4 5 -7 7 15 12 -11 -12 -13 14 18 -16 -17 20 -19 19 -21 -22 -23 26 -25 -26 -27 -28
leaf_value=-0.015829546076617376 -0.060092862885307068 -0.074280405176887096 0.023418624817539199 -0.0069761506897725927 0.0052414483269043396 0.046452660908848774 0.017266444303966722 0.051115103018598423 0.012268016418603691 0.074568545608818329 -0.050266837774103214 -0.05750214813827953 0.052438031138271696 0.031143231873871427 -0.042688836890507065 0.031353947053651153 -0.051122552163242879 0.034371655411412148 0.016542714601797497 0.049506947012420033 0.0053407022581236363 -0.058059422706506318 0.082710439117090778 0.011070938929957256 0.078469834610665493 -0.051285694377949803 0.067203530966985878
leaf_weight=64.164544686675072 8.8273398578166979 5.2216867953538921 9.7010962814092618 58.338378757238388 268.23865005373955 51.538211181759834 5.48136182129383 174.73355251550674 8.487686291337015 4.133404314517974 201.701944231987 29.151502937078476 18.395409598946575 10.932408124208449 5.8555680364370337 208.94378855824471 57.67046831548214 15.009810090065001 34.370387330651283 131.82163845002651 11.049789905548094 16.115027293562889 54.395221620798111 7.5704199671745291 48.426563143730164 9.755972668528555 174.5610439479351
leaf_count=258 38 24 30 225 946 155 18 501 33 12 923 125 63 33 27 649 263 51 108 377 42 73 138 26 126 38 465
internal_value=0.0178894 -0.014732 0.0481204 -0.00210474 0.00421541 0.0118834 0.0352274 0.0377951 -0.0343833 -0.0401718 -0.0419557 -0.0238113 -0.00239184 0.0596554 0.029469 0.0403535 -0.0310416 0.00632889 0.0498121 0.0426896 -0.0420436 -0.0337972 0.0689581 -0.0272384 0.0697535 -0.0266253 0.0708876
internal_weight=1694.59 815.072 879.521 496.218 407.267 319.777 415.312 398.915 318.854 270 265.866 87.4899 48.8537 464.208 24.251 383.677 88.9518 20.2315 225.551 166.192 68.7203 24.6027 238.657 16.3978 59.359 15.2373 228.956
internal_count=5767 3220 2547 1831 1451 1101 1270 1206 1389 1193 1181 350 196 1277 90 1150 380 75 644 485 305 106 633 64 159 56 603
is_linear=0
shrinkage=0.05


Tree=8
num_leaves=26
num_cat=0
split_feature=0 45 0 1 29 48 29 91 33 58 29 54 58 38 1 7 11 4 1 44 33 38 84 94 33
split_gain=603.587 74.5478 48.33 33.1994 33.5648 34.1718 30.5445 27.2821 23.3606 23.1217 22.5219 22.5123 21.1959 21.0365 22.932 17.7968 16.8388 14.0784 20.7246 12.0189 11.3957 10.3407 9.56597 8.79348 4.29946
threshold=0.15290677988699514 13.835000038146974 0.22327894004259857 0.8527172933738042 0.21288704192618838 1.053238080079 0.19318462316755416 0.67700501253132839 121.70499801635744 0.24305555555555558 0.1486763815738851 1.0074999332427981 0.70337301587301593 1.0291323625328543 1.4562468158778596 2.9660082244535038 -0.87559647145094555 12.160562504117545 0.69749490759191968 0.57150637440845931 111.064998626709 0.30741103821799093 1.3701364636539133 1.8703950544983596 108.7779998779297
decision_type=2 2 2 2 2 2 2 10 2 2 2 2 2 2 2 2 2 2 2 2 2 2 10 2 2
left_child=1 8 6 17 5 -5 13 9 10 -8 15 21 -6 14 -2 -1 -12 20 -19 -13 -3 -4 -23 -10 -9
right_child=2 3 11 4 12 -7 7 24 23 -11 16 19 -14 -15 -16 -17 -18 18 -20 -21 -22 22 -24 -25 -26
leaf_value=-0.033898514584750704 0.033302471701583965 -0.049832944191711491 -0.018329954307659907 0.028688130595658376 -0.04015481063937007 -0.0033149687694465167 0.03088060712697829 0.041270380729026224 0.064490478520396813 -0.012829124644610716 0.018539874679899992 0.031199491334792908 0.040781617196896464 -0.02964010813189143 0.0605587953111828 0.0037462862239333984 -0.06276670499733876 -0.071783349103655039 0.042417357160449004 -0.060245537089410418 0.0034646253563111007 0.064263668056070519 0.041284948854783156 -0.017384297509281263 0.091889196716673949
leaf_weight=170.54014207422733 174.92265741527081 56.666017353534698 4.125805750489234 145.34836488962173 56.677651688456535 195.74143607914448 54.717224314808846 6.725924581289294 8.0241512507200223 67.676597639918327 6.8838672488927832 10.476768940687178 9.4358966648578626 9.6461151242256147 138.09107761085033 38.479759320616722 84.967033207416534 5.6676643341779736 13.284324988722799 5.4689075052738181 12.185925260186194 343.99878299236298 52.158903807401657 5.5461343377828589 11.148060545325277
leaf_count=749 528 263 14 472 237 710 172 20 23 239 26 32 32 35 381 151 418 27 44 21 46 927 150 22 28
internal_value=0.0170501 -0.014104 0.0457339 -0.00201037 0.00400249 0.0103225 0.0346177 0.0151385 -0.0331423 0.00671169 -0.0360367 0.0580972 -0.0286034 0.0430859 0.045327 -0.0269683 -0.0566731 -0.0298958 0.0082652 -0.000163518 -0.0403999 0.0604181 0.0612382 0.0310285 0.0728415
internal_weight=1688.61 809.448 879.157 495.007 407.203 341.09 462.928 140.268 314.441 122.394 300.871 416.229 66.1135 322.66 313.014 209.02 91.8509 87.8039 18.952 15.9457 68.8519 400.283 396.158 13.5703 17.874
internal_count=5767 3220 2547 1831 1451 1182 1403 459 1389 411 1344 1144 269 944 909 900 444 380 71 53 309 1091 1077 45 48
is_linear=0
shrinkage=0.05


Tree=9
num_leaves=28
num_cat=0
split_feature=0 45 45 11 56 33 16 45 28 4 40 50 27 6 28 11 61 14 47 1 46 30 46 58 57 84 38
split_gain=545.689 68.7152 45.4977 30.4514 31.0436 23.8863 21.5245 25.3683 24.2084 22.9063 19.4145 16.9255 16.6726 18.5973 15.7545 15.3786 14.8416 13.7059 12.9911 12.5457 10.8986 10.781 15.9734 10.1018 9.34029 6.27449 5.36239
threshold=0.15290677988699514 13.835000038146974 24.464999198913578 2.3557988493202231 0.73000001907348644 105.61199951171876 1.8963828428336524 11.284999847412111 3.4165561540034894 8.1047149694406837 21.088943481445316 0.75000000000000011 0.19087590028622972 -0.55715198352032635 -0.61668318107576092 0.96129226641975551 1.2708750189296156 17.844912639116298 -4.9040719804238782 1.5238159714429453 0.63194444444444453 4.9922761052635112 0.020833333333333336 0.91369047619047628 73.194999694824233 1.2514771514182621 0.95601783881615299
decision_type=2 2 2 2 2 2 2 2 2 2 2 2 2 2 2 2 2 2 2 2 2 2 2 2 2 10 2
left_child=1 6 5 4 10 11 7 15 20 -9 -3 -2 23 -14 24 -1 -13 -6 25 -20 -8 22 -5 -7 -4 -16 -26
right_child=2 3 14 21 17 12 8 9 -10 -11 -12 16 13 -15 18 -17 -18 -19 19 -21 -22 -23 -24 -25 26 -27 -28
leaf_value=-0.064882513290188293 -0.071115951136148423 0.0015495837675466597 0.0026278546171324968 -0.02327592710033171 -0.01988165908980306 0.050710147000364726 -0.055663150705800135 -0.020538954254070346 0.070930784554453147 0.029948761244041108 -0.020911161587436528 0.040470546925828514 -0.019464933556789951 0.032517112385773227 0.069040213615445503 0.015875150332940326 -0.00061207636519626507 0.040013998404442488 0.020295691064639645 0.049355138692362369 0.0010767679306674051 -0.023636402244360345 0.062048546126440098 0.012510891777624026 0.061018528672512728 0.020313943035934135 0.080514254515398537
leaf_weight=39.320798605680466 6.0319903194904319 172.75386293232441 6.2608135044574729 6.6280159652233115 11.972581699490545 180.07979023456573 115.7523133456707 106.17730070650578 4.1714866459369651 28.495065078139305 217.13568225502968 35.915855392813683 20.888002172112465 97.613933116197586 56.22798290848732 6.9347575306892386 56.67363652586937 47.225480332970619 67.133232265710831 83.137751862406731 9.1307287365198118 6.2160690724849692 31.811141118407249 19.147534847259521 198.28793516755104 7.4864724278450003 42.902573704719543
leaf_count=196 29 625 20 25 45 507 571 447 12 99 866 108 75 297 149 25 194 156 207 234 39 22 92 60 535 23 109
internal_value=0.0162616 -0.0135053 0.043517 -0.0019212 -0.00583676 0.0315331 -0.0319565 -0.0208289 -0.0475568 -0.00985636 -0.0109592 0.0100371 0.0382054 0.0233544 0.0543299 -0.0527751 0.015324 0.0279003 0.0443949 0.0363729 -0.0515147 0.0374567 0.0473362 0.0470389 0.0629213 0.0633149 0.0644864
internal_weight=1681.51 803.725 877.788 493.743 449.088 416.351 309.982 180.928 129.055 134.672 389.89 98.6215 317.729 118.502 461.437 46.2556 92.5895 59.1981 213.985 150.271 124.883 44.6552 38.4392 199.227 247.451 63.7145 241.191
internal_count=5767 3220 2547 1831 1692 1270 1389 767 622 546 1491 331 939 372 1277 221 302 201 613 441 610 139 117 567 664 172 644
is_linear=0
shrinkage=0.05


Tree=10
num_leaves=28
num_cat=0
split_feature=0 45 45 1 91 46 45 1 33 29 29 33 11 28 32 46 11 94 57 4 33 14 16 58 35 14 13
split_gain=494.138 63.456 41.9806 29.3957 30.1566 24.6796 21.6717 22.6515 21.354 21.2764 18.7207 17.3155 16.948 14.8115 14.2957 13.3941 17.2373 11.5508 32.7862 12.8059 10.463 8.36888 7.5844 7.45285 6.27993 4.10441 2.13933
threshold=0.15290677988699514 13.835000038146974 24.464999198913578 0.8527172933738042 0.52480158730158744 0.18353174603174607 15.015000343322756 0.95299394025184425 121.70499801635744 0.1486763815738851 -0.66823758234400998 111.68500137329103 -0.91105944501716485 -0.68042395272640721 1.0000000180025095e-35 0.019414305806710875 1.4872931325080165 21.835866879123447 87.575000762939467 12.160562504117545 111.064998626709 24.229188322029774 3.2869969907984085 0.66567460317460325 -1.0000000180025095e-35 15.60483044455013 21.227580146531718
decision_type=2 2 2 2 8 2 2 2 2 2 2 2 2 2 2 2 2 2 2 2 2 2 2 2 2 2 2
left_child=1 8 6 15 10 -6 23 24 9 11 -5 -1 -11 22 -9 16 -3 19 -19 -15 -17 -10 -4 26 -8 -24 -2
right_child=2 3 13 4 5 -7 7 14 21 12 -12 -13 -14 17 -16 20 -18 18 -20 -21 -22 -23 25 -25 -26 -27 -28
leaf_value=-0.01165912066715287 -0.07368223301215529 0.033645003947687872 0.017448983533462491 0.041455984050301611 0.03711652311604334 0.003525418366332292 0.0021750795207515199 0.032821439990408277 -0.0089728046605951958 0.023720852773437356 -0.030900837978201253 -0.040914409815096031 -0.060499396663676853 0.055620029793668237 0.085991333857225113 -0.048068655760091228 -0.075031718566059336 -0.064003117590841374 0.038836906897066696 0.0095546000488131669 0.0052381797578242269 0.069706973586265195 0.055135929251016229 0.016402457326577802 -0.062229929629688707 0.068713260493285688 -0.026979493434028164
leaf_weight=112.24276366829872 5.6690040081739443 15.181550592184069 9.7196415662765485 10.125806108117102 69.957103103399277 250.39209613204002 8.2029770463705045 371.68315434455872 6.7200488746166211 6.448214963078498 76.289105147123337 92.064018234610558 81.132172584533691 135.77500703930855 13.087079122662542 55.183417215943336 4.8030229806900016 8.8362004160881025 63.051607668399811 16.972911909222603 11.048128351569174 6.7993066608905792 101.76689554750919 6.1722315549850455 7.0274090468883506 122.86424335837364 4.3211499005556107
leaf_count=469 27 53 30 31 220 881 28 1116 25 24 319 431 420 375 34 263 22 33 182 54 42 20 279 20 28 324 17
internal_value=0.0155194 -0.0129259 0.0414697 -0.00183098 0.00379011 0.010861 0.0299691 0.0322626 -0.0308351 -0.0336804 -0.0224223 -0.024842 -0.0542986 0.0518973 0.0346299 -0.028351 0.00752602 0.0427232 0.0261962 0.0505014 -0.0391765 0.0305977 0.0606911 -0.0267935 -0.0275419 0.0625622 -0.0534814
internal_weight=1673.54 798.387 875.15 492.98 406.764 320.349 416.163 400.001 305.407 291.887 86.4149 204.307 87.5804 458.987 384.77 86.2161 19.9846 224.636 71.8878 152.748 66.2315 13.5194 234.351 16.1624 15.2304 224.631 9.99015
internal_count=5767 3220 2547 1831 1451 1101 1270 1206 1389 1344 350 900 444 1277 1150 380 75 644 215 429 305 45 633 64 56 603 44
is_linear=0
shrinkage=0.05


Tree=11
num_leaves=31
num_cat=0
split_feature=0 45 27 0 1 29 14 29 58 80 7 43 17 48 44 4 28 6 33 89 33 16 49 15 28 13 46 29 47 37
split_gain=447.664 58.5007 39.9699 29.8266 26.9954 27.0088 26.1423 23.3264 22.778 22.5922 20.6823 21.9933 37.528 18.956 17.5295 15.8851 15.4364 15.1178 15.4457 14.2412 13.6749 13.1038 12.2026 10.5287 9.24654 9.20349 8.7407 8.01117 9.60383 1.644
threshold=0.15290677988699514 13.835000038146974 -0.91308724804049379 0.21262924318678911 0.8407742439914706 0.31600773856560044 15.046406944280582 0.19318462316755416 0.72281323877068571 1.4524588392866427 2.9660082244535038 46.153806963098525 0.079598506069094313 -17.364686178379504 0.18927628005499522 -1.4756549601351296 5.2587472228535193 9.6931531180100805 111.064998626709 -0.030099990845935228 109.07649993896486 1.8648098563553159 26.828414507754733 18.781944774114411 0.026901508183964078 34.122411935654249 0.7509920634920636 -0.5340829190318529 6.1923419086026508 -0.82484782751843777
decision_type=2 2 2 2 2 2 2 2 2 10 2 2 2 2 2 2 2 2 2 10 2 2 2 2 2 2 2 2 2 2
left_child=1 10 19 7 17 6 -6 13 -7 15 11 24 -13 -4 23 -5 -9 18 -3 27 22 -16 -21 -12 -1 -22 -11 29 -29 -2
right_child=2 4 3 9 5 8 -8 16 -10 26 14 12 -14 -15 21 -17 -18 -19 -20 20 25 -23 -24 -25 -26 -27 -28 28 -30 -31
leaf_value=0.0041464715627558026 0.060193557856516394 -0.045510686541603791 -0.031520609508597371 0.039526704584800613 -0.026225548695663625 -0.047942107310814837 0.012974591523311978 -0.0010154567746725538 0.059248734960890559 -0.055160074870550801 0.015291753875159554 0.031618014940714409 -0.035064892235309411 0.035051850040156859 0.050696805425694103 0.066924756854948628 0.082585088956956529 0.044374128983219824 0.016072285730077501 -0.057841063003768782 0.05396836016139344 -0.037563816084424863 0.037608067139423586 -0.054678948647474003 -0.05259873669103371 -0.0073856140427135293 0.016550316639198141 0.061703326830601091 0.034200001810498509 0.081194118204097582
leaf_weight=7.6127577275037757 11.795060232281683 60.200712725520134 11.286576330661772 151.1568221449852 49.047630980610847 37.798268139362335 320.13144299387932 105.626479819417 5.7039999365806571 6.3942249268293407 8.2918865531682986 27.327516630291939 92.575782746076584 203.30160515010357 18.515435025095943 81.390611544251442 5.8262082934379569 6.5233238339424124 12.254427105188368 6.8425284028053266 44.565604835748672 5.4411868602037421 6.5575118064880371 15.289966031908987 125.97980247437954 7.0839216113090506 12.667986214160917 131.4115172624588 41.848388120532036 44.397933542728424
leaf_count=33 32 289 40 436 184 167 1106 360 18 24 33 99 442 603 63 218 15 22 45 25 123 27 19 73 619 23 39 355 122 113
internal_value=0.0148176 -0.0123782 0.0395357 0.0318929 -0.00174969 0.00337573 0.00776662 0.0219121 -0.0338873 0.0448263 -0.0297371 -0.0354125 -0.019867 0.0315504 0.000526729 0.0491159 0.00335478 -0.0285312 -0.0350951 0.0545266 0.0338765 0.0306505 -0.0111316 -0.0300757 -0.0493651 0.0455534 -0.00750421 0.0603809 0.0550603 0.076786
internal_weight=1664.85 792.694 872.153 577.651 491.66 412.681 369.179 326.041 43.5023 251.61 301.034 253.496 119.903 214.588 47.5385 232.547 111.453 78.9785 72.4551 294.502 65.0496 23.9566 13.4 23.5819 133.593 51.6495 19.0622 229.453 173.26 56.193
internal_count=5767 3220 2547 1735 1831 1475 1290 1018 185 717 1389 1193 541 643 196 654 375 356 334 812 190 90 44 106 652 146 63 622 477 145
is_linear=0
shrinkage=0.05


Tree=12
num_leaves=27
num_cat=0
split_feature=0 45 0 33 11 56 43 29 27 28 23 33 3 45 29 40 54 38 14 24 95 30 29 94 16 89
split_gain=405.945 53.9354 37.5337 26.8748 25.7998 26.9936 23.971 22.3344 20.3049 22.334 19.6415 20.0021 22.288 19.2139 16.1389 15.5827 14.3572 13.0024 11.8901 10.0554 26.1291 9.14479 14.7437 4.83019 2.05357 0.488489
threshold=0.15290677988699514 13.835000038146974 0.26257704363479523 107.66350173950197 2.3557988493202231 0.73000001907348644 51.415199922920166 -0.49295909526421572 0.19087590028622972 1.2306940595458478 0.6109054765043348 119.74499893188478 100.57768875122072 11.00500011444092 0.34679582774674494 21.088943481445316 1.0074999332427981 0.82522833803746021 17.844912639116298 57.337787210806759 -0.53515674865707041 4.9922761052635112 0.063241362998985765 3.6172589699717479 4.4819465678734067 -0.030548473691736629
decision_type=2 2 2 2 2 2 2 2 2 2 2 2 2 2 2 2 2 2 2 2 2 2 2 2 2 8
left_child=1 10 3 6 5 15 14 -8 17 -10 11 13 -13 -1 -2 -3 19 -5 -7 20 -4 22 -6 25 -21 -12
right_child=2 4 16 8 21 18 7 -9 9 -11 23 12 -14 -15 -16 -17 -18 -19 -20 24 -22 -23 -24 -25 -26 -27
leaf_value=-0.064075040039934847 0.03834010126236851 0.0010361228665496779 0.060636270312543962 0.050734221674947094 0.065658101273400285 -0.018705367214541808 0.043590305451363415 -0.01943033921343167 0.0079202001623451309 0.053858305633419416 -0.047401850027538307 -0.072429567005961634 0.039750483569089889 -0.022277264367091865 -0.0022467884637205437 -0.019162676437846277 -0.0046060437761416169 0.013522372799477975 0.037200377682053476 0.054480130255111586 0.019328347179508293 -0.021911881169496675 0.00029854027027792306 -0.0051991261080884393 0.083864342349257298 -0.06637652312346648
leaf_weight=32.050192758440971 109.63141210377216 172.65825827419758 169.56723448634148 228.53965052962303 25.533643007278442 11.883109688758848 18.22519887983799 61.49750067293644 85.081399634480476 38.399488240480423 3.7402904331684113 5.5528933405876186 21.851549237966537 193.43873271346092 31.539276078343391 213.62243865430355 10.322334825992582 26.161923721432686 47.637184619903564 7.2605355232954016 49.445335045456886 6.1867794245481482 13.032245099544523 3.7398492395877829 32.839697644114494 36.418354779481888
leaf_count=172 324 625 461 637 71 45 52 217 273 108 19 27 76 880 107 866 34 81 156 20 150 22 46 17 83 198
internal_value=0.0141508 -0.0118507 0.0377223 0.0307515 -0.00167163 -0.0053047 0.0168948 -0.00502335 0.0388451 0.0222058 -0.0286752 -0.0233161 0.0170197 -0.0282183 0.0292725 -0.0101343 0.0532214 0.046912 0.0260389 0.0555251 0.0513104 0.034519 0.0435717 -0.0595479 0.078544 -0.0646093
internal_weight=1655.86 787.346 868.511 599.076 490.554 445.801 220.893 79.7227 378.182 123.481 296.792 252.893 27.4044 225.489 141.171 386.281 269.435 254.702 59.5203 259.113 219.013 44.7527 38.5659 43.8985 40.1002 40.1586
internal_count=5767 3220 2547 1799 1831 1692 700 269 1099 381 1389 1155 103 1052 431 1491 748 718 201 714 611 139 117 234 103 217
is_linear=0
shrinkage=0.05


Tree=13
num_leaves=30
num_cat=0
split_feature=0 45 27 0 1 29 48 54 35 52 7 43 17 29 15 0 30 89 33 4 1 45 49 16 13 28 49 57 29
split_gain=368.422 49.7193 35.8189 25.7118 23.94 26.6425 28.1225 20.6947 20.1592 19.3231 19.2576 20.5689 34.5324 16.9919 16.3925 16.7195 16.3046 14.031 12.5949 12.3718 16.5127 11.1394 10.7348 9.18578 8.78946 8.70567 6.91612 6.69003 4.74665
threshold=0.15290677988699514 13.835000038146974 -1.0264742188852372 0.22327894004259857 0.8527172933738042 0.21288704192618838 1.053238080079 1.0074999332427981 1.888914942171849 -3.7093967204859264 2.9660082244535038 46.153806963098525 0.079598506069094313 0.19318462316755416 15.870501869302799 0.087629219538323824 3.7519826370752742 -0.030099990845935228 109.07649993896486 12.160562504117545 0.71977854128032359 14.744999885559084 26.828414507754733 2.8793206230729704 34.122411935654249 0.026901508183964078 -13.945838727200259 75.544998168945327 -0.5340829190318529
decision_type=2 2 2 2 2 2 2 2 2 2 2 2 2 2 2 2 2 10 2 2 2 2 2 2 2 2 2 2 2
left_child=1 10 17 8 19 6 -6 16 13 -7 11 25 -13 -4 -12 -16 -5 27 22 21 -21 -3 -19 -10 -20 -1 -9 -2 -29
right_child=2 4 3 7 5 9 -8 26 23 -11 14 12 -14 -15 15 -17 -18 18 24 20 -22 -23 -24 -25 -26 -27 -28 28 -30
leaf_value=0.0050546884577598629 0.014941732854981977 0.0033562277645839949 0.031783045452597573 0.056207404411417618 0.025572122440641089 -0.043966614932931622 -0.0034217220765976556 0.011264960474881359 -0.080806102542934993 0.015868994994627905 0.056674327440479524 0.031031086978562786 -0.033083896330011686 0.0084668169353680663 -0.063879660014322034 0.0089312472930146262 0.027463624942946636 -0.056195892509570855 0.050471947922396655 -0.0494311159763842 0.047502052281608483 -0.047017538437279412 0.033600655073994783 -0.006141703855050455 -0.0097077433183194155 -0.050319292670197108 -0.063477716207552881 0.072309721803557991 0.054756188277110457
leaf_weight=7.5405721217393866 8.8142270445823652 13.973095566034315 228.06562134623528 139.17155750095844 146.19217574596405 45.134892329573631 195.44412642717361 7.5305473506450653 5.8111624270677593 19.246040314435959 10.523637428879736 27.400883048772812 89.92143777012825 118.86252711713314 11.550862208008764 24.83937081694603 76.43012036383152 6.8433300554752332 43.649688929319382 7.1552322357893017 11.382993981242178 51.144851759076118 6.4795213937759399 14.149465799331663 7.0469291806220999 120.91154891252518 5.2546966224908811 52.653497442603111 143.39525240659714
leaf_count=33 27 58 677 383 472 197 710 24 23 72 37 99 442 391 56 103 227 25 122 34 37 251 19 49 23 619 20 139 398
internal_value=0.0135191 -0.011338 0.0360235 0.029182 -0.00159312 0.00342516 0.00898525 0.0423527 0.0209833 -0.0260794 -0.0276415 -0.0332449 -0.0181097 0.0237946 0.00171381 -0.0141801 0.0460178 0.0511698 0.0307379 -0.0259489 0.0100886 -0.0362083 -0.0125237 -0.0278788 0.0421069 -0.0470687 -0.0194541 0.0575547 0.0594706
internal_weight=1646.52 782.362 864.158 595.276 489.673 406.017 341.636 228.387 366.889 64.3809 292.688 245.774 117.322 346.928 46.9139 36.3902 215.602 268.882 64.0195 83.6562 18.5382 65.1179 13.3229 19.9606 50.6966 128.452 12.7852 204.863 196.049
internal_count=5767 3220 2547 1794 1831 1451 1182 654 1140 269 1389 1193 541 1068 196 159 610 753 189 380 71 309 44 72 145 652 44 564 537
is_linear=0
shrinkage=0.05


end of trees

feature_importances:
vix_level=39
usdjpy_level=36
volatility_20d=25
macd_histogram=25
atr_14=23
rsp_vs_spy=17
macd_signal=16
price_vs_sma200=15
macd=13
bb_width=11
usdjpy_volatility=10
vix_percentile_252d=10
vvix_percentile_252d=10
vix3m_percentile=10
vix_momentum_5d=9
bb_width_percentile=8
vix_term_structure=8
return_50d=7
adx=7
bb_width_distance_interaction=7
plus_di=6
vix_momentum_3d=6
vvix_level=6
vix_change=6
xlu_vs_xlk=5
vix_vs_realized=5
minus_di=4
distance_from_20d_high=4
dxy_rsi=4
eurusd_momentum_5d=4
put_call_premium_ratio=4
usdjpy_momentum_5d=3
dxy_level=3
vix_momentum_10d=3
sma_50=2
vix_term_momentum=2
put_call_volume_ratio=2
trend_strength=2
xlv_vs_xlk=1
regime_confidence=1
rsi=1
extended_move=1
usdjpy_acceleration_3d=1
vix_regime=1
vix_vs_ma20=1
otm_put_itm_call_ratio=1

parameters:
[boosting: gbdt]
[objective: binary]
[metric: auc]
[tree_learner: serial]
[device_type: cpu]
[data_sample_strategy: bagging]
[data: ]
[valid: ]
[num_iterations: 1000]
[learning_rate: 0.05]
[num_leaves: 31]
[num_threads: 10]
[seed: 42]
[deterministic: 0]
[force_col_wise: 0]
[force_row_wise: 0]
[histogram_pool_size: -1]
[max_depth: 5]
[min_data_in_leaf: 20]
[min_sum_hessian_in_leaf: 0.001]
[bagging_fraction: 1]
[pos_bagging_fraction: 1]
[neg_bagging_fraction: 1]
[bagging_freq: 0]
[bagging_seed: 400]
[bagging_by_query: 0]
[feature_fraction: 1]
[feature_fraction_bynode: 1]
[feature_fraction_seed: 30056]
[extra_trees: 0]
[extra_seed: 12879]
[early_stopping_round: 0]
[early_stopping_min_delta: 0]
[first_metric_only: 0]
[max_delta_step: 0]
[lambda_l1: 0]
[lambda_l2: 0]
[linear_lambda: 0]
[min_gain_to_split: 0]
[drop_rate: 0.1]
[max_drop: 50]
[skip_drop: 0.5]
[xgboost_dart_mode: 0]
[uniform_drop: 0]
[drop_seed: 17869]
[top_rate: 0.2]
[other_rate: 0.1]
[min_data_per_group: 100]
[max_cat_threshold: 32]
[cat_l2: 10]
[cat_smooth: 10]
[max_cat_to_onehot: 4]
[top_k: 20]
[monotone_constraints: ]
[monotone_constraints_method: basic]
[monotone_penalty: 0]
[feature_contri: ]
[forcedsplits_filename: ]
[refit_decay_rate: 0.9]
[cegb_tradeoff: 1]
[cegb_penalty_split: 0]
[cegb_penalty_feature_lazy: ]
[cegb_penalty_feature_coupled: ]
[path_smooth: 0]
[interaction_constraints: ]
[verbosity: 1]
[saved_feature_importance_type: 0]
[use_quantized_grad: 0]
[num_grad_quant_bins: 4]
[quant_train_renew_leaf: 0]
[stochastic_rounding: 1]
[linear_tree: 0]
[max_bin: 255]
[max_bin_by_feature: ]
[min_data_in_bin: 3]
[bin_construct_sample_cnt: 200000]
[data_random_seed: 175]
[is_enable_sparse: 1]
[enable_bundle: 1]
[use_missing: 1]
[zero_as_missing: 0]
[feature_pre_filter: 1]
[pre_partition: 0]
[two_round: 0]
[header: 0]
[label_column: ]
[weight_column: ]
[group_column: ]
[ignore_column: ]
[categorical_feature: ]
[forcedbins_filename: ]
[precise_float_parser: 0]
[parser_config_file: ]
[objective_seed: 16083]
[num_class: 1]
[is_unbalance: 1]
[scale_pos_weight: 1]
[sigmoid: 1]
[boost_from_average: 1]
[reg_sqrt: 0]
[alpha: 0.9]
[fair_c: 1]
[poisson_max_delta_step: 0.7]
[tweedie_variance_power: 1.5]
[lambdarank_truncation_level: 30]
[lambdarank_norm: 1]
[label_gain: ]
[lambdarank_position_bias_regularization: 0]
[eval_at: ]
[multi_error_top_k: 1]
[auc_mu_weights: ]
[num_machines: 1]
[local_listen_port: 12400]
[time_out: 120]
[machine_list_filename: ]
[machines: ]
[gpu_platform_id: -1]
[gpu_device_id: -1]
[gpu_use_dp: 0]
[num_gpu: 1]

end of parameters

pandas_categorical:[]
